{"learner":{"attributes":{"scikit_learn":"{\"_estimator_type\": \"classifier\"}"},"feature_names":[],"feature_types":[],"gradient_booster":{"model":{"cats":{"enc":[],"feature_segments":[],"sorted_idx":[]},"gbtree_model_param":{"num_parallel_tree":"1","num_trees":"4417"},"iteration_indptr":[0,7,14,21,28,35,42,49,56,63,70,77,84,91,98,105,112,119,126,133,140,147,154,161,168,175,182,189,196,203,210,217,224,231,238,245,252,259,266,273,280,287,294,301,308,315,322,329,336,343,350,357,364,371,378,385,392,399,406,413,420,427,434,441,448,455,462,469,476,483,490,497,504,511,518,525,532,539,546,553,560,567,574,581,588,595,602,609,616,623,630,637,644,651,658,665,672,679,686,693,700,707,714,721,728,735,742,749,756,763,770,777,784,791,798,805,812,819,826,833,840,847,854,861,868,875,882,889,896,903,910,917,924,931,938,945,952,959,966,973,980,987,994,1001,1008,1015,1022,1029,1036,1043,1050,1057,1064,1071,1078,1085,1092,1099,1106,1113,1120,1127,1134,1141,1148,1155,1162,1169,1176,1183,1190,1197,1204,1211,1218,1225,1232,1239,1246,1253,1260,1267,1274,1281,1288,1295,1302,1309,1316,1323,1330,1337,1344,1351,1358,1365,1372,1379,1386,1393,1400,1407,1414,1421,1428,1435,1442,1449,1456,1463,1470,1477,1484,1491,1498,1505,1512,1519,1526,1533,1540,1547,1554,1561,1568,1575,1582,1589,1596,1603,1610,1617,1624,1631,1638,1645,1652,1659,1666,1673,1680,1687,1694,1701,1708,1715,1722,1729,1736,1743,1750,1757,1764,1771,1778,1785,1792,1799,1806,1813,1820,1827,1834,1841,1848,1855,1862,1869,1876,1883,1890,1897,1904,1911,1918,1925,1932,1939,1946,1953,1960,1967,1974,1981,1988,1995,2002,2009,2016,2023,2030,2037,2044,2051,2058,2065,2072,2079,2086,2093,2100,2107,2114,2121,2128,2135,2142,2149,2156,2163,2170,2177,2184,2191,2198,2205,2212,2219,2226,2233,2240,2247,2254,2261,2268,2275,2282,2289,2296,2303,2310,2317,2324,2331,2338,2345,2352,2359,2366,2373,2380,2387,2394,2401,2408,2415,2422,2429,2436,2443,2450,2457,2464,2471,2478,2485,2492,2499,2506,2513,2520,2527,2534,2541,2548,2555,2562,2569,2576,2583,2590,2597,2604,2611,2618,2625,2632,2639,2646,2653,2660,2667,2674,2681,2688,2695,2702,2709,2716,2723,2730,2737,2744,2751,2758,2765,2772,2779,2786,2793,2800,2807,2814,2821,2828,2835,2842,2849,2856,2863,2870,2877,2884,2891,2898,2905,2912,2919,2926,2933,2940,2947,2954,2961,2968,2975,2982,2989,2996,3003,3010,3017,3024,3031,3038,3045,3052,3059,3066,3073,3080,3087,3094,3101,3108,3115,3122,3129,3136,3143,3150,3157,3164,3171,3178,3185,3192,3199,3206,3213,3220,3227,3234,3241,3248,3255,3262,3269,3276,3283,3290,3297,3304,3311,3318,3325,3332,3339,3346,3353,3360,3367,3374,3381,3388,3395,3402,3409,3416,3423,3430,3437,3444,3451,3458,3465,3472,3479,3486,3493,3500,3507,3514,3521,3528,3535,3542,3549,3556,3563,3570,3577,3584,3591,3598,3605,3612,3619,3626,3633,3640,3647,3654,3661,3668,3675,3682,3689,3696,3703,3710,3717,3724,3731,3738,3745,3752,3759,3766,3773,3780,3787,3794,3801,3808,3815,3822,3829,3836,3843,3850,3857,3864,3871,3878,3885,3892,3899,3906,3913,3920,3927,3934,3941,3948,3955,3962,3969,3976,3983,3990,3997,4004,4011,4018,4025,4032,4039,4046,4053,4060,4067,4074,4081,4088,4095,4102,4109,4116,4123,4130,4137,4144,4151,4158,4165,4172,4179,4186,4193,4200,4207,4214,4221,4228,4235,4242,4249,4256,4263,4270,4277,4284,4291,4298,4305,4312,4319,4326,4333,4340,4347,4354,4361,4368,4375,4382,4389,4396,4403,4410,4417],"tree_info":[0,1,2,3,4,5,6,0,1,2,3,4,5,6,0,1,2,3,4,5,6,0,1,2,3,4,5,6,0,1,2,3,4,5,6,0,1,2,3,4,5,6,0,1,2,3,4,5,6,0,1,2,3,4,5,6,0,1,2,3,4,5,6,0,1,2,3,4,5,6,0,1,2,3,4,5,6,0,1,2,3,4,5,6,0,1,2,3,4,5,6,0,1,2,3,4,5,6,0,1,2,3,4,5,6,0,1,2,3,4,5,6,0,1,2,3,4,5,6,0,1,2,3,4,5,6,0,1,2,3,4,5,6,0,1,2,3,4,5,6,0,1,2,3,4,5,6,0,1,2,3,4,5,6,0,1,2,3,4,5,6,0,1,2,3,4,5,6,0,1,2,3,4,5,6,0,1,2,3,4,5,6,0,1,2,3,4,5,6,0,1,2,3,4,5,6,0,1,2,3,4,5,6,0,1,2,3,4,5,6,0,1,2,3,4,5,6,0,1,2,3,4,5,6,0,1,2,3,4,5,6,0,1,2,3,4,5,6,0,1,2,3,4,5,6,0,1,2,3,4,5,6,0,1,2,3,4,5,6,0,1,2,3,4,5,6,0,1,2,3,4,5,6,0,1,2,3,4,5,6,0,1,2,3,4,5,6,0,1,2,3,4,5,6,0,1,2,3,4,5,6,0,1,2,3,4,5,6,0,1,2,3,4,5,6,0,1,2,3,4,5,6,0,1,2,3,4,5,6,0,1,2,3,4,5,6,0,1,2,3,4,5,6,0,1,2,3,4,5,6,0,1,2,3,4,5,6,0,1,2,3,4,5,6,0,1,2,3,4,5,6,0,1,2,3,4,5,6,0,1,2,3,4,5,6,0,1,2,3,4,5,6,0,1,2,3,4,5,6,0,1,2,3,4,5,6,0,1,2,3,4,5,6,0,1,2,3,4,5,6,0,1,2,3,4,5,6,0,1,2,3,4,5,6,0,1,2,3,4,5,6,0,1,2,3,4,5,6,0,1,2,3,4,5,6,0,1,2,3,4,5,6,0,1,2,3,4,5,6,0,1,2,3,4,5,6,0,1,2,3,4,5,6,0,1,2,3,4,5,6,0,1,2,3,4,5,6,0,1,2,3,4,5,6,0,1,2,3,4,5,6,0,1,2,3,4,5,6,0,1,2,3,4,5,6,0,1,2,3,4,5,6,0,1,2,3,4,5,6,0,1,2,3,4,5,6,0,1,2,3,4,5,6,0,1,2,3,4,5,6,0,1,2,3,4,5,6,0,1,2,3,4,5,6,0,1,2,3,4,5,6,0,1,2,3,4,5,6,0,1,2,3,4,5,6,0,1,2,3,4,5,6,0,1,2,3,4,5,6,0,1,2,3,4,5,6,0,1,2,3,4,5,6,0,1,2,3,4,5,6,0,1,2,3,4,5,6,0,1,2,3,4,5,6,0,1,2,3,4,5,6,0,1,2,3,4,5,6,0,1,2,3,4,5,6,0,1,2,3,4,5,6,0,1,2,3,4,5,6,0,1,2,3,4,5,6,0,1,2,3,4,5,6,0,1,2,3,4,5,6,0,1,2,3,4,5,6,0,1,2,3,4,5,6,0,1,2,3,4,5,6,0,1,2,3,4,5,6,0,1,2,3,4,5,6,0,1,2,3,4,5,6,0,1,2,3,4,5,6,0,1,2,3,4,5,6,0,1,2,3,4,5,6,0,1,2,3,4,5,6,0,1,2,3,4,5,6,0,1,2,3,4,5,6,0,1,2,3,4,5,6,0,1,2,3,4,5,6,0,1,2,3,4,5,6,0,1,2,3,4,5,6,0,1,2,3,4,5,6,0,1,2,3,4,5,6,0,1,2,3,4,5,6,0,1,2,3,4,5,6,0,1,2,3,4,5,6,0,1,2,3,4,5,6,0,1,2,3,4,5,6,0,1,2,3,4,5,6,0,1,2,3,4,5,6,0,1,2,3,4,5,6,0,1,2,3,4,5,6,0,1,2,3,4,5,6,0,1,2,3,4,5,6,0,1,2,3,4,5,6,0,1,2,3,4,5,6,0,1,2,3,4,5,6,0,1,2,3,4,5,6,0,1,2,3,4,5,6,0,1,2,3,4,5,6,0,1,2,3,4,5,6,0,1,2,3,4,5,6,0,1,2,3,4,5,6,0,1,2,3,4,5,6,0,1,2,3,4,5,6,0,1,2,3,4,5,6,0,1,2,3,4,5,6,0,1,2,3,4,5,6,0,1,2,3,4,5,6,0,1,2,3,4,5,6,0,1,2,3,4,5,6,0,1,2,3,4,5,6,0,1,2,3,4,5,6,0,1,2,3,4,5,6,0,1,2,3,4,5,6,0,1,2,3,4,5,6,0,1,2,3,4,5,6,0,1,2,3,4,5,6,0,1,2,3,4,5,6,0,1,2,3,4,5,6,0,1,2,3,4,5,6,0,1,2,3,4,5,6,0,1,2,3,4,5,6,0,1,2,3,4,5,6,0,1,2,3,4,5,6,0,1,2,3,4,5,6,0,1,2,3,4,5,6,0,1,2,3,4,5,6,0,1,2,3,4,5,6,0,1,2,3,4,5,6,0,1,2,3,4,5,6,0,1,2,3,4,5,6,0,1,2,3,4,5,6,0,1,2,3,4,5,6,0,1,2,3,4,5,6,0,1,2,3,4,5,6,0,1,2,3,4,5,6,0,1,2,3,4,5,6,0,1,2,3,4,5,6,0,1,2,3,4,5,6,0,1,2,3,4,5,6,0,1,2,3,4,5,6,0,1,2,3,4,5,6,0,1,2,3,4,5,6,0,1,2,3,4,5,6,0,1,2,3,4,5,6,0,1,2,3,4,5,6,0,1,2,3,4,5,6,0,1,2,3,4,5,6,0,1,2,3,4,5,6,0,1,2,3,4,5,6,0,1,2,3,4,5,6,0,1,2,3,4,5,6,0,1,2,3,4,5,6,0,1,2,3,4,5,6,0,1,2,3,4,5,6,0,1,2,3,4,5,6,0,1,2,3,4,5,6,0,1,2,3,4,5,6,0,1,2,3,4,5,6,0,1,2,3,4,5,6,0,1,2,3,4,5,6,0,1,2,3,4,5,6,0,1,2,3,4,5,6,0,1,2,3,4,5,6,0,1,2,3,4,5,6,0,1,2,3,4,5,6,0,1,2,3,4,5,6,0,1,2,3,4,5,6,0,1,2,3,4,5,6,0,1,2,3,4,5,6,0,1,2,3,4,5,6,0,1,2,3,4,5,6,0,1,2,3,4,5,6,0,1,2,3,4,5,6,0,1,2,3,4,5,6,0,1,2,3,4,5,6,0,1,2,3,4,5,6,0,1,2,3,4,5,6,0,1,2,3,4,5,6,0,1,2,3,4,5,6,0,1,2,3,4,5,6,0,1,2,3,4,5,6,0,1,2,3,4,5,6,0,1,2,3,4,5,6,0,1,2,3,4,5,6,0,1,2,3,4,5,6,0,1,2,3,4,5,6,0,1,2,3,4,5,6,0,1,2,3,4,5,6,0,1,2,3,4,5,6,0,1,2,3,4,5,6,0,1,2,3,4,5,6,0,1,2,3,4,5,6,0,1,2,3,4,5,6,0,1,2,3,4,5,6,0,1,2,3,4,5,6,0,1,2,3,4,5,6,0,1,2,3,4,5,6,0,1,2,3,4,5,6,0,1,2,3,4,5,6,0,1,2,3,4,5,6,0,1,2,3,4,5,6,0,1,2,3,4,5,6,0,1,2,3,4,5,6,0,1,2,3,4,5,6,0,1,2,3,4,5,6,0,1,2,3,4,5,6,0,1,2,3,4,5,6,0,1,2,3,4,5,6,0,1,2,3,4,5,6,0,1,2,3,4,5,6,0,1,2,3,4,5,6,0,1,2,3,4,5,6,0,1,2,3,4,5,6,0,1,2,3,4,5,6,0,1,2,3,4,5,6,0,1,2,3,4,5,6,0,1,2,3,4,5,6,0,1,2,3,4,5,6,0,1,2,3,4,5,6,0,1,2,3,4,5,6,0,1,2,3,4,5,6,0,1,2,3,4,5,6,0,1,2,3,4,5,6,0,1,2,3,4,5,6,0,1,2,3,4,5,6,0,1,2,3,4,5,6,0,1,2,3,4,5,6,0,1,2,3,4,5,6,0,1,2,3,4,5,6,0,1,2,3,4,5,6,0,1,2,3,4,5,6,0,1,2,3,4,5,6,0,1,2,3,4,5,6,0,1,2,3,4,5,6,0,1,2,3,4,5,6,0,1,2,3,4,5,6,0,1,2,3,4,5,6,0,1,2,3,4,5,6,0,1,2,3,4,5,6,0,1,2,3,4,5,6,0,1,2,3,4,5,6,0,1,2,3,4,5,6,0,1,2,3,4,5,6,0,1,2,3,4,5,6,0,1,2,3,4,5,6,0,1,2,3,4,5,6,0,1,2,3,4,5,6,0,1,2,3,4,5,6,0,1,2,3,4,5,6,0,1,2,3,4,5,6,0,1,2,3,4,5,6,0,1,2,3,4,5,6,0,1,2,3,4,5,6,0,1,2,3,4,5,6,0,1,2,3,4,5,6,0,1,2,3,4,5,6,0,1,2,3,4,5,6,0,1,2,3,4,5,6,0,1,2,3,4,5,6,0,1,2,3,4,5,6,0,1,2,3,4,5,6,0,1,2,3,4,5,6,0,1,2,3,4,5,6,0,1,2,3,4,5,6,0,1,2,3,4,5,6,0,1,2,3,4,5,6,0,1,2,3,4,5,6,0,1,2,3,4,5,6,0,1,2,3,4,5,6,0,1,2,3,4,5,6,0,1,2,3,4,5,6,0,1,2,3,4,5,6,0,1,2,3,4,5,6,0,1,2,3,4,5,6,0,1,2,3,4,5,6,0,1,2,3,4,5,6,0,1,2,3,4,5,6,0,1,2,3,4,5,6,0,1,2,3,4,5,6,0,1,2,3,4,5,6,0,1,2,3,4,5,6,0,1,2,3,4,5,6,0,1,2,3,4,5,6,0,1,2,3,4,5,6,0,1,2,3,4,5,6,0,1,2,3,4,5,6,0,1,2,3,4,5,6,0,1,2,3,4,5,6,0,1,2,3,4,5,6,0,1,2,3,4,5,6,0,1,2,3,4,5,6,0,1,2,3,4,5,6,0,1,2,3,4,5,6,0,1,2,3,4,5,6,0,1,2,3,4,5,6,0,1,2,3,4,5,6,0,1,2,3,4,5,6,0,1,2,3,4,5,6,0,1,2,3,4,5,6,0,1,2,3,4,5,6,0,1,2,3,4,5,6,0,1,2,3,4,5,6,0,1,2,3,4,5,6,0,1,2,3,4,5,6,0,1,2,3,4,5,6,0,1,2,3,4,5,6,0,1,2,3,4,5,6,0,1,2,3,4,5,6,0,1,2,3,4,5,6,0,1,2,3,4,5,6,0,1,2,3,4,5,6,0,1,2,3,4,5,6,0,1,2,3,4,5,6,0,1,2,3,4,5,6,0,1,2,3,4,5,6,0,1,2,3,4,5,6,0,1,2,3,4,5,6,0,1,2,3,4,5,6,0,1,2,3,4,5,6,0,1,2,3,4,5,6,0,1,2,3,4,5,6,0,1,2,3,4,5,6,0,1,2,3,4,5,6,0,1,2,3,4,5,6,0,1,2,3,4,5,6,0,1,2,3,4,5,6,0,1,2,3,4,5,6,0,1,2,3,4,5,6,0,1,2,3,4,5,6,0,1,2,3,4,5,6,0,1,2,3,4,5,6,0,1,2,3,4,5,6,0,1,2,3,4,5,6,0,1,2,3,4,5,6,0,1,2,3,4,5,6,0,1,2,3,4,5,6,0,1,2,3,4,5,6,0,1,2,3,4,5,6,0,1,2,3,4,5,6,0,1,2,3,4,5,6,0,1,2,3,4,5,6,0,1,2,3,4,5,6,0,1,2,3,4,5,6,0,1,2,3,4,5,6,0,1,2,3,4,5,6,0,1,2,3,4,5,6,0,1,2,3,4,5,6,0,1,2,3,4,5,6,0,1,2,3,4,5,6,0,1,2,3,4,5,6,0,1,2,3,4,5,6,0,1,2,3,4,5,6,0,1,2,3,4,5,6,0,1,2,3,4,5,6,0,1,2,3,4,5,6,0,1,2,3,4,5,6,0,1,2,3,4,5,6,0,1,2,3,4,5,6,0,1,2,3,4,5,6,0,1,2,3,4,5,6,0,1,2,3,4,5,6,0,1,2,3,4,5,6,0,1,2,3,4,5,6,0,1,2,3,4,5,6,0,1,2,3,4,5,6,0,1,2,3,4,5,6,0,1,2,3,4,5,6,0,1,2,3,4,5,6,0,1,2,3,4,5,6,0,1,2,3,4,5,6,0,1,2,3,4,5,6,0,1,2,3,4,5,6,0,1,2,3,4,5,6,0,1,2,3,4,5,6,0,1,2,3,4,5,6,0,1,2,3,4,5,6,0,1,2,3,4,5,6,0,1,2,3,4,5,6,0,1,2,3,4,5,6,0,1,2,3,4,5,6,0,1,2,3,4,5,6,0,1,2,3,4,5,6,0,1,2,3,4,5,6,0,1,2,3,4,5,6,0,1,2,3,4,5,6,0,1,2,3,4,5,6,0,1,2,3,4,5,6,0,1,2,3,4,5,6,0,1,2,3,4,5,6,0,1,2,3,4,5,6,0,1,2,3,4,5,6,0,1,2,3,4,5,6,0,1,2,3,4,5,6,0,1,2,3,4,5,6,0,1,2,3,4,5,6,0,1,2,3,4,5,6,0,1,2,3,4,5,6,0,1,2,3,4,5,6,0,1,2,3,4,5,6,0,1,2,3,4,5,6,0,1,2,3,4,5,6,0,1,2,3,4,5,6,0,1,2,3,4,5,6,0,1,2,3,4,5,6,0,1,2,3,4,5,6,0,1,2,3,4,5,6,0,1,2,3,4,5,6,0,1,2,3,4,5,6,0,1,2,3,4,5,6,0,1,2,3,4,5,6,0,1,2,3,4,5,6,0,1,2,3,4,5,6,0,1,2,3,4,5,6,0,1,2,3,4,5,6,0,1,2,3,4,5,6,0,1,2,3,4,5,6,0,1,2,3,4,5,6,0,1,2,3,4,5,6,0,1,2,3,4,5,6,0,1,2,3,4,5,6,0,1,2,3,4,5,6,0,1,2,3,4,5,6,0,1,2,3,4,5,6,0,1,2,3,4,5,6,0,1,2,3,4,5,6,0,1,2,3,4,5,6,0,1,2,3,4,5,6,0,1,2,3,4,5,6,0,1,2,3,4,5,6,0,1,2,3,4,5,6,0,1,2,3,4,5,6,0,1,2,3,4,5,6,0,1,2,3,4,5,6,0,1,2,3,4,5,6,0,1,2,3,4,5,6,0,1,2,3,4,5,6,0,1,2,3,4,5,6,0,1,2,3,4,5,6,0,1,2,3,4,5,6,0,1,2,3,4,5,6,0,1,2,3,4,5,6,0,1,2,3,4,5,6,0,1,2,3,4,5,6,0,1,2,3,4,5,6,0,1,2,3,4,5,6,0,1,2,3,4,5,6,0,1,2,3,4,5,6,0,1,2,3,4,5,6,0,1,2,3,4,5,6,0,1,2,3,4,5,6,0,1,2,3,4,5,6,0,1,2,3,4,5,6,0,1,2,3,4,5,6,0,1,2,3,4,5,6,0,1,2,3,4,5,6,0,1,2,3,4,5,6,0,1,2,3,4,5,6,0,1,2,3,4,5,6,0,1,2,3,4,5,6,0,1,2,3,4,5,6,0,1,2,3,4,5,6,0,1,2,3,4,5,6,0,1,2,3,4,5,6,0,1,2,3,4,5,6,0,1,2,3,4,5,6,0,1,2,3,4,5,6,0,1,2,3,4,5,6,0,1,2,3,4,5,6,0,1,2,3,4,5,6,0,1,2,3,4,5,6,0,1,2,3,4,5,6,0,1,2,3,4,5,6,0,1,2,3,4,5,6,0,1,2,3,4,5,6,0,1,2,3,4,5,6,0,1,2,3,4,5,6,0,1,2,3,4,5,6,0,1,2,3,4,5,6,0,1,2,3,4,5,6,0,1,2,3,4,5,6,0,1,2,3,4,5,6,0,1,2,3,4,5,6,0,1,2,3,4,5,6,0,1,2,3,4,5,6,0,1,2,3,4,5,6,0,1,2,3,4,5,6,0,1,2,3,4,5,6,0,1,2,3,4,5,6,0,1,2,3,4,5,6,0,1,2,3,4,5,6,0,1,2,3,4,5,6,0,1,2,3,4,5,6,0,1,2,3,4,5,6,0,1,2,3,4,5,6,0,1,2,3,4,5,6,0,1,2,3,4,5,6,0,1,2,3,4,5,6,0,1,2,3,4,5,6,0,1,2,3,4,5,6,0,1,2,3,4,5,6,0,1,2,3,4,5,6,0,1,2,3,4,5,6,0,1,2,3,4,5,6,0,1,2,3,4,5,6,0,1,2,3,4,5,6,0,1,2,3,4,5,6,0,1,2,3,4,5,6,0,1,2,3,4,5,6,0,1,2,3,4,5,6,0,1,2,3,4,5,6,0,1,2,3,4,5,6,0,1,2,3,4,5,6,0,1,2,3,4,5,6,0,1,2,3,4,5,6,0,1,2,3,4,5,6,0,1,2,3,4,5,6,0,1,2,3,4,5,6,0,1,2,3,4,5,6,0,1,2,3,4,5,6,0,1,2,3,4,5,6,0,1,2,3,4,5,6,0,1,2,3,4,5,6,0,1,2,3,4,5,6,0,1,2,3,4,5,6,0,1,2,3,4,5,6,0,1,2,3,4,5,6,0,1,2,3,4,5,6,0,1,2,3,4,5,6,0,1,2,3,4,5,6,0,1,2,3,4,5,6,0,1,2,3,4,5,6,0,1,2,3,4,5,6,0,1,2,3,4,5,6,0,1,2,3,4,5,6,0,1,2,3,4,5,6,0,1,2,3,4,5,6,0,1,2,3,4,5,6,0,1,2,3,4,5,6,0,1,2,3,4,5,6,0,1,2,3,4,5,6,0,1,2,3,4,5,6,0,1,2,3,4,5,6,0,1,2,3,4,5,6,0,1,2,3,4,5,6,0,1,2,3,4,5,6,0,1,2,3,4,5,6,0,1,2,3,4,5,6,0,1,2,3,4,5,6,0,1,2,3,4,5,6,0,1,2,3,4,5,6,0,1,2,3,4,5,6,0,1,2,3,4,5,6,0,1,2,3,4,5,6,0,1,2,3,4,5,6,0,1,2,3,4,5,6,0,1,2,3,4,5,6,0,1,2,3,4,5,6,0,1,2,3,4,5,6,0,1,2,3,4,5,6,0,1,2,3,4,5,6,0,1,2,3,4,5,6,0,1,2,3,4,5,6,0,1,2,3,4,5,6,0,1,2,3,4,5,6,0,1,2,3,4,5,6,0,1,2,3,4,5,6,0,1,2,3,4,5,6,0,1,2,3,4,5,6,0,1,2,3,4,5,6,0,1,2,3,4,5,6,0,1,2,3,4,5,6,0,1,2,3,4,5,6,0,1,2,3,4,5,6,0,1,2,3,4,5,6,0,1,2,3,4,5,6,0,1,2,3,4,5,6,0,1,2,3,4,5,6,0,1,2,3,4,5,6,0,1,2,3,4,5,6,0,1,2,3,4,5,6,0,1,2,3,4,5,6,0,1,2,3,4,5,6,0,1,2,3,4,5,6,0,1,2,3,4,5,6,0,1,2,3,4,5,6,0,1,2,3,4,5,6,0,1,2,3,4,5,6,0,1,2,3,4,5,6,0,1,2,3,4,5,6,0,1,2,3,4,5,6,0,1,2,3,4,5,6,0,1,2,3,4,5,6,0,1,2,3,4,5,6,0,1,2,3,4,5,6],"trees":[{"base_weights":[-0E0,7.88827E-1,-5.4294443E-1,1.5290143E0,-1.1036727E-1,-1.2146663E-1,-1.1040994E-1,2.761043E0,-1.0379056E-1,3.6769763E-1,-1.1011528E-1,2.1892626E0,2.9682481E0,2.753546E-1,-1.0980528E-1,3.3092153E-1,5.075594E-1,5.8852845E-1,4.627537E-1],"categories":[],"categories_nodes":[],"categories_segments":[],"categories_sizes":[],"default_left":[0,0,0,0,0,0,0,0,0,0,0,0,0,0,0,0,0,0,0],"id":0,"left_children":[1,3,5,7,-1,9,-1,11,-1,13,-1,15,17,-1,-1,-1,-1,-1,-1],"loss_changes":[1.2554993E2,1.2136627E2,2.9407806E0,1.98713E2,0E0,3.421011E0,0E0,5.707672E0,0E0,7.5793695E0,0E0,2.7600822E0,2.5636597E0,0E0,0E0,0E0,0E0,0E0,0E0],"parents":[2147483647,0,0,1,1,2,2,3,3,5,5,7,7,9,9,11,11,12,12],"right_children":[2,4,6,8,-1,10,-1,12,-1,14,-1,16,18,-1,-1,-1,-1,-1,-1],"split_conditions":[5.656041E1,5.241683E1,6.0174793E1,4.796863E1,-1.1036727E-1,4.167776E1,-1.1040994E-1,2.6397291E1,-1.0379056E-1,3.7987953E1,-1.1011528E-1,3.2479416E1,3.4705223E1,2.753546E-1,-1.0980528E-1,3.3092153E-1,5.075594E-1,5.8852845E-1,4.627537E-1],"split_indices":[0,1,0,4,0,1,0,1,0,4,0,4,4,0,0,0,0,0,0],"split_type":[0,0,0,0,0,0,0,0,0,0,0,0,0,0,0,0,0,0,0],"sum_hessian":[2.9314288E2,1.19510216E2,1.7363266E2,7.763266E1,4.1877556E1,1.5183675E1,1.5844899E2,4.8734695E1,2.889796E1,7.346939E0,7.8367352E0,1.2979592E1,3.5755104E1,3.4285717E0,3.9183676E0,6.8571434E0,6.1224494E0,2.8163267E1,7.5918374E0],"tree_param":{"num_deleted":"0","num_feature":"5","num_nodes":"19","size_leaf_vector":"1"}},{"base_weights":[4.491623E-4,-5.6718975E-1,6.53235E-1,-1.1041528E-1,2.357419E-2],"categories":[],"categories_nodes":[],"categories_segments":[],"categories_sizes":[],"default_left":[0,0,0,0,0],"id":1,"left_children":[1,3,-1,-1,-1],"loss_changes":[5.6697565E2,2.7725754E0,0E0,0E0,0E0],"parents":[2147483647,0,0,1,1],"right_children":[2,4,-1,-1,-1],"split_conditions":[7.645009E1,6.413788E1,6.53235E-1,-1.1041528E-1,2.357419E-2],"split_indices":[3,3,0,0,0],"split_type":[0,0,0,0,0],"sum_hessian":[2.8946942E2,2.4857144E2,4.089796E1,2.429388E2,5.632653E0],"tree_param":{"num_deleted":"0","num_feature":"5","num_nodes":"5","size_leaf_vector":"1"}},{"base_weights":[1.3601428E-2,8.1066847E-1,-5.483584E-1,-1.1073719E-1,3.3449311E0,-6.7003616E-3,-1.0591024E-1,2.975312E-1,-1.05899855E-1,6.553026E-1,5.333088E-1,-2.1547498E-2,2.001031E0,3.8462803E-2,-5.0064478E-2,5.2556044E-1,1.8611047E-1],"categories":[],"categories_nodes":[],"categories_segments":[],"categories_sizes":[],"default_left":[0,0,0,0,0,0,0,0,0,0,0,0,0,0,0,0,0],"id":2,"left_children":[1,3,5,7,9,-1,-1,11,-1,-1,-1,13,15,-1,-1,-1,-1],"loss_changes":[1.3130782E2,2.831109E2,9.733467E-1,1.6288221E1,1.9113159E0,0E0,0E0,2.5317139E1,0E0,0E0,0E0,2.1399224E0,5.7496796E0,0E0,0E0,0E0,0E0],"parents":[2147483647,0,0,1,1,2,2,3,3,4,4,7,7,11,11,12,12],"right_children":[2,4,6,8,10,-1,-1,12,-1,-1,-1,14,16,-1,-1,-1,-1],"split_conditions":[3.699E1,6.655551E1,3.756923E1,3.989657E1,2.9297525E1,-6.7003616E-3,-1.0591024E-1,5.5844147E1,-1.05899855E-1,6.553026E-1,5.333088E-1,2.9373869E1,2.6599651E1,3.8462803E-2,-5.0064478E-2,5.2556044E-1,1.8611047E-1],"split_indices":[4,0,4,1,3,0,0,0,0,0,0,1,3,0,0,0,0],"split_type":[0,0,0,0,0,0,0,0,0,0,0,0,0,0,0,0,0],"sum_hessian":[2.9314288E2,1.21224495E2,1.7191838E2,8.8897964E1,3.2326534E1,3.6734695E0,1.682449E2,4.6530617E1,4.236735E1,2.6448982E1,5.8775516E0,3.9183678E1,7.346939E0,2.0326532E1,1.8857143E1,4.1632657E0,3.1836736E0],"tree_param":{"num_deleted":"0","num_feature":"5","num_nodes":"17","size_leaf_vector":"1"}},{"base_weights":[-9.230921E-3,-1.1041033E-1,7.0847E-1,2.6987123E0,-1.1039447E-1,9.5809466E-1,3.1760013E0,5.17846E-2,2.756816E-1,6.4145076E-1,2.5274503E-1],"categories":[],"categories_nodes":[],"categories_segments":[],"categories_sizes":[],"default_left":[0,0,0,0,0,0,0,0,0,0,0],"id":3,"left_children":[1,-1,3,5,-1,7,9,-1,-1,-1,-1],"loss_changes":[1.2056477E2,0E0,3.3432022E2,4.2469147E1,0E0,3.736333E0,1.565271E1,0E0,0E0,0E0,0E0],"parents":[2147483647,0,0,2,2,3,3,5,5,6,6],"right_children":[2,-1,4,6,-1,8,10,-1,-1,-1,-1],"split_conditions":[5.241683E1,-1.1041033E-1,4.4029152E1,8.492867E1,-1.1039447E-1,3.0334957E1,3.8137154E1,5.17846E-2,2.756816E-1,6.4145076E-1,2.5274503E-1],"split_indices":[1,0,4,1,0,3,3,0,0,0,0],"split_type":[0,0,0,0,0,0,0,0,0,0,0],"sum_hessian":[2.9265308E2,1.6261226E2,1.3004083E2,5.1183678E1,7.885715E1,1.1020409E1,4.016327E1,4.6530614E0,6.3673472E0,3.6000004E1,4.1632657E0],"tree_param":{"num_deleted":"0","num_feature":"5","num_nodes":"11","size_leaf_vector":"1"}},{"base_weights":[-9.71094E-3,5.550043E-1,-1.0911389E-1,-2.9361135E-1,2.5948725E0,4.45617E-2,-5.1882255E-1,3.025468E0,-1.0995289E-1,-3.9971536E-1,6.377618E-2,-1.06930204E-1,-3.279692E-2,3.7227196E-1,3.2190654E0,-1.1023451E-1,4.350878E-2,6.46174E-1,5.11975E-1],"categories":[],"categories_nodes":[],"categories_segments":[],"categories_sizes":[],"default_left":[0,0,0,0,0,0,0,0,0,0,0,0,0,0,0,0,0,0,0],"id":4,"left_children":[1,3,-1,5,7,9,11,13,-1,15,-1,-1,-1,-1,17,-1,-1,-1,-1],"loss_changes":[9.373384E1,2.5396605E2,0E0,7.8956776E0,5.89711E1,5.3746853E0,9.8036194E-1,7.7151184E0,0E0,1.8908587E0,0E0,0E0,0E0,0E0,3.1305542E0,0E0,0E0,0E0,0E0],"parents":[2147483647,0,0,1,1,3,3,4,4,5,5,6,6,7,7,9,9,14,14],"right_children":[2,4,-1,6,8,10,12,14,-1,16,-1,-1,-1,-1,18,-1,-1,-1,-1],"split_conditions":[6.550762E1,4.7059322E1,-1.0911389E-1,4.826162E1,4.402785E1,3.1413288E1,3.8402817E1,5.970839E1,-1.0995289E-1,4.5154938E1,6.377618E-2,-1.06930204E-1,-3.279692E-2,3.7227196E-1,5.5844147E1,-1.1023451E-1,4.350878E-2,6.46174E-1,5.11975E-1],"split_indices":[0,4,0,0,2,4,4,4,0,0,0,0,0,0,0,0,0,0,0],"split_type":[0,0,0,0,0,0,0,0,0,0,0,0,0,0,0,0,0,0,0],"sum_hessian":[2.9289798E2,1.466939E2,1.4620409E2,1.0359184E2,4.3102043E1,4.1387756E1,6.2204086E1,3.7959187E1,5.1428576E0,1.6408165E1,2.4979593E1,5.4857147E1,7.346939E0,5.8775516E0,3.2081635E1,1.27346945E1,3.6734695E0,2.3265308E1,8.816327E0],"tree_param":{"num_deleted":"0","num_feature":"5","num_nodes":"19","size_leaf_vector":"1"}},{"base_weights":[5.8285035E-3,-1.0804989E-1,7.092444E-1,1.2775627E0,-1.1036479E-1,-5.8628134E-2,3.1571887E0,-3.136088E-1,4.412287E-1,2.439417E0,3.3081841E0,7.6662466E-2,-8.679842E-2,6.066304E-1,3.0502996E-1,6.624376E-1,5.491911E-1],"categories":[],"categories_nodes":[],"categories_segments":[],"categories_sizes":[],"default_left":[0,0,0,0,0,0,0,0,0,0,0,0,0,0,0,0,0],"id":5,"left_children":[1,-1,3,5,-1,7,9,11,-1,13,15,-1,-1,-1,-1,-1,-1],"loss_changes":[1.1840364E2,0E0,9.6591866E1,2.2946117E2,0E0,3.2501545E1,4.040283E0,5.024554E0,0E0,4.1277924E0,2.3575134E0,0E0,0E0,0E0,0E0,0E0,0E0],"parents":[2147483647,0,0,2,2,3,3,5,5,6,6,7,7,9,9,10,10],"right_children":[2,-1,4,6,-1,8,10,12,-1,14,16,-1,-1,-1,-1,-1,-1],"split_conditions":[5.241683E1,-1.0804989E-1,8.221284E1,6.387608E1,-1.1036479E-1,3.9266434E1,7.071215E1,2.7834864E1,4.412287E-1,8.678372E1,3.8627483E1,7.6662466E-2,-8.679842E-2,6.066304E-1,3.0502996E-1,6.624376E-1,5.491911E-1],"split_indices":[1,0,3,0,0,3,0,3,0,1,2,0,0,0,0,0,0],"split_type":[0,0,0,0,0,0,0,0,0,0,0,0,0,0,0,0,0],"sum_hessian":[2.919184E2,1.6040817E2,1.3151021E2,9.134695E1,4.016327E1,5.338776E1,3.7959187E1,4.82449E1,5.1428576E0,6.6122456E0,3.1346941E1,8.081634E0,4.016327E1,3.4285717E0,3.1836736E0,2.1306124E1,1.0040817E1],"tree_param":{"num_deleted":"0","num_feature":"5","num_nodes":"17","size_leaf_vector":"1"}},{"base_weights":[3.36751E-3,-9.556825E-2,5.587661E-1,1.7088803E0,-1.10390715E-1,-5.1861626E-1,6.624888E-1,-0E0,-1.1033749E-1],"categories":[],"categories_nodes":[],"categories_segments":[],"categories_sizes":[],"default_left":[0,0,0,0,0,0,0,0,0],"id":6,"left_children":[1,-1,3,5,-1,7,-1,-1,-1],"loss_changes":[8.274408E1,0E0,1.8398856E2,2.7845233E2,0E0,1.0364084E0,0E0,0E0,0E0],"parents":[2147483647,0,0,2,2,3,3,5,5],"right_children":[2,-1,4,6,-1,8,-1,-1,-1],"split_conditions":[6.710032E1,-9.556825E-2,6.3148937E1,3.756923E1,-1.10390715E-1,2.3870699E1,6.624888E-1,-0E0,-1.1033749E-1],"split_indices":[0,0,1,4,0,1,0,0,0],"split_type":[0,0,0,0,0,0,0,0,0],"sum_hessian":[2.9314288E2,1.5306123E2,1.4008165E2,6.979592E1,7.028572E1,3.1102043E1,3.8693882E1,3.4285717E0,2.7673471E1],"tree_param":{"num_deleted":"0","num_feature":"5","num_nodes":"9","size_leaf_vector":"1"}},{"base_weights":[-5.8000763E-3,5.35321E-1,-1.06597915E-1,9.919643E-1,-1.080141E-1,1.6135055E0,-4.492102E-1,1.6968802E0,1.2556612E0,-1.08850494E-1,1.01037785E-1,2.8887367E-1,3.6291975E-1,1.21991344E-1,3.144817E-1],"categories":[],"categories_nodes":[],"categories_segments":[],"categories_sizes":[],"default_left":[0,0,0,0,0,0,0,0,0,0,0,0,0,0,0],"id":7,"left_children":[1,3,-1,5,-1,7,9,11,13,-1,-1,-1,-1,-1,-1],"loss_changes":[8.703313E1,7.394528E1,0E0,9.2844376E1,0E0,2.1225586E0,3.8612742E0,2.1652985E0,3.370119E0,0E0,0E0,0E0,0E0,0E0,0E0],"parents":[2147483647,0,0,1,1,3,3,5,5,6,6,7,7,8,8],"right_children":[2,4,-1,6,-1,8,10,12,14,-1,-1,-1,-1,-1,-1],"split_conditions":[5.9450283E1,5.241683E1,-1.06597915E-1,4.3306847E1,-1.080141E-1,5.4535706E1,4.0278496E1,4.953018E1,3.0318428E1,-1.08850494E-1,1.01037785E-1,2.8887367E-1,3.6291975E-1,1.21991344E-1,3.144817E-1],"split_indices":[0,1,0,4,0,0,3,0,1,0,0,0,0,0,0],"split_type":[0,0,0,0,0,0,0,0,0,0,0,0,0,0,0],"sum_hessian":[2.8859436E2,1.464128E2,1.4218155E2,1.0363327E2,4.2779526E1,7.241253E1,3.1220743E1,5.8700035E1,1.3712495E1,2.7689884E1,3.530859E0,3.3090107E1,2.5609926E1,5.482537E0,8.229959E0],"tree_param":{"num_deleted":"0","num_feature":"5","num_nodes":"15","size_leaf_vector":"1"}},{"base_weights":[-1.26421E-2,-5.404562E-1,3.5954046E-1,-1.0801256E-1,5.899686E-2],"categories":[],"categories_nodes":[],"categories_segments":[],"categories_sizes":[],"default_left":[0,0,0,0,0],"id":8,"left_children":[1,3,-1,-1,-1],"loss_changes":[2.8949957E2,5.775978E0,0E0,0E0,0E0],"parents":[2147483647,0,0,1,1],"right_children":[2,4,-1,-1,-1],"split_conditions":[8.221284E1,6.413788E1,3.5954046E-1,-1.0801256E-1,5.899686E-2],"split_indices":[3,3,0,0,0],"split_type":[0,0,0,0,0],"sum_hessian":[2.8689032E2,2.2483035E2,6.205999E1,2.1716617E2,7.6641808E0],"tree_param":{"num_deleted":"0","num_feature":"5","num_nodes":"5","size_leaf_vector":"1"}},{"base_weights":[-8.089988E-3,5.880062E-1,-1.00666806E-1,-2.2128719E-1,1.7130882E0,6.7661E-2,-1.0812576E-1,3.576853E-1,-1.10263206E-1,-1.0601484E-1,7.147151E-1,-3.7726987E-2,8.509662E-2,2.5173023E-1,3.8805984E-2],"categories":[],"categories_nodes":[],"categories_segments":[],"categories_sizes":[],"default_left":[0,0,0,0,0,0,0,0,0,0,0,0,0,0,0],"id":9,"left_children":[1,3,-1,5,7,9,-1,-1,-1,11,13,-1,-1,-1,-1],"loss_changes":[8.98323E1,1.22547485E2,0E0,7.9189897E0,2.2820572E1,4.8225746E0,0E0,0E0,0E0,1.7464445E0,2.82766E0,0E0,0E0,0E0,0E0],"parents":[2147483647,0,0,1,1,3,3,4,4,5,5,9,9,10,10],"right_children":[2,4,-1,6,8,10,-1,-1,-1,12,14,-1,-1,-1,-1],"split_conditions":[3.699E1,5.9885063E1,-1.00666806E-1,3.989657E1,5.241683E1,5.4535706E1,-1.0812576E-1,3.576853E-1,-1.10263206E-1,2.9693556E1,2.9960903E1,-3.7726987E-2,8.509662E-2,2.5173023E-1,3.8805984E-2],"split_indices":[4,0,0,1,1,0,0,0,0,3,1,0,0,0,0],"split_type":[0,0,0,0,0,0,0,0,0,0,0,0,0,0,0],"sum_hessian":[2.877682E2,1.3456941E2,1.5319876E2,7.826236E1,5.630705E1,4.2844482E1,3.5417877E1,5.2293674E1,4.0133734E0,3.3762463E1,9.082018E0,2.8928219E1,4.834244E0,4.1042485E0,4.97777E0],"tree_param":{"num_deleted":"0","num_feature":"5","num_nodes":"15","size_leaf_vector":"1"}},{"base_weights":[-1.690296E-2,5.0013584E-1,-1.0665172E-1,-3.3936077E-1,1.1805828E0,-3.493272E-2,-9.918679E-2,1.3987699E0,-8.9446045E-2,-7.7271566E-2,2.9972738E-1,1.4633622E0,2.508222E-3,-1.0793991E-1,1.077479E-1,1.8989237E-1,3.0148494E-1],"categories":[],"categories_nodes":[],"categories_segments":[],"categories_sizes":[],"default_left":[0,0,0,0,0,0,0,0,0,0,0,0,0,0,0,0,0],"id":10,"left_children":[1,3,-1,5,7,9,-1,11,-1,-1,13,15,-1,-1,-1,-1,-1],"loss_changes":[8.193051E1,8.511372E1,0E0,3.7405634E0,2.9693886E1,3.1492698E0,0E0,6.487732E0,0E0,0E0,3.1104026E0,4.098892E0,0E0,0E0,0E0,0E0,0E0],"parents":[2147483647,0,0,1,1,3,3,4,4,5,5,7,7,10,10,11,11],"right_children":[2,4,-1,6,8,10,-1,12,-1,-1,14,16,-1,-1,-1,-1,-1],"split_conditions":[4.2125767E1,2.8995487E1,-1.0665172E-1,4.975971E1,6.934536E1,2.4598406E1,-9.918679E-2,3.9266434E1,-8.9446045E-2,-7.7271566E-2,2.5226942E1,2.9807716E1,2.508222E-3,-1.0793991E-1,1.077479E-1,1.8989237E-1,3.0148494E-1],"split_indices":[4,2,0,0,0,2,0,3,0,0,3,3,0,0,0,0,0],"split_type":[0,0,0,0,0,0,0,0,0,0,0,0,0,0,0,0,0],"sum_hessian":[2.8995535E2,1.4898114E2,1.4097421E2,6.66873E1,8.2293846E1,2.5199936E1,4.1487362E1,7.2705414E1,9.588434E0,1.1931029E1,1.3268907E1,6.9458046E1,3.2473636E0,3.1267838E0,1.0142123E1,1.5252387E1,5.420566E1],"tree_param":{"num_deleted":"0","num_feature":"5","num_nodes":"17","size_leaf_vector":"1"}},{"base_weights":[-1.4095963E-3,2.837714E-1,-1.0449051E-1,-3.1284958E-1,7.979752E-1,-1.0117104E-1,1.3587013E0,1.2508433E0,1.2954047E-1,2.0019865E0,2.8749842E-3,1.3915523E0,-1.14619166E-1,3.905823E-1,-6.949101E-2,4.6225563E-1,2.8727272E-1,1.6610643E-1,2.9158393E-1,2.4989763E-1,5.101827E-2],"categories":[],"categories_nodes":[],"categories_segments":[],"categories_sizes":[],"default_left":[0,0,0,0,0,0,0,0,0,0,0,0,0,0,0,0,0,0,0,0,0],"id":11,"left_children":[1,3,-1,5,7,-1,9,11,13,15,-1,17,-1,19,-1,-1,-1,-1,-1,-1,-1],"loss_changes":[4.5228477E1,5.8213684E1,0E0,3.2517727E1,3.0833885E1,0E0,8.8521385E0,1.5876511E1,5.3381143E0,1.4282055E0,0E0,4.2878036E0,0E0,3.0187469E0,0E0,0E0,0E0,0E0,0E0,0E0,0E0],"parents":[2147483647,0,0,1,1,3,3,4,4,6,6,7,7,8,8,9,9,11,11,13,13],"right_children":[2,4,-1,6,8,-1,10,12,14,16,-1,18,-1,20,-1,-1,-1,-1,-1,-1,-1],"split_conditions":[8.492867E1,4.1695736E1,-1.0449051E-1,6.3148937E1,3.4478855E1,-1.0117104E-1,3.4777824E1,3.8505604E1,3.8888855E1,3.0140558E1,2.8749842E-3,2.6512497E1,-1.14619166E-1,5.697122E1,-6.949101E-2,4.6225563E-1,2.8727272E-1,1.6610643E-1,2.9158393E-1,2.4989763E-1,5.101827E-2],"split_indices":[1,4,0,1,3,0,4,1,2,2,0,3,0,4,0,0,0,0,0,0,0],"split_type":[0,0,0,0,0,0,0,0,0,0,0,0,0,0,0,0,0,0,0,0,0],"sum_hessian":[2.8803394E2,1.8973389E2,9.830006E1,8.781677E1,1.0191711E2,7.75444E1,1.027237E1,6.0743717E1,4.1173393E1,6.9399266E0,3.3324437E0,5.6470215E1,4.273503E0,2.7004877E1,1.4168515E1,3.623162E0,3.3167646E0,1.2693648E1,4.3776566E1,3.0998654E0,2.390501E1],"tree_param":{"num_deleted":"0","num_feature":"5","num_nodes":"21","size_leaf_vector":"1"}},{"base_weights":[-7.0879743E-3,-1.05462715E-1,5.5462146E-1,9.263463E-1,-1.0781413E-1,-3.1148198E-1,1.8210589E0,-7.606335E-2,8.012986E-2,1.8966332E-1,1.9208683E0,3.8022798E-1,2.6818123E-1],"categories":[],"categories_nodes":[],"categories_segments":[],"categories_sizes":[],"default_left":[0,0,0,0,0,0,0,0,0,0,0,0,0],"id":12,"left_children":[1,-1,3,5,-1,7,9,-1,-1,-1,11,-1,-1],"loss_changes":[8.873019E1,0E0,5.9375164E1,1.18277275E2,0E0,2.972794E0,5.030319E0,0E0,0E0,0E0,2.399231E0,0E0,0E0],"parents":[2147483647,0,0,2,2,3,3,5,5,6,6,10,10],"right_children":[2,-1,4,6,-1,8,10,-1,-1,-1,12,-1,-1],"split_conditions":[5.241683E1,-1.05462715E-1,8.221284E1,3.997201E1,-1.0781413E-1,4.651589E1,4.8591293E1,-7.606335E-2,8.012986E-2,1.8966332E-1,7.632316E1,3.8022798E-1,2.6818123E-1],"split_indices":[1,0,3,4,0,2,4,0,0,0,2,0,0],"split_type":[0,0,0,0,0,0,0,0,0,0,0,0,0],"sum_hessian":[2.871925E2,1.4511633E2,1.4207616E2,1.0677908E2,3.529708E1,4.47934E1,6.198568E1,3.990508E1,4.8883204E0,6.746368E0,5.523931E1,4.7030476E1,8.208838E0],"tree_param":{"num_deleted":"0","num_feature":"5","num_nodes":"13","size_leaf_vector":"1"}},{"base_weights":[-6.200585E-3,3.675644E-1,-1.08011924E-1,-4.417768E-1,1.1352825E0,-1.0193525E-1,-2.0467651E-1,-1.0123804E-1,3.586804E-1,-8.6028956E-2,3.7056264E-1,2.2045444E-1,-6.058122E-2],"categories":[],"categories_nodes":[],"categories_segments":[],"categories_sizes":[],"default_left":[0,0,0,0,0,0,0,0,0,0,0,0,0],"id":13,"left_children":[1,3,-1,5,7,-1,9,-1,-1,-1,11,-1,-1],"loss_changes":[6.0608665E1,1.0739418E2,0E0,1.9193783E0,1.1252769E2,0E0,3.5084097E0,0E0,0E0,0E0,4.054696E0,0E0,0E0],"parents":[2147483647,0,0,1,1,3,3,4,4,6,6,10,10],"right_children":[2,4,-1,6,8,-1,10,-1,-1,-1,12,-1,-1],"split_conditions":[6.3148937E1,6.655551E1,-1.08011924E-1,3.0612152E1,3.756923E1,-1.0193525E-1,5.550243E1,-1.0123804E-1,3.586804E-1,-8.6028956E-2,3.3346542E1,2.2045444E-1,-6.058122E-2],"split_indices":[1,0,0,3,4,0,0,0,0,0,3,0,0],"split_type":[0,0,0,0,0,0,0,0,0,0,0,0,0],"sum_hessian":[2.8730475E2,1.7282687E2,1.1447787E2,8.4124596E1,8.870227E1,5.971449E1,2.441011E1,2.7723122E1,6.0979153E1,1.703533E1,7.37478E0,3.439159E0,3.9356215E0],"tree_param":{"num_deleted":"0","num_feature":"5","num_nodes":"13","size_leaf_vector":"1"}},{"base_weights":[5.846619E-3,4.4202933E-1,-1.05873786E-1,7.915553E-1,-1.0633709E-1,1.0136777E0,3.1071937E-1,-3.671162E-2,1.0854996E0,4.747345E-2,2.657653E-1,2.4376531E-1,1.6444525E-1,9.598958E-2,-3.6441877E-2],"categories":[],"categories_nodes":[],"categories_segments":[],"categories_sizes":[],"default_left":[0,0,0,0,0,0,0,0,0,0,0,0,0,0,0],"id":14,"left_children":[1,3,-1,5,-1,7,9,-1,11,13,-1,-1,-1,-1,-1],"loss_changes":[6.8637955E1,5.51447E1,0E0,1.243486E1,0E0,6.926506E0,1.0588303E1,0E0,3.2718887E0,3.2813568E0,0E0,0E0,0E0,0E0,0E0],"parents":[2147483647,0,0,1,1,3,3,5,5,6,6,8,8,9,9],"right_children":[2,4,-1,6,-1,8,10,-1,12,14,-1,-1,-1,-1,-1],"split_conditions":[6.0174793E1,5.241683E1,-1.05873786E-1,2.9399757E1,-1.0633709E-1,2.264047E1,3.8987103E1,-3.671162E-2,2.5678827E1,2.7593992E1,2.657653E-1,2.4376531E-1,1.6444525E-1,9.598958E-2,-3.6441877E-2],"split_indices":[0,1,0,3,0,1,1,0,2,2,0,0,0,0,0],"split_type":[0,0,0,0,0,0,0,0,0,0,0,0,0,0,0],"sum_hessian":[2.7845325E2,1.5716956E2,1.212837E2,1.1658556E2,4.0583992E1,7.972833E1,3.6857235E1,4.46558E0,7.526275E1,2.9713873E1,7.1433597E0,3.891046E1,3.635229E1,1.0211244E1,1.950263E1],"tree_param":{"num_deleted":"0","num_feature":"5","num_nodes":"15","size_leaf_vector":"1"}},{"base_weights":[-1.3194233E-2,-5.411284E-1,1.2851198E0,-1.0619491E-1,4.4092204E-2,-3.3498563E-2,2.615746E-1],"categories":[],"categories_nodes":[],"categories_segments":[],"categories_sizes":[],"default_left":[0,0,0,0,0,0,0],"id":15,"left_children":[1,3,5,-1,-1,-1,-1],"loss_changes":[1.8789523E2,2.9999962E0,1.1216278E1,0E0,0E0,0E0,0E0],"parents":[2147483647,0,0,1,1,2,2],"right_children":[2,4,6,-1,-1,-1,-1],"split_conditions":[8.7715256E1,7.632316E1,6.55448E1,-1.0619491E-1,4.4092204E-2,-3.3498563E-2,2.615746E-1],"split_indices":[2,2,4,0,0,0,0],"split_type":[0,0,0,0,0,0,0],"sum_hessian":[2.7414374E2,1.9490094E2,7.92428E1,1.9004214E2,4.8587976E0,4.9065046E0,7.433629E1],"tree_param":{"num_deleted":"0","num_feature":"5","num_nodes":"7","size_leaf_vector":"1"}},{"base_weights":[2.8282704E-3,5.013226E-1,-1.0055181E-1,-1.4353868E-1,1.3150612E0,1.437993E-1,-1.0112431E-1,2.6221132E-1,3.153877E-2,-7.538284E-2,6.4509743E-1,-3.294085E-2,9.999041E-2,2.8243122E-1,4.422314E-2],"categories":[],"categories_nodes":[],"categories_segments":[],"categories_sizes":[],"default_left":[0,0,0,0,0,0,0,0,0,0,0,0,0,0,0],"id":16,"left_children":[1,3,-1,5,7,9,-1,-1,-1,11,13,-1,-1,-1,-1],"loss_changes":[7.372482E1,7.51869E1,0E0,8.975133E0,5.079422E0,5.06438E0,0E0,0E0,0E0,1.9008545E0,4.863313E0,0E0,0E0,0E0,0E0],"parents":[2147483647,0,0,1,1,3,3,4,4,5,5,9,9,10,10],"right_children":[2,4,-1,6,8,10,-1,-1,-1,12,14,-1,-1,-1,-1],"split_conditions":[3.756923E1,6.387608E1,-1.0055181E-1,3.989657E1,3.7209816E1,5.3818134E1,-1.0112431E-1,2.6221132E-1,3.153877E-2,2.9693556E1,2.5926882E1,-3.294085E-2,9.999041E-2,2.8243122E-1,4.422314E-2],"split_indices":[4,0,0,1,1,0,0,0,0,3,3,0,0,0,0],"split_type":[0,0,0,0,0,0,0,0,0,0,0,0,0,0,0],"sum_hessian":[2.769563E2,1.4325311E2,1.337032E2,7.991071E1,6.3342403E1,4.60254E1,3.388531E1,5.968806E1,3.6543446E0,3.200589E1,1.4019507E1,2.7528782E1,4.477107E0,4.5741844E0,9.445323E0],"tree_param":{"num_deleted":"0","num_feature":"5","num_nodes":"15","size_leaf_vector":"1"}},{"base_weights":[-6.614336E-4,4.29094E-1,-1.0452765E-1,-3.3474195E-1,9.375703E-1,-6.5264754E-2,-9.653621E-2,1.0831008E0,-8.6197086E-2,-3.0306584E-1,1.3430394E-1,1.1223261E0,7.368425E-3,4.2889312E-2,-1.0688361E-1,-6.5495215E-2,6.821786E-2,2.0043553E-1,3.1865934E-1],"categories":[],"categories_nodes":[],"categories_segments":[],"categories_sizes":[],"default_left":[0,0,0,0,0,0,0,0,0,0,0,0,0,0,0,0,0,0,0],"id":17,"left_children":[1,3,-1,5,7,9,-1,11,-1,13,15,17,-1,-1,-1,-1,-1,-1,-1],"loss_changes":[6.5942635E1,6.0734398E1,0E0,2.942627E0,1.9038124E1,1.1718028E0,0E0,3.4667664E0,0E0,1.5662763E0,1.4519376E0,2.8832626E0,0E0,0E0,0E0,0E0,0E0,0E0,0E0],"parents":[2147483647,0,0,1,1,3,3,4,4,5,5,7,7,9,9,10,10,11,11],"right_children":[2,4,-1,6,8,10,-1,12,-1,14,16,18,-1,-1,-1,-1,-1,-1,-1],"split_conditions":[4.2125767E1,2.8995487E1,-1.0452765E-1,4.975971E1,6.934536E1,2.4598406E1,-9.653621E-2,3.9266434E1,-8.6197086E-2,3.0412535E1,2.9955816E1,4.024214E1,7.368425E-3,4.2889312E-2,-1.0688361E-1,-6.5495215E-2,6.821786E-2,2.0043553E-1,3.1865934E-1],"split_indices":[4,2,0,0,0,2,0,3,0,4,4,2,0,0,0,0,0,0,0],"split_type":[0,0,0,0,0,0,0,0,0,0,0,0,0,0,0,0,0,0,0],"sum_hessian":[2.7821182E2,1.5635385E2,1.2185796E2,6.2476326E1,9.3877525E1,2.4645912E1,3.7830414E1,8.500545E1,8.872074E0,1.1275096E1,1.3370817E1,8.1915924E1,3.0895298E0,3.7111886E0,7.563907E0,4.2610803E0,9.109736E0,7.3607025E1,8.308897E0],"tree_param":{"num_deleted":"0","num_feature":"5","num_nodes":"19","size_leaf_vector":"1"}},{"base_weights":[-1.0481521E-3,4.0202412E-1,-1.0679318E-1,-2.893384E-1,1.2079114E0,1.3885387E-2,-9.563869E-2,1.4437909E0,-9.1144584E-2,-7.354136E-2,3.4913185E-1,2.8857887E-1,1.0566094E0,2.4367827E-1,-9.008127E-2,3.3057753E-2,2.7861136E-1],"categories":[],"categories_nodes":[],"categories_segments":[],"categories_sizes":[],"default_left":[0,0,0,0,0,0,0,0,0,0,0,0,0,0,0,0,0],"id":18,"left_children":[1,3,-1,5,7,9,-1,11,-1,-1,13,-1,15,-1,-1,-1,-1],"loss_changes":[6.3810863E1,9.129454E1,0E0,5.7783346E0,3.0162552E1,4.9427285E0,0E0,2.0404205E0,0E0,0E0,1.5495125E1,0E0,4.1807165E0,0E0,0E0,0E0,0E0],"parents":[2147483647,0,0,1,1,3,3,4,4,5,5,7,7,10,10,12,12],"right_children":[2,4,-1,6,8,10,-1,12,-1,-1,14,-1,16,-1,-1,-1,-1],"split_conditions":[6.631044E1,4.2125767E1,-1.0679318E-1,4.8106495E1,4.2793156E1,6.3148937E1,-9.563869E-2,3.2892372E1,-9.1144584E-2,-7.354136E-2,8.492867E1,2.8857887E-1,5.7447975E1,2.4367827E-1,-9.008127E-2,3.3057753E-2,2.7861136E-1],"split_indices":[0,4,0,0,1,1,0,1,0,0,1,0,4,0,0,0,0],"split_type":[0,0,0,0,0,0,0,0,0,0,0,0,0,0,0,0,0],"sum_hessian":[2.8113403E2,1.6383572E2,1.172983E2,8.8175186E1,7.566053E1,3.6645058E1,5.153013E1,6.639745E1,9.263078E0,1.6637646E1,2.0007412E1,5.4922768E1,1.1474684E1,9.369106E0,1.0638306E1,3.6826122E0,7.7920713E0],"tree_param":{"num_deleted":"0","num_feature":"5","num_nodes":"17","size_leaf_vector":"1"}},{"base_weights":[-4.438558E-3,-1.0326678E-1,4.685288E-1,7.3451334E-1,-1.003652E-1,-2.7929834E-1,1.270935E0,-4.0693814E-1,1.7849077E-1,1.3184068E0,4.1711487E-2,-1.01620995E-1,8.880439E-2,2.6148894E-1,1.2954728E-1],"categories":[],"categories_nodes":[],"categories_segments":[],"categories_sizes":[],"default_left":[0,0,0,0,0,0,0,0,0,0,0,0,0,0,0],"id":19,"left_children":[1,-1,3,5,-1,7,9,11,-1,13,-1,-1,-1,-1,-1],"loss_changes":[7.117256E1,0E0,3.9419296E1,6.37416E1,0E0,6.317527E0,3.8027573E0,4.178777E0,0E0,2.8993225E0,0E0,0E0,0E0,0E0,0E0],"parents":[2147483647,0,0,2,2,3,3,5,5,6,6,7,7,9,9],"right_children":[2,-1,4,6,-1,8,10,12,-1,14,-1,-1,-1,-1,-1],"split_conditions":[5.241683E1,-1.0326678E-1,9.812717E1,3.997201E1,-1.003652E-1,4.651589E1,1.0007409E2,5.9724705E1,1.7849077E-1,8.7715256E1,4.1711487E-2,-1.01620995E-1,8.880439E-2,2.6148894E-1,1.2954728E-1],"split_indices":[1,0,2,4,0,2,1,0,0,2,0,0,0,0,0],"split_type":[0,0,0,0,0,0,0,0,0,0,0,0,0,0,0],"sum_hessian":[2.7810867E2,1.2972693E2,1.4838173E2,1.1718515E2,3.1196573E1,4.0540886E1,7.664427E1,3.671686E1,3.8240209E0,7.331907E1,3.3251972E0,3.19888E1,4.7280636E0,6.668018E1,6.63889E0],"tree_param":{"num_deleted":"0","num_feature":"5","num_nodes":"15","size_leaf_vector":"1"}},{"base_weights":[7.818249E-3,3.3414903E-1,-1.0615554E-1,-4.6466166E-1,8.5496134E-1,-9.50308E-2,2.8564718E-2,5.343566E-1,1.097631E0,8.743288E-1,2.435446E-1,2.1956347E-1,2.7212141E-2,2.066389E-1,8.077164E-3,2.6671168E-1,-1.1790672E-2],"categories":[],"categories_nodes":[],"categories_segments":[],"categories_sizes":[],"default_left":[0,0,0,0,0,0,0,0,0,0,0,0,0,0,0,0,0],"id":20,"left_children":[1,3,-1,5,7,-1,-1,9,11,13,15,-1,-1,-1,-1,-1,-1],"loss_changes":[5.2116543E1,7.4258026E1,0E0,1.623723E0,8.3854065E0,0E0,0E0,4.590191E0,3.6329117E0,3.8614311E0,8.970836E0,0E0,0E0,0E0,0E0,0E0,0E0],"parents":[2147483647,0,0,1,1,3,3,4,4,7,7,8,8,9,9,10,10],"right_children":[2,4,-1,6,8,-1,-1,10,12,14,16,-1,-1,-1,-1,-1,-1],"split_conditions":[6.3148937E1,4.123848E1,-1.0615554E-1,3.2764133E1,3.360001E1,-9.50308E-2,2.8564718E-2,2.7775305E1,5.4575207E1,7.43654E1,5.7447975E1,2.1956347E-1,2.7212141E-2,2.066389E-1,8.077164E-3,2.6671168E-1,-1.1790672E-2],"split_indices":[1,4,0,3,3,0,0,3,3,4,4,0,0,0,0,0,0],"split_type":[0,0,0,0,0,0,0,0,0,0,0,0,0,0,0,0,0],"sum_hessian":[2.80891E2,1.784798E2,1.02411194E2,7.043045E1,1.0804935E2,6.642122E1,4.0092316E0,4.6572563E1,6.1476784E1,2.145112E1,2.512144E1,5.7698742E1,3.7780428E0,1.699572E1,4.4554005E0,5.2308517E0,1.9890589E1],"tree_param":{"num_deleted":"0","num_feature":"5","num_nodes":"17","size_leaf_vector":"1"}},{"base_weights":[1.3793525E-3,4.1919205E-1,-5.026838E-1,6.850013E-1,-1.0483499E-1,2.815171E-2,-1.0361067E-1,1.0054445E0,-1.04294464E-1,-1.113699E-1,2.4311578E-1,9.6013516E-2,1.0558681E0,2.392337E-1,1.8424347E-1],"categories":[],"categories_nodes":[],"categories_segments":[],"categories_sizes":[],"default_left":[0,0,0,0,0,0,0,0,0,0,0,0,0,0,0],"id":21,"left_children":[1,3,5,7,-1,9,-1,11,-1,-1,-1,-1,13,-1,-1],"loss_changes":[5.5850784E1,3.7508095E1,2.8551674E0,4.512113E1,0E0,7.212264E0,0E0,2.2527847E0,0E0,0E0,0E0,0E0,1.3814316E0,0E0,0E0],"parents":[2147483647,0,0,1,1,2,2,3,3,5,5,7,7,12,12],"right_children":[2,4,6,8,-1,10,-1,12,-1,-1,-1,-1,14,-1,-1],"split_conditions":[3.8402817E1,5.241683E1,4.5246235E1,6.0174793E1,-1.0483499E-1,2.9915787E1,-1.0361067E-1,2.7447762E1,-1.04294464E-1,-1.113699E-1,2.4311578E-1,9.6013516E-2,3.0199795E1,2.392337E-1,1.8424347E-1],"split_indices":[4,1,0,0,0,1,0,4,0,0,0,0,4,0,0],"split_type":[0,0,0,0,0,0,0,0,0,0,0,0,0,0,0],"sum_hessian":[2.6519843E2,1.4501909E2,1.20179344E2,1.13912796E2,3.1106298E1,9.302125E0,1.1087722E2,9.046769E1,2.3445105E1,6.2329507E0,3.0691743E0,8.3375635E0,8.213013E1,2.330415E1,5.882598E1],"tree_param":{"num_deleted":"0","num_feature":"5","num_nodes":"15","size_leaf_vector":"1"}},{"base_weights":[-7.4228663E-3,-1.0459055E-1,9.9582475E-1,6.580769E-2,2.096051E-1,-1.0671939E-1,6.9674626E-2],"categories":[],"categories_nodes":[],"categories_segments":[],"categories_sizes":[],"default_left":[0,0,0,0,0,0,0],"id":22,"left_children":[1,-1,3,5,-1,-1,-1],"loss_changes":[1.4374571E2,0E0,9.574936E0,1.8839281E0,0E0,0E0,0E0],"parents":[2147483647,0,0,2,2,3,3],"right_children":[2,-1,4,6,-1,-1,-1],"split_conditions":[7.632316E1,-1.0459055E-1,8.809228E1,5.463447E1,2.096051E-1,-1.0671939E-1,6.9674626E-2],"split_indices":[2,0,1,4,0,0,0],"split_type":[0,0,0,0,0,0,0],"sum_hessian":[2.628678E2,1.7033409E2,9.25337E1,9.91352E0,8.262018E1,3.2018912E0,6.711629E0],"tree_param":{"num_deleted":"0","num_feature":"5","num_nodes":"7","size_leaf_vector":"1"}},{"base_weights":[-1.4234544E-2,4.1287652E-1,-9.985302E-2,-1.7970599E-1,1.0201639E0,7.494466E-2,-9.4155334E-2,2.103414E-1,-1.0873521E-1,-8.645903E-2,5.8696747E-1,-5.0234027E-2,4.1335892E-2,4.0429115E-2,2.1307671E-1],"categories":[],"categories_nodes":[],"categories_segments":[],"categories_sizes":[],"default_left":[0,0,0,0,0,0,0,0,0,0,0,0,0,0,0],"id":23,"left_children":[1,3,-1,5,7,9,-1,-1,-1,11,13,-1,-1,-1,-1],"loss_changes":[5.7958195E1,5.1935074E1,0E0,5.9123E0,1.0347122E1,3.3539882E0,0E0,0E0,0E0,1.6791332E0,1.9392428E0,0E0,0E0,0E0,0E0],"parents":[2147483647,0,0,1,1,3,3,4,4,5,5,9,9,10,10],"right_children":[2,4,-1,6,8,10,-1,-1,-1,12,14,-1,-1,-1,-1],"split_conditions":[3.756923E1,6.0509644E1,-9.985302E-2,3.5061203E1,3.989657E1,5.4535706E1,-9.4155334E-2,2.103414E-1,-1.0873521E-1,2.5804243E1,2.5420567E1,-5.0234027E-2,4.1335892E-2,4.0429115E-2,2.1307671E-1],"split_indices":[4,0,0,1,1,0,0,0,0,2,2,0,0,0,0],"split_type":[0,0,0,0,0,0,0,0,0,0,0,0,0,0,0],"sum_hessian":[2.6438348E2,1.4428708E2,1.200964E2,7.301699E1,7.127009E1,4.050664E1,3.2510353E1,6.743051E1,3.8395736E0,3.0779144E1,9.727497E0,1.9421955E1,1.1357188E1,5.759008E0,3.9684892E0],"tree_param":{"num_deleted":"0","num_feature":"5","num_nodes":"15","size_leaf_vector":"1"}},{"base_weights":[1.8557092E-2,-1.04206264E-1,4.724515E-1,1.0034938E0,-4.3970865E-1,2.0860736E-1,1.156566E0,-3.5720587E-2,-9.631495E-2,4.461053E-1,-1.1456575E-1,2.252164E-1,6.8776704E-2,1.0303596E-1,-1.10695146E-1,2.4990615E-1,1.4605582E-2],"categories":[],"categories_nodes":[],"categories_segments":[],"categories_sizes":[],"default_left":[0,0,0,0,0,0,0,0,0,0,0,0,0,0,0,0,0],"id":24,"left_children":[1,-1,3,5,7,9,11,13,-1,15,-1,-1,-1,-1,-1,-1,-1],"loss_changes":[6.877083E1,0E0,7.176117E1,1.1375328E1,1.514019E0,2.9228594E0,2.0451736E0,2.5435793E0,0E0,3.7636738E0,0E0,0E0,0E0,0E0,0E0,0E0,0E0],"parents":[2147483647,0,0,2,2,3,3,4,4,5,5,6,6,7,7,9,9],"right_children":[2,-1,4,6,8,10,12,14,-1,16,-1,-1,-1,-1,-1,-1,-1],"split_conditions":[5.241683E1,-1.04206264E-1,6.387608E1,8.3922516E1,6.934536E1,3.360001E1,3.9266434E1,3.7067684E1,-9.631495E-2,7.2964325E1,-1.1456575E-1,2.252164E-1,6.8776704E-2,1.0303596E-1,-1.10695146E-1,2.4990615E-1,1.4605582E-2],"split_indices":[1,0,0,1,0,3,3,3,0,1,0,0,0,0,0,0,0],"split_type":[0,0,0,0,0,0,0,0,0,0,0,0,0,0,0,0,0],"sum_hessian":[2.662653E2,1.1813441E2,1.4813087E2,9.3633385E1,5.4497498E1,1.5133056E1,7.850033E1,7.9856753E0,4.651182E1,1.1726609E1,3.4064474E0,7.5334595E1,3.1657317E0,3.8719099E0,4.1137652E0,3.4703898E0,8.256219E0],"tree_param":{"num_deleted":"0","num_feature":"5","num_nodes":"17","size_leaf_vector":"1"}},{"base_weights":[8.657434E-3,3.7537736E-1,-1.0508921E-1,5.884044E-1,-9.404691E-2,2.630228E-1,8.128538E-1,2.7883822E-2,7.859424E-1,9.2746365E-1,-8.0807485E-2,4.9991217E-2,-4.6612117E-2,2.2476523E-1,1.1320582E-2,2.682616E-1,1.6548248E-1],"categories":[],"categories_nodes":[],"categories_segments":[],"categories_sizes":[],"default_left":[0,0,0,0,0,0,0,0,0,0,0,0,0,0,0,0,0],"id":25,"left_children":[1,3,-1,5,-1,7,9,11,13,15,-1,-1,-1,-1,-1,-1,-1],"loss_changes":[5.5166096E1,3.004202E1,0E0,9.477184E0,0E0,6.5154495E0,1.0930393E1,2.371766E0,4.7775497E0,1.8070679E0,0E0,0E0,0E0,0E0,0E0,0E0,0E0],"parents":[2147483647,0,0,1,1,3,3,5,5,6,6,7,7,8,8,9,9],"right_children":[2,4,-1,6,-1,8,10,12,14,16,-1,-1,-1,-1,-1,-1,-1],"split_conditions":[6.550762E1,8.492867E1,-1.0508921E-1,2.8443138E1,-9.404691E-2,2.7709425E1,4.402785E1,4.8877846E1,3.2317276E1,4.2069065E1,-8.0807485E-2,4.9991217E-2,-4.6612117E-2,2.2476523E-1,1.1320582E-2,2.682616E-1,1.6548248E-1],"split_indices":[0,1,0,3,0,2,2,0,1,0,0,0,0,0,0,0,0],"split_type":[0,0,0,0,0,0,0,0,0,0,0,0,0,0,0,0,0],"sum_hessian":[2.668265E2,1.6168367E2,1.05142845E2,1.2995715E2,3.1726519E1,5.307383E1,7.688332E1,3.662801E1,1.6445818E1,7.0386604E1,6.4967184E0,1.9699905E1,1.6928104E1,1.057975E1,5.8660684E0,6.884165E0,6.350244E1],"tree_param":{"num_deleted":"0","num_feature":"5","num_nodes":"17","size_leaf_vector":"1"}},{"base_weights":[9.539998E-3,-1.0286111E-1,4.0962023E-1,6.2099373E-1,-1.0427691E-1,-3.661138E-2,1.9786297E-1,-2.397482E-1,1.021903E0,2.348497E-1,-7.256066E-2,2.8211534E-1,4.7423847E-2],"categories":[],"categories_nodes":[],"categories_segments":[],"categories_sizes":[],"default_left":[0,0,0,0,0,0,0,0,0,0,0,0,0],"id":26,"left_children":[1,-1,3,5,-1,7,-1,9,11,-1,-1,-1,-1],"loss_changes":[5.8740334E1,0E0,3.1282255E1,3.524815E1,0E0,1.0636992E1,0E0,8.820072E0,2.8545637E0,0E0,0E0,0E0,0E0],"parents":[2147483647,0,0,2,2,3,3,5,5,7,7,8,8],"right_children":[2,-1,4,6,-1,8,-1,10,12,-1,-1,-1,-1],"split_conditions":[4.3840782E1,-1.0286111E-1,8.221284E1,6.303178E1,-1.0427691E-1,3.9266434E1,1.9786297E-1,2.5296217E1,5.5007965E1,2.348497E-1,-7.256066E-2,2.8211534E-1,4.7423847E-2],"split_indices":[1,0,3,0,0,3,0,3,0,0,0,0,0],"split_type":[0,0,0,0,0,0,0,0,0,0,0,0,0],"sum_hessian":[2.655485E2,1.1146739E2,1.540811E2,1.2629948E2,2.7781624E1,4.951572E1,7.678375E1,4.1553432E1,7.96229E0,3.6655748E0,3.7887856E1,4.9437118E0,3.018578E0],"tree_param":{"num_deleted":"0","num_feature":"5","num_nodes":"13","size_leaf_vector":"1"}},{"base_weights":[-9.849708E-3,-8.994736E-2,3.6028087E-1,8.0964845E-1,-1.04127064E-1,-9.570392E-2,2.2396106E-1],"categories":[],"categories_nodes":[],"categories_segments":[],"categories_sizes":[],"default_left":[0,0,0,0,0,0,0],"id":27,"left_children":[1,-1,3,5,-1,-1,-1],"loss_changes":[4.536361E1,0E0,6.0008133E1,4.824881E1,0E0,0E0,0E0],"parents":[2147483647,0,0,2,2,3,3],"right_children":[2,-1,4,6,-1,-1,-1],"split_conditions":[6.655551E1,-8.994736E-2,6.3148937E1,3.699E1,-1.04127064E-1,-9.570392E-2,2.2396106E-1],"split_indices":[0,0,1,4,0,0,0],"split_type":[0,0,0,0,0,0,0],"sum_hessian":[2.633899E2,1.16707115E2,1.4668277E2,9.821537E1,4.84674E1,2.1712824E1,7.650255E1],"tree_param":{"num_deleted":"0","num_feature":"5","num_nodes":"7","size_leaf_vector":"1"}},{"base_weights":[3.2311783E-3,3.6888698E-1,-4.8373717E-1,5.876324E-1,-1.03336215E-1,8.931133E-2,-9.765071E-2,8.2932454E-1,-1.0281439E-1,-2.7902925E-2,8.629348E-1,1.3837786E-1,1.8840347E-1],"categories":[],"categories_nodes":[],"categories_segments":[],"categories_sizes":[],"default_left":[0,0,0,0,0,0,0,0,0,0,0,0,0],"id":28,"left_children":[1,3,5,7,-1,-1,-1,9,-1,-1,11,-1,-1],"loss_changes":[4.4903694E1,2.8825134E1,3.3188E0,3.1777664E1,0E0,0E0,0E0,3.1540222E0,0E0,0E0,1.5949631E0,0E0,0E0],"parents":[2147483647,0,0,1,1,2,2,3,3,7,7,10,10],"right_children":[2,4,6,8,-1,-1,-1,10,-1,-1,12,-1,-1],"split_conditions":[3.8402817E1,5.241683E1,4.1003506E1,6.0174793E1,-1.03336215E-1,8.931133E-2,-9.765071E-2,3.7547237E1,-1.0281439E-1,-2.7902925E-2,3.2067894E1,1.3837786E-1,1.8840347E-1],"split_indices":[4,1,0,0,0,0,0,0,0,0,4,0,0],"split_type":[0,0,0,0,0,0,0,0,0,0,0,0,0],"sum_hessian":[2.5218726E2,1.4404945E2,1.08137794E2,1.162622E2,2.7787256E1,3.503087E0,1.04634705E2,9.57975E1,2.0464699E1,3.1741424E0,9.262336E1,4.6428177E1,4.619518E1],"tree_param":{"num_deleted":"0","num_feature":"5","num_nodes":"13","size_leaf_vector":"1"}},{"base_weights":[-7.280285E-3,-1.0321167E-1,8.892674E-1,-5.9164558E-3,1.7916726E-1],"categories":[],"categories_nodes":[],"categories_segments":[],"categories_sizes":[],"default_left":[0,0,0,0,0],"id":29,"left_children":[1,-1,3,-1,-1],"loss_changes":[1.1672726E2,0E0,4.7906113E0,0E0,0E0],"parents":[2147483647,0,0,2,2],"right_children":[2,-1,4,-1,-1],"split_conditions":[6.413788E1,-1.0321167E-1,8.492867E1,-5.9164558E-3,1.7916726E-1],"split_indices":[3,0,1,0,0],"split_type":[0,0,0,0,0],"sum_hessian":[2.4203392E2,1.5127826E2,9.075565E1,5.2966332E0,8.545902E1],"tree_param":{"num_deleted":"0","num_feature":"5","num_nodes":"5","size_leaf_vector":"1"}},{"base_weights":[-8.522712E-3,3.7320963E-1,-9.7863816E-2,-1.637644E-1,8.4709185E-1,1.4454326E-2,-8.8416286E-2,1.7087613E-1,-6.224073E-2,-8.6080186E-2,1.4629789E-1,8.7486394E-2,-2.3799665E-2],"categories":[],"categories_nodes":[],"categories_segments":[],"categories_sizes":[],"default_left":[0,0,0,0,0,0,0,0,0,0,0,0,0],"id":30,"left_children":[1,3,-1,5,7,9,-1,-1,-1,-1,11,-1,-1],"loss_changes":[4.7940567E1,3.590313E1,0E0,3.5796213E0,4.9053764E0,2.5704882E0,0E0,0E0,0E0,0E0,2.7975936E0,0E0,0E0],"parents":[2147483647,0,0,1,1,3,3,4,4,5,5,10,10],"right_children":[2,4,-1,6,8,10,-1,-1,-1,-1,12,-1,-1],"split_conditions":[3.756923E1,5.8858936E1,-9.7863816E-2,2.8995487E1,3.394833E1,4.275863E1,-8.8416286E-2,1.7087613E-1,-6.224073E-2,-8.6080186E-2,3.1244076E1,8.7486394E-2,-2.3799665E-2],"split_indices":[4,0,0,2,3,0,0,0,0,0,4,0,0],"split_type":[0,0,0,0,0,0,0,0,0,0,0,0,0],"sum_hessian":[2.469883E2,1.4105956E2,1.0592874E2,6.611502E1,7.4944534E1,4.161822E1,2.44968E1,7.1572495E1,3.372041E0,9.108198E0,3.251002E1,1.5064762E1,1.744526E1],"tree_param":{"num_deleted":"0","num_feature":"5","num_nodes":"13","size_leaf_vector":"1"}},{"base_weights":[-1.2376109E-2,3.1617936E-1,-1.0313165E-1,-2.971147E-1,6.312681E-1,-3.2591484E-2,-9.7138986E-2,7.250357E-1,-1.0620137E-1,-6.7868896E-2,1.9976984E-1,5.126331E-1,7.8661627E-1,-6.845756E-2,9.156282E-2,-5.750108E-2,7.175682E-2,1.3200076E-1,-1.8124815E-2,-7.1331784E-3,1.5595256E-1],"categories":[],"categories_nodes":[],"categories_segments":[],"categories_sizes":[],"default_left":[0,0,0,0,0,0,0,0,0,0,0,0,0,0,0,0,0,0,0,0,0],"id":31,"left_children":[1,3,-1,5,7,9,-1,11,13,-1,15,17,19,-1,-1,-1,-1,-1,-1,-1,-1],"loss_changes":[4.371731E1,2.9863657E1,0E0,2.9890723E0,7.067486E0,1.7890586E0,0E0,1.1682091E0,1.731336E0,0E0,1.2425112E0,2.3005548E0,2.1632538E0,0E0,0E0,0E0,0E0,0E0,0E0,0E0,0E0],"parents":[2147483647,0,0,1,1,3,3,4,4,5,5,7,7,8,8,10,10,11,11,12,12],"right_children":[2,4,-1,6,8,10,-1,12,14,-1,16,18,20,-1,-1,-1,-1,-1,-1,-1,-1],"split_conditions":[4.4029152E1,2.8995487E1,-1.0313165E-1,4.975971E1,6.387608E1,2.4598406E1,-9.7138986E-2,2.9807716E1,3.6538635E1,-6.7868896E-2,2.9955816E1,5.2670425E1,4.253593E1,-6.845756E-2,9.156282E-2,-5.750108E-2,7.175682E-2,1.3200076E-1,-1.8124815E-2,-7.1331784E-3,1.5595256E-1],"split_indices":[4,2,0,0,0,2,0,3,2,0,4,0,0,0,0,0,0,0,0,0,0],"split_type":[0,0,0,0,0,0,0,0,0,0,0,0,0,0,0,0,0,0,0,0,0],"sum_hessian":[2.4989342E2,1.5451796E2,9.537546E1,5.242884E1,1.0208911E2,2.3595938E1,2.8832903E1,9.05884E1,1.1500711E1,9.843579E0,1.37523575E1,2.0407516E1,7.0180885E1,8.040707E0,3.460005E0,3.5922725E0,1.0160086E1,1.5671491E1,4.736025E0,3.0170968E0,6.716379E1],"tree_param":{"num_deleted":"0","num_feature":"5","num_nodes":"21","size_leaf_vector":"1"}},{"base_weights":[5.558894E-3,3.1096932E-1,-1.0345874E-1,-2.774931E-1,8.8032156E-1,-2.94367E-3,-9.6187085E-2,9.911916E-1,-1.0796166E-1,-7.044344E-2,2.7180657E-1,1.9862978E-1,7.360636E-1,1.5687983E-1,-8.412515E-2,5.394993E-2,1.8625109E-1],"categories":[],"categories_nodes":[],"categories_segments":[],"categories_sizes":[],"default_left":[0,0,0,0,0,0,0,0,0,0,0,0,0,0,0,0,0],"id":32,"left_children":[1,3,-1,5,7,9,-1,11,-1,-1,13,-1,15,-1,-1,-1,-1],"loss_changes":[4.248399E1,5.436748E1,0E0,5.0445557E0,1.3269871E1,3.6979125E0,0E0,1.1127548E0,0E0,0E0,8.331203E0,0E0,1.5769606E0,0E0,0E0,0E0,0E0],"parents":[2147483647,0,0,1,1,3,3,4,4,5,5,7,7,10,10,12,12],"right_children":[2,4,-1,6,8,10,-1,12,-1,-1,14,-1,16,-1,-1,-1,-1],"split_conditions":[6.631044E1,4.2125767E1,-1.0345874E-1,4.8106495E1,7.00318E1,6.3148937E1,-9.6187085E-2,3.2892372E1,-1.0796166E-1,-7.044344E-2,8.492867E1,1.9862978E-1,6.3258392E1,1.5687983E-1,-8.412515E-2,5.394993E-2,1.8625109E-1],"split_indices":[0,4,0,0,1,1,0,1,0,0,1,0,4,0,0,0,0],"split_type":[0,0,0,0,0,0,0,0,0,0,0,0,0,0,0,0,0],"sum_hessian":[2.5197755E2,1.6224736E2,8.9730194E1,7.977362E1,8.247375E1,3.6444138E1,4.3329483E1,7.662618E1,5.8475633E0,1.5569775E1,2.0874363E1,6.237368E1,1.4252504E1,1.1753032E1,9.12133E0,5.072291E0,9.180213E0],"tree_param":{"num_deleted":"0","num_feature":"5","num_nodes":"17","size_leaf_vector":"1"}},{"base_weights":[-1.1594611E-2,-1.0131475E-1,3.5081676E-1,5.3221977E-1,-1.0277127E-1,-2.3881266E-1,8.9522064E-1,-3.640673E-1,2.2174019E-1,4.6187067E-1,1.7933394E-1,-9.2630334E-2,6.355767E-2,1.559167E-1,-3.023322E-2],"categories":[],"categories_nodes":[],"categories_segments":[],"categories_sizes":[],"default_left":[0,0,0,0,0,0,0,0,0,0,0,0,0,0,0],"id":33,"left_children":[1,-1,3,5,-1,7,9,11,-1,13,-1,-1,-1,-1,-1],"loss_changes":[4.605239E1,0E0,2.324777E1,3.3374573E1,0E0,6.7278876E0,1.8132172E0,3.0740404E0,0E0,1.9719031E0,0E0,0E0,0E0,0E0,0E0],"parents":[2147483647,0,0,2,2,3,3,5,5,6,6,7,7,9,9],"right_children":[2,-1,4,6,-1,8,10,12,-1,14,-1,-1,-1,-1,-1],"split_conditions":[5.241683E1,-1.0131475E-1,8.221284E1,3.997201E1,-1.0277127E-1,3.9266434E1,4.8591293E1,5.9724705E1,2.2174019E-1,4.3971664E1,1.7933394E-1,-9.2630334E-2,6.355767E-2,1.559167E-1,-3.023322E-2],"split_indices":[1,0,3,4,0,3,4,0,0,3,0,0,0,0,0],"split_type":[0,0,0,0,0,0,0,0,0,0,0,0,0,0,0],"sum_hessian":[2.426716E2,9.927485E1,1.4339676E2,1.1921362E2,2.4183132E1,3.814863E1,8.1064995E1,3.504497E1,3.1036568E0,8.7310705E0,7.233392E1,2.9740053E1,5.3049197E0,5.5319695E0,3.1991014E0],"tree_param":{"num_deleted":"0","num_feature":"5","num_nodes":"15","size_leaf_vector":"1"}},{"base_weights":[-8.8984537E-4,-4.4839567E-1,3.3012876E-1,-9.698094E-2,-2.7974105E-1,7.0295864E-1,-1.02670126E-1,8.854849E-2,-7.504105E-2,-9.313989E-2,1.8794888E-1],"categories":[],"categories_nodes":[],"categories_segments":[],"categories_sizes":[],"default_left":[0,0,0,0,0,0,0,0,0,0,0],"id":34,"left_children":[1,3,5,-1,7,9,-1,-1,-1,-1,-1],"loss_changes":[3.6260586E1,1.1119213E0,4.5765068E1,0E0,2.4987876E0,3.4155407E1,0E0,0E0,0E0,0E0,0E0],"parents":[2147483647,0,0,1,1,2,2,4,4,5,5],"right_children":[2,4,6,-1,8,10,-1,-1,-1,-1,-1],"split_conditions":[6.655551E1,5.550243E1,6.3148937E1,-9.698094E-2,2.6456427E1,3.699E1,-1.02670126E-1,8.854849E-2,-7.504105E-2,-9.313989E-2,1.8794888E-1],"split_indices":[0,0,1,0,2,4,0,0,0,0,0],"split_type":[0,0,0,0,0,0,0,0,0,0,0],"sum_hessian":[2.4477412E2,1.040913E2,1.4068282E2,7.542916E1,2.8662138E1,9.857498E1,4.2107838E1,3.854774E0,2.4807364E1,1.9236685E1,7.9338295E1],"tree_param":{"num_deleted":"0","num_feature":"5","num_nodes":"11","size_leaf_vector":"1"}},{"base_weights":[1.2063282E-2,3.1199718E-1,-1.0160472E-1,5.001597E-1,-3.4876138E-1,6.296209E-1,-3.058384E-2,-9.9558584E-2,8.708806E-2,-8.985889E-2,6.81704E-1,-1.427772E-1,1.04515895E-1,1.5442944E-1,9.8690175E-2,3.2084417E-2,-8.821281E-2],"categories":[],"categories_nodes":[],"categories_segments":[],"categories_sizes":[],"default_left":[0,0,0,0,0,0,0,0,0,0,0,0,0,0,0,0,0],"id":35,"left_children":[1,3,-1,5,7,9,11,-1,-1,-1,13,15,-1,-1,-1,-1,-1],"loss_changes":[3.898082E1,1.9043583E1,0E0,8.19956E0,4.863048E0,5.516327E0,1.5218589E0,0E0,0E0,0E0,1.9515305E0,1.9826583E0,0E0,0E0,0E0,0E0,0E0],"parents":[2147483647,0,0,1,1,3,3,4,4,5,5,6,6,10,10,11,11],"right_children":[2,4,-1,6,8,10,12,-1,-1,-1,14,16,-1,-1,-1,-1,-1],"split_conditions":[6.0174793E1,3.8402817E1,-1.0160472E-1,3.0352184E1,5.085622E1,3.8659805E1,3.691491E1,-9.9558584E-2,8.708806E-2,-8.985889E-2,2.5804243E1,3.1573545E1,1.04515895E-1,1.5442944E-1,9.8690175E-2,3.2084417E-2,-8.821281E-2],"split_indices":[0,4,0,2,3,0,4,0,0,0,2,3,0,0,0,0,0],"split_type":[0,0,0,0,0,0,0,0,0,0,0,0,0,0,0,0,0],"sum_hessian":[2.368332E2,1.5315399E2,8.367921E1,1.1922268E2,3.3931316E1,9.586345E1,2.335923E1,2.7847332E1,6.083986E0,4.306521E0,9.155692E1,1.9606256E1,3.7529738E0,4.9820152E1,4.1736774E1,9.951849E0,9.654408E0],"tree_param":{"num_deleted":"0","num_feature":"5","num_nodes":"17","size_leaf_vector":"1"}},{"base_weights":[-1.5263246E-2,-1.0203214E-1,7.88342E-1,5.142332E-2,1.589309E-1],"categories":[],"categories_nodes":[],"categories_segments":[],"categories_sizes":[],"default_left":[0,0,0,0,0],"id":36,"left_children":[1,-1,3,-1,-1],"loss_changes":[9.263702E1,0E0,2.284336E0,0E0,0E0],"parents":[2147483647,0,0,2,2],"right_children":[2,-1,4,-1,-1],"split_conditions":[6.413788E1,-1.0203214E-1,8.221284E1,5.142332E-2,1.589309E-1],"split_indices":[3,0,3,0,0],"split_type":[0,0,0,0,0],"sum_hessian":[2.201138E2,1.3327237E2,8.684143E1,7.8558545E0,7.898558E1],"tree_param":{"num_deleted":"0","num_feature":"5","num_nodes":"5","size_leaf_vector":"1"}},{"base_weights":[4.744052E-3,3.4796977E-1,-9.3687825E-2,5.6579655E-1,-9.6517935E-2,6.1319843E-2,1.5665618E-1,2.6490742E-1,-1.6244063E-1,-2.1896845E-2,2.1169524E-1,-7.872126E-2,1.2085939E-1],"categories":[],"categories_nodes":[],"categories_segments":[],"categories_sizes":[],"default_left":[0,0,0,0,0,0,0,0,0,0,0,0,0],"id":37,"left_children":[1,3,-1,5,-1,7,-1,9,11,-1,-1,-1,-1],"loss_changes":[3.8235775E1,2.470137E1,0E0,1.3910812E1,0E0,1.6428238E0,0E0,6.150443E0,3.4750745E0,0E0,0E0,0E0,0E0],"parents":[2147483647,0,0,1,1,3,3,5,5,7,7,8,8],"right_children":[2,4,-1,6,-1,8,-1,10,12,-1,-1,-1,-1],"split_conditions":[3.756923E1,3.989657E1,-9.3687825E-2,5.656041E1,-9.6517935E-2,3.1616556E1,1.5665618E-1,3.0199795E1,3.4777824E1,-2.1896845E-2,2.1169524E-1,-7.872126E-2,1.2085939E-1],"split_indices":[4,1,0,0,0,4,0,4,4,0,0,0,0],"split_type":[0,0,0,0,0,0,0,0,0,0,0,0,0],"sum_hessian":[2.2296512E2,1.3218825E2,9.077688E1,1.05431435E2,2.6756807E1,3.603367E1,6.9397766E1,1.8897346E1,1.7136324E1,1.3058669E1,5.8386774E0,1.3029612E1,4.1067114E0],"tree_param":{"num_deleted":"0","num_feature":"5","num_nodes":"13","size_leaf_vector":"1"}},{"base_weights":[-1.3414617E-2,-1.0354034E-1,3.6636066E-1,7.5621074E-1,-1.01798564E-1,2.668104E-1,1.6446005E-1,1.9897206E-1,-2.5360806E-2,-5.7226107E-2,6.934514E-2],"categories":[],"categories_nodes":[],"categories_segments":[],"categories_sizes":[],"default_left":[0,0,0,0,0,0,0,0,0,0,0],"id":38,"left_children":[1,-1,3,5,-1,7,-1,-1,9,-1,-1],"loss_changes":[4.730415E1,0E0,4.806534E1,5.234768E0,0E0,4.101022E0,0E0,0E0,1.4077865E0,0E0,0E0],"parents":[2147483647,0,0,2,2,3,3,5,5,8,8],"right_children":[2,-1,4,6,-1,8,-1,-1,10,-1,-1],"split_conditions":[5.241683E1,-1.0354034E-1,4.4029152E1,8.492867E1,-1.01798564E-1,3.0412535E1,1.6446005E-1,1.9897206E-1,8.121767E1,-5.7226107E-2,6.934514E-2],"split_indices":[1,0,4,1,0,4,0,0,1,0,0],"split_type":[0,0,0,0,0,0,0,0,0,0,0],"sum_hessian":[2.3344118E2,9.708281E1,1.3635837E2,9.528602E1,4.1072342E1,1.7839672E1,7.744635E1,4.8539753E0,1.2985697E1,7.626268E0,5.3594294E0],"tree_param":{"num_deleted":"0","num_feature":"5","num_nodes":"11","size_leaf_vector":"1"}},{"base_weights":[-6.8280124E-4,2.6785251E-1,-1.0211023E-1,-2.3991123E-1,7.234459E-1,-2.1712728E-2,-9.748234E-2,1.5375152E-1,-5.6673806E-2,-7.872797E-2,1.4531633E-1,6.107309E-3,1.09757274E-1],"categories":[],"categories_nodes":[],"categories_segments":[],"categories_sizes":[],"default_left":[0,0,0,0,0,0,0,0,0,0,0,0,0],"id":39,"left_children":[1,3,-1,5,7,9,-1,-1,-1,-1,11,-1,-1],"loss_changes":[3.349179E1,3.5739445E1,0E0,4.3764725E0,7.399475E0,2.6866515E0,0E0,0E0,0E0,0E0,1.3970664E0,0E0,0E0],"parents":[2147483647,0,0,1,1,3,3,4,4,5,5,10,10],"right_children":[2,4,-1,6,8,10,-1,-1,-1,-1,12,-1,-1],"split_conditions":[6.631044E1,4.2125767E1,-1.0211023E-1,5.0151836E1,4.1881138E1,3.0737207E1,-9.748234E-2,1.5375152E-1,-5.6673806E-2,-7.872797E-2,3.3223015E1,6.107309E-3,1.09757274E-1],"split_indices":[0,4,0,0,2,4,0,0,0,0,3,0,0],"split_type":[0,0,0,0,0,0,0,0,0,0,0,0,0],"sum_hessian":[2.3148581E2,1.5446614E2,7.701966E1,7.303722E1,8.142893E1,4.0753716E1,3.22835E1,7.493822E1,6.4907136E0,1.2152217E1,2.8601498E1,2.2719437E1,5.8820605E0],"tree_param":{"num_deleted":"0","num_feature":"5","num_nodes":"13","size_leaf_vector":"1"}},{"base_weights":[-7.5933128E-3,-4.188611E-1,2.1265809E-1,-9.45515E-2,7.427919E-2,3.3288124E-1,-1.0147573E-1,-4.378138E-2,1.5317146E-1,-1.24255724E-1,4.6919224E-1,1.5254326E-1,-9.0748414E-2,5.204637E-1,-7.579954E-2,-4.7013603E-2,6.325698E-2,1.0584387E-1,3.917542E-2,8.379553E-2,-1.039836E-1],"categories":[],"categories_nodes":[],"categories_segments":[],"categories_sizes":[],"default_left":[0,0,0,0,0,0,0,0,0,0,0,0,0,0,0,0,0,0,0,0,0],"id":40,"left_children":[1,3,5,-1,7,9,-1,-1,-1,11,13,15,-1,17,19,-1,-1,-1,-1,-1,-1],"loss_changes":[2.0552313E1,3.151785E0,1.32941E1,0E0,2.4993334E0,7.936653E0,0E0,0E0,0E0,2.876295E0,2.746292E0,1.1951479E0,0E0,1.0772038E0,2.0664814E0,0E0,0E0,0E0,0E0,0E0,0E0],"parents":[2147483647,0,0,1,1,2,2,4,4,5,5,9,9,10,10,11,11,13,13,14,14],"right_children":[2,4,6,-1,8,10,-1,-1,-1,12,14,16,-1,18,20,-1,-1,-1,-1,-1,-1],"split_conditions":[3.922013E1,3.4478855E1,8.221284E1,-9.45515E-2,6.490206E1,5.7700527E1,-1.0147573E-1,-4.378138E-2,1.5317146E-1,6.1739456E1,9.404158E1,4.6164814E1,-9.0748414E-2,7.771742E1,4.1365143E1,-4.7013603E-2,6.325698E-2,1.0584387E-1,3.917542E-2,8.379553E-2,-1.039836E-1],"split_indices":[4,3,3,0,0,0,0,0,0,4,0,0,0,4,3,0,0,0,0,0,0],"split_type":[0,0,0,0,0,0,0,0,0,0,0,0,0,0,0,0,0,0,0,0,0],"sum_hessian":[2.2686183E2,7.9141655E1,1.4772017E2,6.804401E1,1.1097642E1,1.27296906E2,2.0423271E1,7.826075E0,3.2715664E0,2.9217617E1,9.807929E1,1.6399391E1,1.2818226E1,8.966717E1,8.412119E0,5.0910163E0,1.1308374E1,7.978574E1,9.881426E0,4.0025134E0,4.4096055E0],"tree_param":{"num_deleted":"0","num_feature":"5","num_nodes":"21","size_leaf_vector":"1"}},{"base_weights":[-1.1674812E-2,2.3392081E-1,-1.0205197E-1,-3.564048E-1,6.278964E-1,-9.364789E-2,-1.0030312E-1,-9.0386234E-2,1.6490692E-1,-7.753124E-2,4.5837525E-1,1.9719408E-1,-1.4087608E-2],"categories":[],"categories_nodes":[],"categories_segments":[],"categories_sizes":[],"default_left":[0,0,0,0,0,0,0,0,0,0,0,0,0],"id":41,"left_children":[1,3,-1,5,7,-1,9,-1,-1,-1,11,-1,-1],"loss_changes":[2.9210566E1,3.5778828E1,0E0,2.1726198E0,2.4813202E1,0E0,3.7344654E0,0E0,0E0,0E0,2.401783E0,0E0,0E0],"parents":[2147483647,0,0,1,1,3,3,4,4,6,6,10,10],"right_children":[2,4,-1,6,8,-1,10,-1,-1,-1,12,-1,-1],"split_conditions":[6.3148937E1,6.631044E1,-1.0205197E-1,3.0612152E1,3.699E1,-9.364789E-2,5.550243E1,-9.0386234E-2,1.6490692E-1,-7.753124E-2,3.3346542E1,1.9719408E-1,-1.4087608E-2],"split_indices":[1,0,0,3,4,0,0,0,0,0,3,0,0],"split_type":[0,0,0,0,0,0,0,0,0,0,0,0,0],"sum_hessian":[2.2547575E2,1.5382353E2,7.165222E1,6.1556244E1,9.226728E1,3.993851E1,2.1617731E1,1.6632223E1,7.563506E1,1.3929719E1,7.6880126E0,3.681478E0,4.0065346E0],"tree_param":{"num_deleted":"0","num_feature":"5","num_nodes":"13","size_leaf_vector":"1"}},{"base_weights":[-9.073197E-3,2.4544084E-1,-1.0052211E-1,4.266697E-1,-1.02163136E-1,-9.259577E-2,4.6807203E-1,5.6171274E-1,1.6509873E-1,9.444947E-2,1.421372E-1,-3.5625126E-2,9.711303E-2],"categories":[],"categories_nodes":[],"categories_segments":[],"categories_sizes":[],"default_left":[0,0,0,0,0,0,0,0,0,0,0,0,0],"id":42,"left_children":[1,3,-1,5,-1,-1,7,9,11,-1,-1,-1,-1],"loss_changes":[2.848029E1,2.0499603E1,0E0,4.438816E0,0E0,0E0,3.1688538E0,9.996109E-1,3.259085E0,0E0,0E0,0E0,0E0],"parents":[2147483647,0,0,1,1,3,3,6,6,7,7,8,8],"right_children":[2,4,-1,6,-1,-1,8,10,12,-1,-1,-1,-1],"split_conditions":[6.0174793E1,5.241683E1,-1.0052211E-1,2.204514E1,-1.02163136E-1,-9.259577E-2,3.0117529E1,3.181771E1,3.249365E1,9.444947E-2,1.421372E-1,-3.5625126E-2,9.711303E-2],"split_indices":[0,1,0,1,0,0,3,1,1,0,0,0,0],"split_type":[0,0,0,0,0,0,0,0,0,0,0,0,0],"sum_hessian":[2.1436383E2,1.4408145E2,7.028239E1,1.1707397E2,2.7007484E1,5.0503616E0,1.12023605E2,8.554243E1,2.6481174E1,6.4277565E1,2.1264864E1,1.3120678E1,1.33604965E1],"tree_param":{"num_deleted":"0","num_feature":"5","num_nodes":"13","size_leaf_vector":"1"}},{"base_weights":[-2.4138514E-2,-1.0101679E-1,7.124196E-1,-5.2835746E-3,1.446827E-1],"categories":[],"categories_nodes":[],"categories_segments":[],"categories_sizes":[],"default_left":[0,0,0,0,0],"id":43,"left_children":[1,-1,3,-1,-1],"loss_changes":[7.398356E1,0E0,3.1054E0,0E0,0E0],"parents":[2147483647,0,0,2,2],"right_children":[2,-1,4,-1,-1],"split_conditions":[6.413788E1,-1.0101679E-1,8.492867E1,-5.2835746E-3,1.446827E-1],"split_indices":[3,0,1,0,0],"split_type":[0,0,0,0,0],"sum_hessian":[1.9715285E2,1.1655004E2,8.0602806E1,5.262497E0,7.534031E1],"tree_param":{"num_deleted":"0","num_feature":"5","num_nodes":"5","size_leaf_vector":"1"}},{"base_weights":[9.577884E-3,3.2528377E-1,-9.002463E-2,5.145092E-1,-9.4450735E-2,3.0950353E-1,6.627213E-1,4.8662806E-1,1.9099006E-2,1.7329484E-1,5.186209E-1,7.174534E-2,2.1055403E-1,-7.2264284E-2,6.7581184E-2,3.6108333E-3,1.1905969E-1],"categories":[],"categories_nodes":[],"categories_segments":[],"categories_sizes":[],"default_left":[0,0,0,0,0,0,0,0,0,0,0,0,0,0,0,0,0],"id":44,"left_children":[1,3,-1,5,-1,7,9,11,13,-1,15,-1,-1,-1,-1,-1,-1],"loss_changes":[3.1977688E1,1.973002E1,0E0,3.113905E0,0E0,2.2162104E0,2.1551418E0,1.7863455E0,2.2207735E0,0E0,2.0883017E0,0E0,0E0,0E0,0E0,0E0,0E0],"parents":[2147483647,0,0,1,1,3,3,5,5,6,6,7,7,8,8,10,10],"right_children":[2,4,-1,6,-1,8,10,12,14,-1,16,-1,-1,-1,-1,-1,-1],"split_conditions":[3.699E1,3.989657E1,-9.002463E-2,2.5678827E1,-9.4450735E-2,2.6147083E1,3.0046347E1,2.569209E1,3.3413715E1,1.7329484E-1,2.9056784E1,7.174534E-2,2.1055403E-1,-7.2264284E-2,6.7581184E-2,3.6108333E-3,1.1905969E-1],"split_indices":[4,1,0,2,0,3,1,3,4,0,4,0,0,0,0,0,0],"split_type":[0,0,0,0,0,0,0,0,0,0,0,0,0,0,0,0,0],"sum_hessian":[2.0879552E2,1.2650137E2,8.229414E1,1.0289457E2,2.3606808E1,4.3211452E1,5.9683117E1,2.6813236E1,1.6398214E1,2.1640444E1,3.804267E1,2.2895237E1,3.9179983E0,7.48322E0,8.914995E0,6.902898E0,3.1139772E1],"tree_param":{"num_deleted":"0","num_feature":"5","num_nodes":"17","size_leaf_vector":"1"}},{"base_weights":[9.854569E-3,-1.002765E-1,3.46555E-1,6.72758E-1,-1.0079343E-1,2.1418272E-1,1.4592092E-1,1.52581E-1,-6.12341E-3,-1.2343849E-1,4.8973948E-2],"categories":[],"categories_nodes":[],"categories_segments":[],"categories_sizes":[],"default_left":[0,0,0,0,0,0,0,0,0,0,0],"id":45,"left_children":[1,-1,3,5,-1,7,-1,-1,9,-1,-1],"loss_changes":[3.933919E1,0E0,3.8239754E1,4.3626213E0,0E0,2.2480595E0,0E0,0E0,2.1419427E0,0E0,0E0],"parents":[2147483647,0,0,2,2,3,3,5,5,8,8],"right_children":[2,-1,4,6,-1,8,-1,-1,10,-1,-1],"split_conditions":[5.241683E1,-1.002765E-1,4.4029152E1,8.492867E1,-1.0079343E-1,3.0412535E1,1.4592092E-1,1.52581E-1,4.3130722E1,-1.2343849E-1,4.8973948E-2],"split_indices":[1,0,4,1,0,4,0,0,0,0,0],"split_type":[0,0,0,0,0,0,0,0,0,0,0],"sum_hessian":[2.165485E2,8.3191956E1,1.3335655E2,9.727282E1,3.608373E1,1.7162764E1,8.0110054E1,4.6714287E0,1.2491334E1,3.6462498E0,8.845084E0],"tree_param":{"num_deleted":"0","num_feature":"5","num_nodes":"11","size_leaf_vector":"1"}},{"base_weights":[-7.869239E-3,2.2991961E-1,-1.00924626E-1,3.629723E-1,-9.461773E-2,4.111871E-1,-1.1076444E-1,1.5596147E-1,5.7312715E-1,1.8273489E-1,6.7297006E-3,1.3165455E-1,6.695173E-2],"categories":[],"categories_nodes":[],"categories_segments":[],"categories_sizes":[],"default_left":[0,0,0,0,0,0,0,0,0,0,0,0,0],"id":46,"left_children":[1,3,-1,5,-1,7,-1,9,11,-1,-1,-1,-1],"loss_changes":[2.7304672E1,1.4605549E1,0E0,5.815052E0,0E0,4.9963913E0,0E0,4.572013E0,1.9752312E0,0E0,0E0,0E0,0E0],"parents":[2147483647,0,0,1,1,3,3,5,5,7,7,8,8],"right_children":[2,4,-1,6,-1,8,-1,10,12,-1,-1,-1,-1],"split_conditions":[6.631044E1,8.492867E1,-1.00924626E-1,4.402785E1,-9.461773E-2,2.744723E1,-1.1076444E-1,2.204514E1,3.2892372E1,1.8273489E-1,6.7297006E-3,1.3165455E-1,6.695173E-2],"split_indices":[0,1,0,2,0,2,0,1,1,0,0,0,0],"split_type":[0,0,0,0,0,0,0,0,0,0,0,0,0],"sum_hessian":[2.185728E2,1.5044357E2,6.812923E1,1.2725851E2,2.3185062E1,1.2111293E2,6.145578E0,4.704573E1,7.40672E1,6.0789413E0,4.096679E1,4.7516228E1,2.6550972E1],"tree_param":{"num_deleted":"0","num_feature":"5","num_nodes":"13","size_leaf_vector":"1"}},{"base_weights":[-1.6012319E-3,-9.8971486E-2,3.074831E-1,4.3765393E-1,-1.00657314E-1,-1.0111634E-1,7.4382675E-1,-2.5309935E-1,7.1282946E-2,1.5368143E-1,4.1198236E-1,-8.1582844E-2,6.2039286E-2,2.1598195E-1,2.882136E-2],"categories":[],"categories_nodes":[],"categories_segments":[],"categories_sizes":[],"default_left":[0,0,0,0,0,0,0,0,0,0,0,0,0,0,0],"id":47,"left_children":[1,-1,3,5,-1,7,9,11,-1,-1,13,-1,-1,-1,-1],"loss_changes":[3.399997E1,0E0,1.4468588E1,1.892611E1,0E0,3.0142732E0,1.6350632E0,3.2592678E0,0E0,0E0,2.3449545E0,0E0,0E0,0E0,0E0],"parents":[2147483647,0,0,2,2,3,3,5,5,6,6,7,7,10,10],"right_children":[2,-1,4,6,-1,8,10,12,-1,-1,14,-1,-1,-1,-1],"split_conditions":[4.3840782E1,-9.8971486E-2,9.812717E1,4.8591293E1,-1.00657314E-1,4.2218624E1,7.632316E1,5.9724705E1,7.1282946E-2,1.5368143E-1,7.770606E1,-8.1582844E-2,6.2039286E-2,2.1598195E-1,2.882136E-2],"split_indices":[1,0,2,4,0,2,2,0,0,0,1,0,0,0,0],"split_type":[0,0,0,0,0,0,0,0,0,0,0,0,0,0,0],"sum_hessian":[2.1102794E2,7.857092E1,1.3245702E2,1.1468372E2,1.7773296E1,4.1541504E1,7.314222E1,3.1534868E1,1.0006636E1,6.0669315E1,1.2472904E1,2.4158695E1,7.376173E0,3.2636523E0,9.209251E0],"tree_param":{"num_deleted":"0","num_feature":"5","num_nodes":"15","size_leaf_vector":"1"}},{"base_weights":[-3.0699854E-3,2.2312114E-1,-1.0100705E-1,-4.1178748E-1,5.0423783E-1,-8.794553E-2,4.572508E-2,2.667971E-1,1.1401566E-1,8.921343E-2,-3.3238497E-2],"categories":[],"categories_nodes":[],"categories_segments":[],"categories_sizes":[],"default_left":[0,0,0,0,0,0,0,0,0,0,0],"id":48,"left_children":[1,3,-1,5,7,-1,-1,9,-1,-1,-1],"loss_changes":[2.4683563E1,2.5733826E1,0E0,1.5284944E0,2.3159046E0,0E0,0E0,2.6497257E0,0E0,0E0,0E0],"parents":[2147483647,0,0,1,1,3,3,4,4,7,7],"right_children":[2,4,-1,6,8,-1,-1,10,-1,-1,-1],"split_conditions":[6.3148937E1,4.123848E1,-1.0100705E-1,3.2764133E1,3.0612152E1,-8.794553E-2,4.572508E-2,2.7775305E1,1.1401566E-1,8.921343E-2,-3.3238497E-2],"split_indices":[1,4,0,3,3,0,0,3,0,0,0],"split_type":[0,0,0,0,0,0,0,0,0,0,0],"sum_hessian":[2.0566867E2,1.4417383E2,6.1494854E1,4.4231133E1,9.994269E1,4.094234E1,3.2887917E0,2.9249886E1,7.06928E1,2.0023462E1,9.226422E0],"tree_param":{"num_deleted":"0","num_feature":"5","num_nodes":"11","size_leaf_vector":"1"}},{"base_weights":[2.1028232E-2,2.7451494E-1,-9.818163E-2,4.5526055E-1,-9.715683E-2,5.919221E-1,-9.964798E-2,-2.4188895E-2,6.1434644E-1,1.0757514E-1,1.6866641E-1],"categories":[],"categories_nodes":[],"categories_segments":[],"categories_sizes":[],"default_left":[0,0,0,0,0,0,0,0,0,0,0],"id":49,"left_children":[1,3,-1,5,-1,7,-1,-1,9,-1,-1],"loss_changes":[2.821042E1,1.9981585E1,0E0,1.531653E1,0E0,1.6237488E0,0E0,0E0,1.2202644E0,0E0,0E0],"parents":[2147483647,0,0,1,1,3,3,5,5,8,8],"right_children":[2,4,-1,6,-1,8,-1,-1,10,-1,-1],"split_conditions":[4.796863E1,4.5938686E1,-9.818163E-2,6.0174793E1,-9.715683E-2,3.7547237E1,-9.964798E-2,-2.4188895E-2,3.5061203E1,1.0757514E-1,1.6866641E-1],"split_indices":[4,1,0,0,0,0,0,0,1,0,0],"split_type":[0,0,0,0,0,0,0,0,0,0,0],"sum_hessian":[2.0623564E2,1.4034161E2,6.589403E1,1.14163765E2,2.6177853E1,1.00224174E2,1.3939588E1,3.0111108E0,9.7213066E1,8.337542E1,1.3837644E1],"tree_param":{"num_deleted":"0","num_feature":"5","num_nodes":"11","size_leaf_vector":"1"}},{"base_weights":[-2.7235106E-2,-1.0016359E-1,6.469366E-1,-7.0708883E-3,1.3238232E-1],"categories":[],"categories_nodes":[],"categories_segments":[],"categories_sizes":[],"default_left":[0,0,0,0,0],"id":50,"left_children":[1,-1,3,-1,-1],"loss_changes":[6.0212894E1,0E0,2.7305813E0,0E0,0E0],"parents":[2147483647,0,0,2,2],"right_children":[2,-1,4,-1,-1],"split_conditions":[6.413788E1,-1.0016359E-1,8.492867E1,-7.0708883E-3,1.3238232E-1],"split_indices":[3,0,1,0,0],"split_type":[0,0,0,0,0],"sum_hessian":[1.7795964E2,1.02025444E2,7.59342E1,5.3824716E0,7.055173E1],"tree_param":{"num_deleted":"0","num_feature":"5","num_nodes":"5","size_leaf_vector":"1"}},{"base_weights":[1.4281945E-2,2.9874623E-1,-8.962723E-2,-1.8103471E-1,5.756286E-1,-3.1235358E-2,-8.933907E-2,1.2088628E-1,-3.1281438E-2,-1.06545925E-1,8.790507E-2,5.564698E-2,-3.47995E-2],"categories":[],"categories_nodes":[],"categories_segments":[],"categories_sizes":[],"default_left":[0,0,0,0,0,0,0,0,0,0,0,0,0],"id":51,"left_children":[1,3,-1,5,7,9,-1,-1,-1,-1,11,-1,-1],"loss_changes":[2.698943E1,1.6330421E1,0E0,1.9524752E0,3.6419678E0,1.8872864E0,0E0,0E0,0E0,0E0,1.3589263E0,0E0,0E0],"parents":[2147483647,0,0,1,1,3,3,4,4,5,5,10,10],"right_children":[2,4,-1,6,8,10,-1,-1,-1,-1,12,-1,-1],"split_conditions":[3.756923E1,5.4535706E1,-8.962723E-2,2.811391E1,3.221365E1,4.1114998E1,-8.933907E-2,1.2088628E-1,-3.1281438E-2,-1.06545925E-1,4.953018E1,5.564698E-2,-3.47995E-2],"split_indices":[4,0,0,2,3,0,0,0,0,0,0,0,0],"split_type":[0,0,0,0,0,0,0,0,0,0,0,0,0],"sum_hessian":[1.945392E2,1.22892235E2,7.1646965E1,4.495244E1,7.79398E1,2.9701944E1,1.5250496E1,7.185063E1,6.089167E0,5.457643E0,2.42443E1,1.3815413E1,1.0428887E1],"tree_param":{"num_deleted":"0","num_feature":"5","num_nodes":"13","size_leaf_vector":"1"}},{"base_weights":[-6.922629E-3,2.3138535E-1,-9.991085E-2,-2.3966902E-1,4.266101E-1,1.4707693E-1,-3.2606345E-1,9.336285E-2,-2.2136899E-2,-9.3128264E-2,-1.5393925E-1,2.3597283E-2,-6.9617815E-2],"categories":[],"categories_nodes":[],"categories_segments":[],"categories_sizes":[],"default_left":[0,0,0,0,0,0,0,0,0,0,0,0,0],"id":52,"left_children":[1,3,-1,5,7,-1,9,-1,-1,-1,11,-1,-1],"loss_changes":[2.4510712E1,1.2457859E1,0E0,3.4781122E0,3.4713917E0,0E0,1.0359902E0,0E0,0E0,0E0,1.074586E0,0E0,0E0],"parents":[2147483647,0,0,1,1,3,3,4,4,6,6,10,10],"right_children":[2,4,-1,6,8,-1,10,-1,-1,-1,12,-1,-1],"split_conditions":[4.4029152E1,2.8995487E1,-9.991085E-2,3.7547237E1,6.490206E1,1.4707693E-1,2.6796888E1,9.336285E-2,-2.2136899E-2,-9.3128264E-2,4.9466938E1,2.3597283E-2,-6.9617815E-2],"split_indices":[4,2,0,0,0,0,3,0,0,0,0,0,0],"split_type":[0,0,0,0,0,0,0,0,0,0,0,0,0],"sum_hessian":[1.974345E2,1.3544214E2,6.1992355E1,3.96663E1,9.577584E1,3.0952616E0,3.657104E1,8.534415E1,1.0431699E1,1.8584444E1,1.7986597E1,7.7843065E0,1.0202291E1],"tree_param":{"num_deleted":"0","num_feature":"5","num_nodes":"13","size_leaf_vector":"1"}},{"base_weights":[-2.6700145E-4,2.118957E-1,-1.0003287E-1,-2.2357386E-1,5.929529E-1,-9.281277E-2,3.328476E-2,6.847535E-1,-1.0844099E-1,5.927066E-1,-8.1057884E-2,3.6809498E-1,1.4287035E-1,1.4642331E-1,-8.3976425E-3,1.5907566E-1,-3.9759792E-2],"categories":[],"categories_nodes":[],"categories_segments":[],"categories_sizes":[],"default_left":[0,0,0,0,0,0,0,0,0,0,0,0,0,0,0,0,0],"id":53,"left_children":[1,3,-1,5,7,-1,9,11,-1,13,-1,15,-1,-1,-1,-1,-1],"loss_changes":[2.287936E1,2.416873E1,0E0,4.660535E0,8.314608E0,0E0,8.931044E0,1.581356E0,0E0,1.811482E0,0E0,3.5756512E0,0E0,0E0,0E0,0E0,0E0],"parents":[2147483647,0,0,1,1,3,3,4,4,6,6,7,7,9,9,11,11],"right_children":[2,4,-1,6,8,-1,10,12,-1,14,-1,16,-1,-1,-1,-1,-1],"split_conditions":[6.631044E1,4.2125767E1,-1.0003287E-1,6.3148937E1,7.00318E1,-9.281277E-2,8.492867E1,5.7447975E1,-1.0844099E-1,3.4777824E1,-8.1057884E-2,2.8202497E1,1.4287035E-1,1.4642331E-1,-8.3976425E-3,1.5907566E-1,-3.9759792E-2],"split_indices":[0,4,0,1,1,0,1,4,0,4,0,1,0,0,0,0,0],"split_type":[0,0,0,0,0,0,0,0,0,0,0,0,0,0,0,0,0],"sum_hessian":[2.0413908E2,1.4561987E2,5.8519215E1,6.794225E1,7.767762E1,3.335584E1,3.458642E1,7.201764E1,5.6599793E0,1.5646758E1,1.893966E1,1.3067236E1,5.89504E1,1.2203685E1,3.4430737E0,7.2045107E0,5.862725E0],"tree_param":{"num_deleted":"0","num_feature":"5","num_nodes":"17","size_leaf_vector":"1"}},{"base_weights":[-6.5574814E-3,-3.7245217E-1,1.8106472E-1,-8.120565E-2,1.4889646E-1,2.759116E-1,-9.940696E-2,-1.2496213E-1,3.859379E-1,2.2885773E-2,-8.639903E-2,4.3055424E-1,9.656497E-3,7.5958684E-2,1.68374E-1],"categories":[],"categories_nodes":[],"categories_segments":[],"categories_sizes":[],"default_left":[0,0,0,0,0,0,0,0,0,0,0,0,0,0,0],"id":54,"left_children":[1,3,5,-1,-1,7,-1,9,11,-1,-1,13,-1,-1,-1],"loss_changes":[1.3174774E1,4.2578897E0,8.490833E0,0E0,0E0,4.9351244E0,0E0,1.9645498E0,1.3052282E0,0E0,0E0,1.0240631E0,0E0,0E0,0E0],"parents":[2147483647,0,0,1,1,2,2,5,5,7,7,8,8,11,11],"right_children":[2,4,6,-1,-1,8,-1,10,12,-1,-1,14,-1,-1,-1],"split_conditions":[3.922013E1,3.975041E1,8.221284E1,-8.120565E-2,1.4889646E-1,5.7700527E1,-9.940696E-2,6.1739456E1,7.771742E1,2.2885773E-2,-8.639903E-2,7.32964E1,9.656497E-3,7.5958684E-2,1.68374E-1],"split_indices":[4,3,3,0,0,0,0,4,4,0,0,3,0,0,0],"split_type":[0,0,0,0,0,0,0,0,0,0,0,0,0,0,0],"sum_hessian":[1.9187654E2,6.506239E1,1.2681415E2,6.2047398E1,3.014995E0,1.1181477E2,1.4999376E1,2.4055065E1,8.775971E1,1.3788496E1,1.026657E1,7.740949E1,1.0350216E1,7.279078E1,4.6187162E0],"tree_param":{"num_deleted":"0","num_feature":"5","num_nodes":"15","size_leaf_vector":"1"}},{"base_weights":[-1.3450952E-3,-3.9272317E-1,2.847758E-1,-8.835358E-2,-2.172309E-1,4.285263E-1,-9.937065E-2,5.306146E-2,-6.429285E-2,-8.477218E-2,1.0733809E-1],"categories":[],"categories_nodes":[],"categories_segments":[],"categories_sizes":[],"default_left":[0,0,0,0,0,0,0,0,0,0,0],"id":55,"left_children":[1,3,5,-1,7,9,-1,-1,-1,-1,-1],"loss_changes":[2.108836E1,1.0244246E0,1.2658373E1,0E0,1.4409037E0,1.12137375E1,0E0,0E0,0E0,0E0,0E0],"parents":[2147483647,0,0,1,1,2,2,4,4,5,5],"right_children":[2,4,6,-1,8,10,-1,-1,-1,-1,-1],"split_conditions":[6.655551E1,5.550243E1,5.050165E1,-8.835358E-2,2.710077E1,3.699E1,-9.937065E-2,5.306146E-2,-6.429285E-2,-8.477218E-2,1.0733809E-1],"split_indices":[0,0,2,0,2,4,0,0,0,0,0],"split_type":[0,0,0,0,0,0,0,0,0,0,0],"sum_hessian":[1.8830775E2,7.9544945E1,1.0876282E2,5.589713E1,2.3647812E1,9.237845E1,1.6384367E1,4.648424E0,1.8999388E1,1.2594517E1,7.978393E1],"tree_param":{"num_deleted":"0","num_feature":"5","num_nodes":"11","size_leaf_vector":"1"}},{"base_weights":[1.9039752E-2,2.4530952E-1,-9.691504E-2,3.4210765E-1,-9.89895E-2,4.4349375E-1,5.280172E-2,-8.045202E-2,9.0960346E-2,-3.2470718E-2,1.3355424E-1,1.120823E-2,-1.07899286E-1],"categories":[],"categories_nodes":[],"categories_segments":[],"categories_sizes":[],"default_left":[0,0,0,0,0,0,0,0,0,0,0,0,0],"id":56,"left_children":[1,3,-1,5,-1,7,9,-1,-1,11,-1,-1,-1],"loss_changes":[2.3163942E1,1.0053356E1,0E0,3.5165462E0,0E0,2.858696E0,1.7452328E0,0E0,0E0,1.3656003E0,0E0,0E0,0E0],"parents":[2147483647,0,0,1,1,3,3,5,5,6,6,9,9],"right_children":[2,4,-1,6,-1,8,10,-1,-1,12,-1,-1,-1],"split_conditions":[4.796863E1,6.0174793E1,-9.691504E-2,3.0334957E1,-9.89895E-2,3.8659805E1,5.085622E1,-8.045202E-2,9.0960346E-2,3.7987953E1,1.3355424E-1,1.120823E-2,-1.07899286E-1],"split_indices":[4,0,0,3,0,0,3,0,0,4,0,0,0],"split_type":[0,0,0,0,0,0,0,0,0,0,0,0,0],"sum_hessian":[1.928202E2,1.3522339E2,5.759682E1,1.2010653E2,1.5116858E1,8.890557E1,3.1200954E1,3.619991E0,8.528558E1,2.757837E1,3.6225858E0,2.3539576E1,4.038793E0],"tree_param":{"num_deleted":"0","num_feature":"5","num_nodes":"13","size_leaf_vector":"1"}},{"base_weights":[-2.275983E-2,-9.9434145E-2,6.0823005E-1,8.2983155E-5,1.2398217E-1],"categories":[],"categories_nodes":[],"categories_segments":[],"categories_sizes":[],"default_left":[0,0,0,0,0],"id":57,"left_children":[1,-1,3,-1,-1],"loss_changes":[5.0102184E1,0E0,1.9804268E0,0E0,0E0],"parents":[2147483647,0,0,2,2],"right_children":[2,-1,4,-1,-1],"split_conditions":[6.413788E1,-9.9434145E-2,8.492867E1,8.2983155E-5,1.2398217E-1],"split_indices":[3,0,1,0,0],"split_type":[0,0,0,0,0],"sum_hessian":[1.5801462E2,8.797382E1,7.00408E1,5.0191207E0,6.502168E1],"tree_param":{"num_deleted":"0","num_feature":"5","num_nodes":"5","size_leaf_vector":"1"}},{"base_weights":[1.8137153E-2,2.5726855E-1,-9.663979E-2,4.3242803E-1,-9.924593E-2,9.315397E-2,6.1183566E-1,-1.0154007E-1,3.342436E-1,2.4262564E-1,1.0936147E-1,4.287588E-2,-8.50317E-2,1.9008017E-1,-4.037672E-2],"categories":[],"categories_nodes":[],"categories_segments":[],"categories_sizes":[],"default_left":[0,0,0,0,0,0,0,0,0,0,0,0,0,0,0],"id":58,"left_children":[1,3,-1,5,-1,7,9,11,13,-1,-1,-1,-1,-1,-1],"loss_changes":[2.2382412E1,1.6692225E1,0E0,6.0552883E0,0E0,1.6217163E0,1.4651394E0,2.1752744E0,5.6720514E0,0E0,0E0,0E0,0E0,0E0,0E0],"parents":[2147483647,0,0,1,1,3,3,5,5,6,6,7,7,8,8],"right_children":[2,4,-1,6,-1,8,10,12,14,-1,-1,-1,-1,-1,-1],"split_conditions":[3.989657E1,5.6543095E1,-9.663979E-2,5.540565E1,-9.924593E-2,2.5678827E1,5.606427E1,3.1616556E1,4.9360264E1,2.4262564E-1,1.0936147E-1,4.287588E-2,-8.50317E-2,1.9008017E-1,-4.037672E-2],"split_indices":[1,4,0,0,0,2,0,4,0,0,0,0,0,0,0],"split_type":[0,0,0,0,0,0,0,0,0,0,0,0,0,0,0],"sum_hessian":[1.7707912E2,1.21942986E2,5.5136135E1,9.9630325E1,2.2312658E1,3.4486034E1,6.5144295E1,1.9049341E1,1.5436693E1,3.1393123E0,6.2004982E1,9.782142E0,9.2671995E0,6.9532747E0,8.483418E0],"tree_param":{"num_deleted":"0","num_feature":"5","num_nodes":"15","size_leaf_vector":"1"}},{"base_weights":[-2.252669E-2,1.8805282E-1,-9.9145554E-2,-2.3512511E-1,3.5806543E-1,2.6883777E-2,-6.62592E-2,4.1656741E-1,-1.5222113E-1,4.4055268E-1,-1.741622E-2,-8.66946E-2,5.097222E-2,7.556633E-2,1.4799276E-1],"categories":[],"categories_nodes":[],"categories_segments":[],"categories_sizes":[],"default_left":[0,0,0,0,0,0,0,0,0,0,0,0,0,0,0],"id":59,"left_children":[1,3,-1,5,7,-1,-1,9,11,13,-1,-1,-1,-1,-1],"loss_changes":[1.906436E1,9.148874E0,0E0,1.580744E0,2.711749E0,0E0,0E0,9.9759007E-1,1.2020417E0,1.0826273E0,0E0,0E0,0E0,0E0,0E0],"parents":[2147483647,0,0,1,1,3,3,4,4,7,7,8,8,9,9],"right_children":[2,4,-1,6,8,-1,-1,10,12,14,-1,-1,-1,-1,-1],"split_conditions":[4.4029152E1,2.8995487E1,-9.9145554E-2,4.275863E1,6.490206E1,2.6883777E-2,-6.62592E-2,3.9266434E1,3.6538635E1,4.024214E1,-1.741622E-2,-8.66946E-2,5.097222E-2,7.556633E-2,1.4799276E-1],"split_indices":[4,2,0,0,0,0,0,3,2,2,0,0,0,0,0],"split_type":[0,0,0,0,0,0,0,0,0,0,0,0,0,0,0],"sum_hessian":[1.8058405E2,1.2714186E2,5.3442177E1,3.6418125E1,9.072374E1,8.477948E0,2.7940174E1,8.141503E1,9.308708E0,7.7772354E1,3.642675E0,5.4127073E0,3.8960001E0,6.939741E1,8.374948E0],"tree_param":{"num_deleted":"0","num_feature":"5","num_nodes":"15","size_leaf_vector":"1"}},{"base_weights":[1.2498213E-2,2.1199036E-1,-9.9216826E-2,-2.1348995E-1,5.615236E-1,1.05935864E-1,-2.8858504E-1,6.411838E-1,-1.07642084E-1,-1.0252215E-1,-3.363805E-2,1.2955664E-1,2.6082931E-2,7.8233205E-2,-7.596779E-2],"categories":[],"categories_nodes":[],"categories_segments":[],"categories_sizes":[],"default_left":[0,0,0,0,0,0,0,0,0,0,0,0,0,0,0],"id":60,"left_children":[1,3,-1,5,7,-1,9,11,-1,-1,13,-1,-1,-1,-1],"loss_changes":[2.024792E1,2.0516956E1,0E0,3.6070058E0,6.819521E0,0E0,3.6497378E0,1.528759E0,0E0,0E0,4.644372E0,0E0,0E0,0E0,0E0],"parents":[2147483647,0,0,1,1,3,3,4,4,6,6,7,7,10,10],"right_children":[2,4,-1,6,8,-1,10,12,-1,-1,14,-1,-1,-1,-1],"split_conditions":[6.631044E1,4.2125767E1,-9.9216826E-2,3.8659805E1,7.00318E1,1.05935864E-1,6.3148937E1,4.6697575E1,-1.07642084E-1,-1.0252215E-1,8.492867E1,1.2955664E-1,2.6082931E-2,7.8233205E-2,-7.596779E-2],"split_indices":[0,4,0,0,1,0,1,3,0,0,1,0,0,0,0],"split_type":[0,0,0,0,0,0,0,0,0,0,0,0,0,0,0],"sum_hessian":[1.8917871E2,1.3792735E2,5.1251354E1,6.2189056E1,7.57383E1,5.490739E0,5.669832E1,7.076192E1,4.9763746E0,2.8432606E1,2.8265713E1,6.5144264E1,5.6176534E0,1.2742246E1,1.5523468E1],"tree_param":{"num_deleted":"0","num_feature":"5","num_nodes":"15","size_leaf_vector":"1"}},{"base_weights":[-8.770054E-4,-9.7306356E-2,2.9207805E-1,3.94208E-1,-9.862735E-2,-1.9928248E-1,6.198542E-1,-5.520907E-2,1.0576534E-1,3.8646573E-1,1.3289054E-1,1.5922429E-1,4.906321E-2],"categories":[],"categories_nodes":[],"categories_segments":[],"categories_sizes":[],"default_left":[0,0,0,0,0,0,0,0,0,0,0,0,0],"id":61,"left_children":[1,-1,3,5,-1,7,9,-1,-1,11,-1,-1,-1],"loss_changes":[2.7078474E1,0E0,9.517866E0,1.3646136E1,0E0,1.9599463E0,1.4013519E0,0E0,0E0,1.1004055E0,0E0,0E0,0E0],"parents":[2147483647,0,0,2,2,3,3,5,5,6,6,9,9],"right_children":[2,-1,4,6,-1,8,10,-1,-1,12,-1,-1,-1],"split_conditions":[4.3840782E1,-9.7306356E-2,8.221284E1,3.997201E1,-9.862735E-2,6.490206E1,5.7447975E1,-5.520907E-2,1.0576534E-1,3.5232456E1,1.3289054E-1,1.5922429E-1,4.906321E-2],"split_indices":[1,0,3,4,0,0,4,0,0,3,0,0,0],"split_type":[0,0,0,0,0,0,0,0,0,0,0,0,0],"sum_hessian":[1.8010658E2,6.5469986E1,1.146366E2,1.01858215E2,1.2778381E1,2.8043045E1,7.381517E1,2.5012142E1,3.0309024E0,1.9259083E1,5.4556087E1,4.1903825E0,1.5068701E1],"tree_param":{"num_deleted":"0","num_feature":"5","num_nodes":"13","size_leaf_vector":"1"}},{"base_weights":[3.3257478E-3,-3.70859E-1,2.6508325E-1,-8.5769475E-2,-1.7996746E-1,3.939398E-1,-9.858013E-2,-1.0120119E-1,2.9896765E-3,-8.278972E-2,9.874045E-2,7.614888E-2,-1.0354465E-1],"categories":[],"categories_nodes":[],"categories_segments":[],"categories_sizes":[],"default_left":[0,0,0,0,0,0,0,0,0,0,0,0,0],"id":62,"left_children":[1,3,5,-1,7,9,-1,-1,11,-1,-1,-1,-1],"loss_changes":[1.6902945E1,1.106616E0,1.0283487E1,0E0,1.3971708E0,9.263476E0,0E0,0E0,3.0969865E0,0E0,0E0,0E0,0E0],"parents":[2147483647,0,0,1,1,2,2,4,4,5,5,8,8],"right_children":[2,4,6,-1,8,10,-1,-1,12,-1,-1,-1,-1],"split_conditions":[6.655551E1,5.550243E1,5.050165E1,-8.5769475E-2,3.052099E1,3.699E1,-9.858013E-2,-1.0120119E-1,3.6127506E1,-8.278972E-2,9.874045E-2,7.614888E-2,-1.0354465E-1],"split_indices":[0,0,2,0,3,4,0,0,2,0,0,0,0],"split_type":[0,0,0,0,0,0,0,0,0,0,0,0,0],"sum_hessian":[1.7258856E2,7.101827E1,1.015703E2,4.9589947E1,2.1428328E1,8.727581E1,1.4294485E1,7.316462E0,1.4111865E1,1.1605814E1,7.567E1,8.189633E0,5.922232E0],"tree_param":{"num_deleted":"0","num_feature":"5","num_nodes":"13","size_leaf_vector":"1"}},{"base_weights":[1.7788202E-2,2.1504259E-1,-9.567335E-2,3.7125158E-1,-9.585828E-2,4.6413252E-1,-9.813531E-2,-8.840275E-2,4.9664196E-1,8.421752E-2,1.4877635E-1],"categories":[],"categories_nodes":[],"categories_segments":[],"categories_sizes":[],"default_left":[0,0,0,0,0,0,0,0,0,0,0],"id":63,"left_children":[1,3,-1,5,-1,7,-1,-1,9,-1,-1],"loss_changes":[1.8709976E1,1.4840057E1,0E0,8.946301E0,0E0,2.9684715E0,0E0,0E0,1.4028835E0,0E0,0E0],"parents":[2147483647,0,0,1,1,3,3,5,5,8,8],"right_children":[2,4,-1,6,-1,8,-1,-1,10,-1,-1],"split_conditions":[4.796863E1,4.5938686E1,-9.567335E-2,6.0174793E1,-9.585828E-2,2.1437923E1,-9.813531E-2,-8.840275E-2,3.5061203E1,8.421752E-2,1.4877635E-1],"split_indices":[4,1,0,0,0,1,0,0,1,0,0],"split_type":[0,0,0,0,0,0,0,0,0,0,0],"sum_hessian":[1.8133063E2,1.3170114E2,4.9629486E1,1.0827442E2,2.3426723E1,9.805218E1,1.0222246E1,3.2945852E0,9.475759E1,8.04154E1,1.434219E1],"tree_param":{"num_deleted":"0","num_feature":"5","num_nodes":"11","size_leaf_vector":"1"}},{"base_weights":[-3.5845444E-2,-9.879173E-2,5.7407725E-1,-2.5777638E-4,1.1844212E-1],"categories":[],"categories_nodes":[],"categories_segments":[],"categories_sizes":[],"default_left":[0,0,0,0,0],"id":64,"left_children":[1,-1,3,-1,-1],"loss_changes":[4.1627003E1,0E0,1.8569889E0,0E0,0E0],"parents":[2147483647,0,0,2,2],"right_children":[2,-1,4,-1,-1],"split_conditions":[6.413788E1,-9.879173E-2,8.492867E1,-2.5777638E-4,1.1844212E-1],"split_indices":[3,0,1,0,0],"split_type":[0,0,0,0,0],"sum_hessian":[1.4042424E2,7.8160835E1,6.226341E1,5.1038203E0,5.7159588E1],"tree_param":{"num_deleted":"0","num_feature":"5","num_nodes":"5","size_leaf_vector":"1"}},{"base_weights":[7.72419E-3,2.1900243E-1,-9.542869E-2,3.7571785E-1,-9.85564E-2,4.82998E-2,1.0100595E-1,-2.020622E-1,3.449092E-1,-7.18911E-2,2.3787066E-2,1.5763636E-1,-4.585837E-2],"categories":[],"categories_nodes":[],"categories_segments":[],"categories_sizes":[],"default_left":[0,0,0,0,0,0,0,0,0,0,0,0,0],"id":65,"left_children":[1,3,-1,5,-1,7,-1,9,11,-1,-1,-1,-1],"loss_changes":[1.7483284E1,1.326749E1,0E0,4.875581E0,0E0,2.285998E0,0E0,9.7332054E-1,4.0470004E0,0E0,0E0,0E0,0E0],"parents":[2147483647,0,0,1,1,3,3,5,5,7,7,8,8],"right_children":[2,4,-1,6,-1,8,-1,10,12,-1,-1,-1,-1],"split_conditions":[3.989657E1,5.6543095E1,-9.542869E-2,5.3818134E1,-9.85564E-2,2.5804243E1,1.0100595E-1,2.8229086E1,4.9360264E1,-7.18911E-2,2.3787066E-2,1.5763636E-1,-4.585837E-2],"split_indices":[1,4,0,0,0,2,0,1,0,0,0,0,0],"split_type":[0,0,0,0,0,0,0,0,0,0,0,0,0],"sum_hessian":[1.6170667E2,1.1447727E2,4.7229393E1,9.447675E1,2.0000525E1,3.0759136E1,6.3717613E1,1.6656475E1,1.4102662E1,1.08254175E1,5.8310575E0,7.7148833E0,6.3877788E0],"tree_param":{"num_deleted":"0","num_feature":"5","num_nodes":"13","size_leaf_vector":"1"}},{"base_weights":[1.1311248E-2,2.1015313E-1,-9.852096E-2,-1.7562576E-1,3.6463776E-1,1.007283E-1,-2.5362337E-1,7.921862E-2,-1.513956E-2,-1.3677375E-1,-9.8374255E-2,-8.1676126E-2,5.1042163E-3],"categories":[],"categories_nodes":[],"categories_segments":[],"categories_sizes":[],"default_left":[0,0,0,0,0,0,0,0,0,0,0,0,0],"id":66,"left_children":[1,3,-1,5,7,-1,9,-1,-1,11,-1,-1,-1],"loss_changes":[1.8055014E1,7.411959E0,0E0,1.9575615E0,2.1301775E0,0E0,9.8689604E-1,0E0,0E0,1.0802131E0,0E0,0E0,0E0],"parents":[2147483647,0,0,1,1,3,3,4,4,6,6,9,9],"right_children":[2,4,-1,6,8,-1,10,-1,-1,12,-1,-1,-1],"split_conditions":[4.4029152E1,2.8995487E1,-9.852096E-2,3.7547237E1,6.490206E1,1.007283E-1,5.540565E1,7.921862E-2,-1.513956E-2,2.4598406E1,-9.8374255E-2,-8.1676126E-2,5.1042163E-3],"split_indices":[4,2,0,0,0,0,0,0,0,2,0,0,0],"split_type":[0,0,0,0,0,0,0,0,0,0,0,0,0],"sum_hessian":[1.7079341E2,1.2432747E2,4.646595E1,3.552683E1,8.880064E1,3.5103266E0,3.2016502E1,7.923419E1,9.566451E0,2.2279509E1,9.736992E0,7.985623E0,1.4293886E1],"tree_param":{"num_deleted":"0","num_feature":"5","num_nodes":"13","size_leaf_vector":"1"}},{"base_weights":[3.884384E-3,1.827217E-1,-9.853223E-2,-1.9746819E-1,4.990421E-1,2.9626252E-2,-4.606198E-1,5.745324E-1,-1.0540577E-1,-4.896291E-2,3.0794027E-1,-1.0091821E-1,1.2911611E-2,1.1593815E-1,-5.2611767E-3,1.251484E-1,-6.642475E-2],"categories":[],"categories_nodes":[],"categories_segments":[],"categories_sizes":[],"default_left":[0,0,0,0,0,0,0,0,0,0,0,0,0,0,0,0,0],"id":67,"left_children":[1,3,-1,5,7,9,11,13,-1,-1,15,-1,-1,-1,-1,-1,-1],"loss_changes":[1.605571E1,1.5363538E1,0E0,3.4707308E0,5.558489E0,2.4957378E0,1.0366635E0,1.4943428E0,0E0,0E0,3.6909142E0,0E0,0E0,0E0,0E0,0E0,0E0],"parents":[2147483647,0,0,1,1,3,3,4,4,5,5,6,6,7,7,10,10],"right_children":[2,4,-1,6,8,10,12,14,-1,-1,16,-1,-1,-1,-1,-1,-1],"split_conditions":[6.631044E1,4.3306847E1,-9.853223E-2,4.8106495E1,7.00318E1,7.2964325E1,3.8402817E1,3.8888855E1,-1.0540577E-1,-4.896291E-2,8.492867E1,-1.0091821E-1,1.2911611E-2,1.1593815E-1,-5.2611767E-3,1.251484E-1,-6.642475E-2],"split_indices":[0,4,0,0,1,1,4,2,0,0,1,0,0,0,0,0,0],"split_type":[0,0,0,0,0,0,0,0,0,0,0,0,0,0,0,0,0],"sum_hessian":[1.7125098E2,1.2771858E2,4.3532394E1,5.7985012E1,6.973357E1,3.1098701E1,2.6886309E1,6.509188E1,4.6416893E0,1.5253252E1,1.584545E1,2.3666395E1,3.2199137E0,6.125639E1,3.8354876E0,1.0328389E1,5.517061E0],"tree_param":{"num_deleted":"0","num_feature":"5","num_nodes":"17","size_leaf_vector":"1"}},{"base_weights":[-5.7454635E-3,-3.3213845E-1,1.4802098E-1,-3.949636E-1,1.3012658E-1,2.220734E-1,-9.7913854E-2,-9.429044E-2,-1.7261754E-1,-7.309173E-2,6.260486E-2,-8.1618965E-2,5.8589928E-2,7.618427E-2,-1.0127188E-1,-8.944488E-3,1.3716803E-1],"categories":[],"categories_nodes":[],"categories_segments":[],"categories_sizes":[],"default_left":[0,0,0,0,0,0,0,0,0,0,0,0,0,0,0,0,0],"id":68,"left_children":[1,3,5,7,-1,9,-1,-1,11,13,-1,-1,-1,15,-1,-1,-1],"loss_changes":[8.2445135E0,3.366599E0,5.4944186E0,1.1282549E0,0E0,3.2243505E0,0E0,0E0,1.9646218E0,1.8669959E0,0E0,0E0,0E0,1.6397529E0,0E0,0E0,0E0],"parents":[2147483647,0,0,1,1,2,2,3,3,5,5,8,8,9,9,13,13],"right_children":[2,4,6,8,-1,10,-1,-1,12,14,-1,-1,-1,16,-1,-1,-1],"split_conditions":[3.922013E1,3.975041E1,8.221284E1,3.1129862E1,1.3012658E-1,6.1310474E1,-9.7913854E-2,-9.429044E-2,5.9724705E1,6.948601E1,6.260486E-2,-8.1618965E-2,5.8589928E-2,7.3866875E1,-1.0127188E-1,-8.944488E-3,1.3716803E-1],"split_indices":[4,3,3,2,0,0,0,0,0,4,0,0,0,2,0,0,0],"split_type":[0,0,0,0,0,0,0,0,0,0,0,0,0,0,0,0,0],"sum_hessian":[1.6422456E2,5.261807E1,1.116065E2,4.957576E1,3.0423067E0,1.0044494E2,1.1161563E1,3.3827213E1,1.5748549E1,2.6992624E1,7.345231E1,1.0268568E1,5.4799814E0,2.0378712E1,6.6139135E0,1.7103136E1,3.275575E0],"tree_param":{"num_deleted":"0","num_feature":"5","num_nodes":"17","size_leaf_vector":"1"}},{"base_weights":[-1.3151604E-2,1.9896546E-1,-9.9349156E-2,-2.894082E-1,5.163901E-1,-8.486685E-2,-6.892429E-2,-7.890132E-2,1.2776557E-1,-6.6704474E-2,3.2707605E-1,1.3394208E-1,-8.947626E-3],"categories":[],"categories_nodes":[],"categories_segments":[],"categories_sizes":[],"default_left":[0,0,0,0,0,0,0,0,0,0,0,0,0],"id":69,"left_children":[1,3,-1,5,7,-1,9,-1,-1,-1,11,-1,-1],"loss_changes":[1.6957329E1,1.7118292E1,0E0,1.5166326E0,9.905893E0,0E0,2.0481203E0,0E0,0E0,0E0,1.0898192E0,0E0,0E0],"parents":[2147483647,0,0,1,1,3,3,4,4,6,6,10,10],"right_children":[2,4,-1,6,8,-1,10,-1,-1,-1,12,-1,-1],"split_conditions":[6.3148937E1,6.655551E1,-9.9349156E-2,3.0612152E1,3.699E1,-8.486685E-2,5.5844147E1,-7.890132E-2,1.2776557E-1,-6.6704474E-2,3.3346542E1,1.3394208E-1,-8.947626E-3],"split_indices":[1,0,0,3,4,0,0,0,0,0,3,0,0],"split_type":[0,0,0,0,0,0,0,0,0,0,0,0,0],"sum_hessian":[1.5620108E2,1.1040625E2,4.579483E1,4.347593E1,6.693032E1,2.523211E1,1.824382E1,9.708035E0,5.7222286E1,1.0651846E1,7.5919733E0,3.782088E0,3.8098855E0],"tree_param":{"num_deleted":"0","num_feature":"5","num_nodes":"13","size_leaf_vector":"1"}},{"base_weights":[9.439053E-3,1.7953803E-1,-9.833886E-2,3.1475893E-1,-9.979756E-2,3.9547822E-1,-9.756158E-2,-8.59223E-2,4.2660633E-1,6.6565216E-2,1.1491681E-1],"categories":[],"categories_nodes":[],"categories_segments":[],"categories_sizes":[],"default_left":[0,0,0,0,0,0,0,0,0,0,0],"id":70,"left_children":[1,3,-1,5,-1,7,-1,-1,9,-1,-1],"loss_changes":[1.4809644E1,1.1905308E1,0E0,7.0081854E0,0E0,2.5207367E0,0E0,0E0,1.2322674E0,0E0,0E0],"parents":[2147483647,0,0,1,1,3,3,5,5,8,8],"right_children":[2,4,-1,6,-1,8,-1,-1,10,-1,-1],"split_conditions":[5.1088062E1,5.241683E1,-9.833886E-2,6.0174793E1,-9.979756E-2,2.1437923E1,-9.756158E-2,-8.59223E-2,3.2197605E1,6.6565216E-2,1.1491681E-1],"split_indices":[4,1,0,0,0,1,0,0,1,0,0],"split_type":[0,0,0,0,0,0,0,0,0,0,0],"sum_hessian":[1.6465582E2,1.2460717E2,4.0048656E1,1.04609955E2,1.999722E1,9.5353615E1,9.256338E0,3.3564384E0,9.199718E1,6.504553E1,2.6951643E1],"tree_param":{"num_deleted":"0","num_feature":"5","num_nodes":"11","size_leaf_vector":"1"}},{"base_weights":[-4.2772826E-2,-9.849275E-2,5.419123E-1,9.7307794E-2,1.14884004E-1,-6.3039094E-2,1.2753895E-1],"categories":[],"categories_nodes":[],"categories_segments":[],"categories_sizes":[],"default_left":[0,0,0,0,0,0,0],"id":71,"left_children":[1,-1,3,5,-1,-1,-1],"loss_changes":[3.4213295E1,0E0,1.5820293E0,1.752587E0,0E0,0E0,0E0],"parents":[2147483647,0,0,2,2,3,3],"right_children":[2,-1,4,6,-1,-1,-1],"split_conditions":[7.632316E1,-9.849275E-2,6.490206E1,6.671524E1,1.14884004E-1,-6.3039094E-2,1.2753895E-1],"split_indices":[2,0,0,4,0,0,0],"split_type":[0,0,0,0,0,0,0],"sum_hessian":[1.22540504E2,6.7463486E1,5.507702E1,7.047869E0,4.802915E1,4.022624E0,3.0252452E0],"tree_param":{"num_deleted":"0","num_feature":"5","num_nodes":"7","size_leaf_vector":"1"}},{"base_weights":[1.0434584E-3,2.2123446E-1,-8.672152E-2,3.4983468E-1,-9.9549726E-2,7.8071676E-2,1.094671E-1,1.7784057E-2,1.0593858E-1,3.8480174E-2,-6.281926E-2],"categories":[],"categories_nodes":[],"categories_segments":[],"categories_sizes":[],"default_left":[0,0,0,0,0,0,0,0,0,0,0],"id":72,"left_children":[1,3,-1,5,-1,7,-1,9,-1,-1,-1],"loss_changes":[1.4951112E1,9.604584E0,0E0,5.288291E0,0E0,1.1245656E0,0E0,2.247227E0,0E0,0E0,0E0],"parents":[2147483647,0,0,1,1,3,3,5,5,7,7],"right_children":[2,4,-1,6,-1,8,-1,10,-1,-1,-1],"split_conditions":[3.756923E1,5.241683E1,-8.672152E-2,5.8858936E1,-9.9549726E-2,3.504644E1,1.094671E-1,3.2067894E1,1.0593858E-1,3.8480174E-2,-6.281926E-2],"split_indices":[4,1,0,0,0,4,0,4,0,0,0],"split_type":[0,0,0,0,0,0,0,0,0,0,0],"sum_hessian":[1.4791049E2,9.9988625E1,4.7921867E1,8.531981E1,1.4668814E1,3.8990467E1,4.632934E1,3.4675957E1,4.3145123E0,2.2680136E1,1.1995821E1],"tree_param":{"num_deleted":"0","num_feature":"5","num_nodes":"11","size_leaf_vector":"1"}},{"base_weights":[6.441098E-3,1.9022565E-1,-9.797007E-2,-9.339817E-2,7.057816E-2,3.162045E-2,-2.9475752E-1,-8.7411374E-2,-5.9844484E-3],"categories":[],"categories_nodes":[],"categories_segments":[],"categories_sizes":[],"default_left":[0,0,0,0,0,0,0,0,0],"id":73,"left_children":[1,3,-1,5,-1,-1,7,-1,-1],"loss_changes":[1.4945754E1,5.957207E0,0E0,2.3612587E0,0E0,0E0,1.1100476E0,0E0,0E0],"parents":[2147483647,0,0,1,1,3,3,6,6],"right_children":[2,4,-1,6,-1,-1,8,-1,-1],"split_conditions":[4.4029152E1,3.0140558E1,-9.797007E-2,4.779769E1,7.057816E-2,3.162045E-2,2.8550867E1,-8.7411374E-2,-5.9844484E-3],"split_indices":[4,2,0,0,0,0,3,0,0],"split_type":[0,0,0,0,0,0,0,0,0],"sum_hessian":[1.5524495E2,1.14950676E2,4.0294262E1,4.499541E1,6.995527E1,1.95918E1,2.540361E1,1.551094E1,9.892671E0],"tree_param":{"num_deleted":"0","num_feature":"5","num_nodes":"9","size_leaf_vector":"1"}},{"base_weights":[-8.969227E-3,1.6437203E-1,-9.792445E-2,-1.9025704E-1,4.6287894E-1,-9.3063325E-2,4.748841E-2,5.2574426E-1,-1.052287E-1,4.2083248E-1,-3.7565047E-1,1.0925504E-1,-1.3429967E-2,1.0936853E-1,-1.6108716E-2,-9.937344E-2,2.1583246E-2],"categories":[],"categories_nodes":[],"categories_segments":[],"categories_sizes":[],"default_left":[0,0,0,0,0,0,0,0,0,0,0,0,0,0,0,0,0],"id":74,"left_children":[1,3,-1,5,7,-1,9,11,-1,13,15,-1,-1,-1,-1,-1,-1],"loss_changes":[1.3261879E1,1.1878604E1,0E0,3.6775994E0,3.9017534E0,0E0,4.522638E0,1.7671604E0,0E0,1.2148976E0,9.850249E-1,0E0,0E0,0E0,0E0,0E0,0E0],"parents":[2147483647,0,0,1,1,3,3,4,4,6,6,7,7,9,9,10,10],"right_children":[2,4,-1,6,8,-1,10,12,-1,14,16,-1,-1,-1,-1,-1,-1],"split_conditions":[6.550762E1,4.2125767E1,-9.792445E-2,6.3148937E1,7.00318E1,-9.3063325E-2,8.492867E1,4.6697575E1,-1.052287E-1,3.430527E1,3.559371E1,1.0925504E-1,-1.3429967E-2,1.0936853E-1,-1.6108716E-2,-9.937344E-2,2.1583246E-2],"split_indices":[0,4,0,1,1,0,1,3,0,4,3,0,0,0,0,0,0],"split_type":[0,0,0,0,0,0,0,0,0,0,0,0,0,0,0,0,0],"sum_hessian":[1.5045668E2,1.1217827E2,3.827841E1,5.1249905E1,6.0928368E1,2.262501E1,2.8624895E1,5.7399006E1,3.5293593E0,1.5223351E1,1.3401544E1,5.2865906E1,4.5331006E0,1.1638824E1,3.584526E0,1.02902355E1,3.1113079E0],"tree_param":{"num_deleted":"0","num_feature":"5","num_nodes":"17","size_leaf_vector":"1"}},{"base_weights":[4.3763393E-3,-9.550284E-2,2.6536173E-1,3.6205232E-1,-8.338793E-2,8.500821E-2,4.9220788E-1,4.7949648E-1,-3.7257813E-2,1.23460256E-1,3.6014494E-2,3.435087E-2,1.5233482E-1],"categories":[],"categories_nodes":[],"categories_segments":[],"categories_sizes":[],"default_left":[0,0,0,0,0,0,0,0,0,0,0,0,0],"id":75,"left_children":[1,-1,3,5,-1,7,9,11,-1,-1,-1,-1,-1],"loss_changes":[2.0369354E1,0E0,6.9203334E0,3.2093554E0,0E0,3.177275E0,2.9197168E0,1.1421866E0,0E0,0E0,0E0,0E0,0E0],"parents":[2147483647,0,0,2,2,3,3,5,5,6,6,7,7],"right_children":[2,-1,4,6,-1,8,10,12,-1,-1,-1,-1,-1],"split_conditions":[4.3840782E1,-9.550284E-2,1.0007409E2,5.9724705E1,-8.338793E-2,8.274922E1,4.110121E1,3.4558205E1,-3.7257813E-2,1.23460256E-1,3.6014494E-2,3.435087E-2,1.5233482E-1],"split_indices":[1,0,1,0,0,1,2,3,0,0,0,0,0],"split_type":[0,0,0,0,0,0,0,0,0,0,0,0,0],"sum_hessian":[1.5339488E2,5.198438E1,1.014105E2,8.9208755E1,1.2201743E1,2.8545822E1,6.0662933E1,1.1914281E1,1.663154E1,3.962577E1,2.1037163E1,6.2376533E0,5.676628E0],"tree_param":{"num_deleted":"0","num_feature":"5","num_nodes":"13","size_leaf_vector":"1"}},{"base_weights":[2.650037E-3,2.0886138E-1,-9.878414E-2,-2.4267522E-1,4.9974424E-1,-8.269129E-2,1.6337402E-2,2.6422042E-1,1.1898198E-1,-5.9716452E-2,3.9624384E-1,7.316829E-2,-7.63531E-2,1.7023623E-1,8.517965E-3],"categories":[],"categories_nodes":[],"categories_segments":[],"categories_sizes":[],"default_left":[0,0,0,0,0,0,0,0,0,0,0,0,0,0,0],"id":76,"left_children":[1,3,-1,5,7,-1,9,11,-1,-1,13,-1,-1,-1,-1],"loss_changes":[1.5406867E1,1.3439051E1,0E0,2.0200078E0,1.8762512E0,0E0,2.1610014E0,1.7987942E0,0E0,0E0,1.4026061E0,0E0,0E0,0E0,0E0],"parents":[2147483647,0,0,1,1,3,3,4,4,6,6,7,7,10,10],"right_children":[2,4,-1,6,8,-1,10,12,-1,-1,14,-1,-1,-1,-1],"split_conditions":[6.3148937E1,6.631044E1,-9.878414E-2,3.0612152E1,3.142666E1,-8.269129E-2,5.550243E1,3.181771E1,1.1898198E-1,-5.9716452E-2,3.1617018E1,7.316829E-2,-7.63531E-2,1.7023623E-1,8.517965E-3],"split_indices":[1,0,0,3,3,0,0,1,0,0,2,0,0,0,0],"split_type":[0,0,0,0,0,0,0,0,0,0,0,0,0,0,0],"sum_hessian":[1.4248842E2,1.02294174E2,4.0194237E1,4.0061974E1,6.2232204E1,2.292639E1,1.7135586E1,2.2035257E1,4.0196945E1,9.128937E0,8.006649E0,1.8639662E1,3.3955963E0,3.276947E0,4.729702E0],"tree_param":{"num_deleted":"0","num_feature":"5","num_nodes":"15","size_leaf_vector":"1"}},{"base_weights":[1.54435355E-2,1.726732E-1,-9.833848E-2,2.9810166E-1,-9.819069E-2,3.6740306E-1,-9.700984E-2,2.8827053E-1,1.0394421E-1,6.893477E-2,-4.9317856E-3],"categories":[],"categories_nodes":[],"categories_segments":[],"categories_sizes":[],"default_left":[0,0,0,0,0,0,0,0,0,0,0],"id":77,"left_children":[1,3,-1,5,-1,7,-1,9,-1,-1,-1],"loss_changes":[1.280979E1,1.0209686E1,0E0,5.598523E0,0E0,1.3100052E0,0E0,1.531836E0,0E0,0E0,0E0],"parents":[2147483647,0,0,1,1,3,3,5,5,7,7],"right_children":[2,4,-1,6,-1,8,-1,10,-1,-1,-1],"split_conditions":[5.241683E1,5.1088062E1,-9.833848E-2,6.0174793E1,-9.819069E-2,3.2197605E1,-9.700984E-2,3.4777824E1,1.0394421E-1,6.893477E-2,-4.9317856E-3],"split_indices":[1,4,0,0,0,1,0,4,0,0,0],"split_type":[0,0,0,0,0,0,0,0,0,0,0],"sum_hessian":[1.5235751E2,1.1776667E2,3.4590847E1,9.9698135E1,1.8068533E1,9.186015E1,7.837982E0,6.40397E1,2.7820454E1,5.161862E1,1.242108E1],"tree_param":{"num_deleted":"0","num_feature":"5","num_nodes":"11","size_leaf_vector":"1"}},{"base_weights":[-5.0919317E-2,-9.7795464E-2,5.144109E-1,1.9131523E-2,1.08926475E-1],"categories":[],"categories_nodes":[],