{"learner":{"attributes":{"scikit_learn":"{\"_estimator_type\": \"classifier\"}"},"feature_names":[],"feature_types":[],"gradient_booster":{"model":{"cats":{"enc":[],"feature_segments":[],"sorted_idx":[]},"gbtree_model_param":{"num_parallel_tree":"1","num_trees":"4739"},"iteration_indptr":[0,7,14,21,28,35,42,49,56,63,70,77,84,91,98,105,112,119,126,133,140,147,154,161,168,175,182,189,196,203,210,217,224,231,238,245,252,259,266,273,280,287,294,301,308,315,322,329,336,343,350,357,364,371,378,385,392,399,406,413,420,427,434,441,448,455,462,469,476,483,490,497,504,511,518,525,532,539,546,553,560,567,574,581,588,595,602,609,616,623,630,637,644,651,658,665,672,679,686,693,700,707,714,721,728,735,742,749,756,763,770,777,784,791,798,805,812,819,826,833,840,847,854,861,868,875,882,889,896,903,910,917,924,931,938,945,952,959,966,973,980,987,994,1001,1008,1015,1022,1029,1036,1043,1050,1057,1064,1071,1078,1085,1092,1099,1106,1113,1120,1127,1134,1141,1148,1155,1162,1169,1176,1183,1190,1197,1204,1211,1218,1225,1232,1239,1246,1253,1260,1267,1274,1281,1288,1295,1302,1309,1316,1323,1330,1337,1344,1351,1358,1365,1372,1379,1386,1393,1400,1407,1414,1421,1428,1435,1442,1449,1456,1463,1470,1477,1484,1491,1498,1505,1512,1519,1526,1533,1540,1547,1554,1561,1568,1575,1582,1589,1596,1603,1610,1617,1624,1631,1638,1645,1652,1659,1666,1673,1680,1687,1694,1701,1708,1715,1722,1729,1736,1743,1750,1757,1764,1771,1778,1785,1792,1799,1806,1813,1820,1827,1834,1841,1848,1855,1862,1869,1876,1883,1890,1897,1904,1911,1918,1925,1932,1939,1946,1953,1960,1967,1974,1981,1988,1995,2002,2009,2016,2023,2030,2037,2044,2051,2058,2065,2072,2079,2086,2093,2100,2107,2114,2121,2128,2135,2142,2149,2156,2163,2170,2177,2184,2191,2198,2205,2212,2219,2226,2233,2240,2247,2254,2261,2268,2275,2282,2289,2296,2303,2310,2317,2324,2331,2338,2345,2352,2359,2366,2373,2380,2387,2394,2401,2408,2415,2422,2429,2436,2443,2450,2457,2464,2471,2478,2485,2492,2499,2506,2513,2520,2527,2534,2541,2548,2555,2562,2569,2576,2583,2590,2597,2604,2611,2618,2625,2632,2639,2646,2653,2660,2667,2674,2681,2688,2695,2702,2709,2716,2723,2730,2737,2744,2751,2758,2765,2772,2779,2786,2793,2800,2807,2814,2821,2828,2835,2842,2849,2856,2863,2870,2877,2884,2891,2898,2905,2912,2919,2926,2933,2940,2947,2954,2961,2968,2975,2982,2989,2996,3003,3010,3017,3024,3031,3038,3045,3052,3059,3066,3073,3080,3087,3094,3101,3108,3115,3122,3129,3136,3143,3150,3157,3164,3171,3178,3185,3192,3199,3206,3213,3220,3227,3234,3241,3248,3255,3262,3269,3276,3283,3290,3297,3304,3311,3318,3325,3332,3339,3346,3353,3360,3367,3374,3381,3388,3395,3402,3409,3416,3423,3430,3437,3444,3451,3458,3465,3472,3479,3486,3493,3500,3507,3514,3521,3528,3535,3542,3549,3556,3563,3570,3577,3584,3591,3598,3605,3612,3619,3626,3633,3640,3647,3654,3661,3668,3675,3682,3689,3696,3703,3710,3717,3724,3731,3738,3745,3752,3759,3766,3773,3780,3787,3794,3801,3808,3815,3822,3829,3836,3843,3850,3857,3864,3871,3878,3885,3892,3899,3906,3913,3920,3927,3934,3941,3948,3955,3962,3969,3976,3983,3990,3997,4004,4011,4018,4025,4032,4039,4046,4053,4060,4067,4074,4081,4088,4095,4102,4109,4116,4123,4130,4137,4144,4151,4158,4165,4172,4179,4186,4193,4200,4207,4214,4221,4228,4235,4242,4249,4256,4263,4270,4277,4284,4291,4298,4305,4312,4319,4326,4333,4340,4347,4354,4361,4368,4375,4382,4389,4396,4403,4410,4417,4424,4431,4438,4445,4452,4459,4466,4473,4480,4487,4494,4501,4508,4515,4522,4529,4536,4543,4550,4557,4564,4571,4578,4585,4592,4599,4606,4613,4620,4627,4634,4641,4648,4655,4662,4669,4676,4683,4690,4697,4704,4711,4718,4725,4732,4739],"tree_info":[0,1,2,3,4,5,6,0,1,2,3,4,5,6,0,1,2,3,4,5,6,0,1,2,3,4,5,6,0,1,2,3,4,5,6,0,1,2,3,4,5,6,0,1,2,3,4,5,6,0,1,2,3,4,5,6,0,1,2,3,4,5,6,0,1,2,3,4,5,6,0,1,2,3,4,5,6,0,1,2,3,4,5,6,0,1,2,3,4,5,6,0,1,2,3,4,5,6,0,1,2,3,4,5,6,0,1,2,3,4,5,6,0,1,2,3,4,5,6,0,1,2,3,4,5,6,0,1,2,3,4,5,6,0,1,2,3,4,5,6,0,1,2,3,4,5,6,0,1,2,3,4,5,6,0,1,2,3,4,5,6,0,1,2,3,4,5,6,0,1,2,3,4,5,6,0,1,2,3,4,5,6,0,1,2,3,4,5,6,0,1,2,3,4,5,6,0,1,2,3,4,5,6,0,1,2,3,4,5,6,0,1,2,3,4,5,6,0,1,2,3,4,5,6,0,1,2,3,4,5,6,0,1,2,3,4,5,6,0,1,2,3,4,5,6,0,1,2,3,4,5,6,0,1,2,3,4,5,6,0,1,2,3,4,5,6,0,1,2,3,4,5,6,0,1,2,3,4,5,6,0,1,2,3,4,5,6,0,1,2,3,4,5,6,0,1,2,3,4,5,6,0,1,2,3,4,5,6,0,1,2,3,4,5,6,0,1,2,3,4,5,6,0,1,2,3,4,5,6,0,1,2,3,4,5,6,0,1,2,3,4,5,6,0,1,2,3,4,5,6,0,1,2,3,4,5,6,0,1,2,3,4,5,6,0,1,2,3,4,5,6,0,1,2,3,4,5,6,0,1,2,3,4,5,6,0,1,2,3,4,5,6,0,1,2,3,4,5,6,0,1,2,3,4,5,6,0,1,2,3,4,5,6,0,1,2,3,4,5,6,0,1,2,3,4,5,6,0,1,2,3,4,5,6,0,1,2,3,4,5,6,0,1,2,3,4,5,6,0,1,2,3,4,5,6,0,1,2,3,4,5,6,0,1,2,3,4,5,6,0,1,2,3,4,5,6,0,1,2,3,4,5,6,0,1,2,3,4,5,6,0,1,2,3,4,5,6,0,1,2,3,4,5,6,0,1,2,3,4,5,6,0,1,2,3,4,5,6,0,1,2,3,4,5,6,0,1,2,3,4,5,6,0,1,2,3,4,5,6,0,1,2,3,4,5,6,0,1,2,3,4,5,6,0,1,2,3,4,5,6,0,1,2,3,4,5,6,0,1,2,3,4,5,6,0,1,2,3,4,5,6,0,1,2,3,4,5,6,0,1,2,3,4,5,6,0,1,2,3,4,5,6,0,1,2,3,4,5,6,0,1,2,3,4,5,6,0,1,2,3,4,5,6,0,1,2,3,4,5,6,0,1,2,3,4,5,6,0,1,2,3,4,5,6,0,1,2,3,4,5,6,0,1,2,3,4,5,6,0,1,2,3,4,5,6,0,1,2,3,4,5,6,0,1,2,3,4,5,6,0,1,2,3,4,5,6,0,1,2,3,4,5,6,0,1,2,3,4,5,6,0,1,2,3,4,5,6,0,1,2,3,4,5,6,0,1,2,3,4,5,6,0,1,2,3,4,5,6,0,1,2,3,4,5,6,0,1,2,3,4,5,6,0,1,2,3,4,5,6,0,1,2,3,4,5,6,0,1,2,3,4,5,6,0,1,2,3,4,5,6,0,1,2,3,4,5,6,0,1,2,3,4,5,6,0,1,2,3,4,5,6,0,1,2,3,4,5,6,0,1,2,3,4,5,6,0,1,2,3,4,5,6,0,1,2,3,4,5,6,0,1,2,3,4,5,6,0,1,2,3,4,5,6,0,1,2,3,4,5,6,0,1,2,3,4,5,6,0,1,2,3,4,5,6,0,1,2,3,4,5,6,0,1,2,3,4,5,6,0,1,2,3,4,5,6,0,1,2,3,4,5,6,0,1,2,3,4,5,6,0,1,2,3,4,5,6,0,1,2,3,4,5,6,0,1,2,3,4,5,6,0,1,2,3,4,5,6,0,1,2,3,4,5,6,0,1,2,3,4,5,6,0,1,2,3,4,5,6,0,1,2,3,4,5,6,0,1,2,3,4,5,6,0,1,2,3,4,5,6,0,1,2,3,4,5,6,0,1,2,3,4,5,6,0,1,2,3,4,5,6,0,1,2,3,4,5,6,0,1,2,3,4,5,6,0,1,2,3,4,5,6,0,1,2,3,4,5,6,0,1,2,3,4,5,6,0,1,2,3,4,5,6,0,1,2,3,4,5,6,0,1,2,3,4,5,6,0,1,2,3,4,5,6,0,1,2,3,4,5,6,0,1,2,3,4,5,6,0,1,2,3,4,5,6,0,1,2,3,4,5,6,0,1,2,3,4,5,6,0,1,2,3,4,5,6,0,1,2,3,4,5,6,0,1,2,3,4,5,6,0,1,2,3,4,5,6,0,1,2,3,4,5,6,0,1,2,3,4,5,6,0,1,2,3,4,5,6,0,1,2,3,4,5,6,0,1,2,3,4,5,6,0,1,2,3,4,5,6,0,1,2,3,4,5,6,0,1,2,3,4,5,6,0,1,2,3,4,5,6,0,1,2,3,4,5,6,0,1,2,3,4,5,6,0,1,2,3,4,5,6,0,1,2,3,4,5,6,0,1,2,3,4,5,6,0,1,2,3,4,5,6,0,1,2,3,4,5,6,0,1,2,3,4,5,6,0,1,2,3,4,5,6,0,1,2,3,4,5,6,0,1,2,3,4,5,6,0,1,2,3,4,5,6,0,1,2,3,4,5,6,0,1,2,3,4,5,6,0,1,2,3,4,5,6,0,1,2,3,4,5,6,0,1,2,3,4,5,6,0,1,2,3,4,5,6,0,1,2,3,4,5,6,0,1,2,3,4,5,6,0,1,2,3,4,5,6,0,1,2,3,4,5,6,0,1,2,3,4,5,6,0,1,2,3,4,5,6,0,1,2,3,4,5,6,0,1,2,3,4,5,6,0,1,2,3,4,5,6,0,1,2,3,4,5,6,0,1,2,3,4,5,6,0,1,2,3,4,5,6,0,1,2,3,4,5,6,0,1,2,3,4,5,6,0,1,2,3,4,5,6,0,1,2,3,4,5,6,0,1,2,3,4,5,6,0,1,2,3,4,5,6,0,1,2,3,4,5,6,0,1,2,3,4,5,6,0,1,2,3,4,5,6,0,1,2,3,4,5,6,0,1,2,3,4,5,6,0,1,2,3,4,5,6,0,1,2,3,4,5,6,0,1,2,3,4,5,6,0,1,2,3,4,5,6,0,1,2,3,4,5,6,0,1,2,3,4,5,6,0,1,2,3,4,5,6,0,1,2,3,4,5,6,0,1,2,3,4,5,6,0,1,2,3,4,5,6,0,1,2,3,4,5,6,0,1,2,3,4,5,6,0,1,2,3,4,5,6,0,1,2,3,4,5,6,0,1,2,3,4,5,6,0,1,2,3,4,5,6,0,1,2,3,4,5,6,0,1,2,3,4,5,6,0,1,2,3,4,5,6,0,1,2,3,4,5,6,0,1,2,3,4,5,6,0,1,2,3,4,5,6,0,1,2,3,4,5,6,0,1,2,3,4,5,6,0,1,2,3,4,5,6,0,1,2,3,4,5,6,0,1,2,3,4,5,6,0,1,2,3,4,5,6,0,1,2,3,4,5,6,0,1,2,3,4,5,6,0,1,2,3,4,5,6,0,1,2,3,4,5,6,0,1,2,3,4,5,6,0,1,2,3,4,5,6,0,1,2,3,4,5,6,0,1,2,3,4,5,6,0,1,2,3,4,5,6,0,1,2,3,4,5,6,0,1,2,3,4,5,6,0,1,2,3,4,5,6,0,1,2,3,4,5,6,0,1,2,3,4,5,6,0,1,2,3,4,5,6,0,1,2,3,4,5,6,0,1,2,3,4,5,6,0,1,2,3,4,5,6,0,1,2,3,4,5,6,0,1,2,3,4,5,6,0,1,2,3,4,5,6,0,1,2,3,4,5,6,0,1,2,3,4,5,6,0,1,2,3,4,5,6,0,1,2,3,4,5,6,0,1,2,3,4,5,6,0,1,2,3,4,5,6,0,1,2,3,4,5,6,0,1,2,3,4,5,6,0,1,2,3,4,5,6,0,1,2,3,4,5,6,0,1,2,3,4,5,6,0,1,2,3,4,5,6,0,1,2,3,4,5,6,0,1,2,3,4,5,6,0,1,2,3,4,5,6,0,1,2,3,4,5,6,0,1,2,3,4,5,6,0,1,2,3,4,5,6,0,1,2,3,4,5,6,0,1,2,3,4,5,6,0,1,2,3,4,5,6,0,1,2,3,4,5,6,0,1,2,3,4,5,6,0,1,2,3,4,5,6,0,1,2,3,4,5,6,0,1,2,3,4,5,6,0,1,2,3,4,5,6,0,1,2,3,4,5,6,0,1,2,3,4,5,6,0,1,2,3,4,5,6,0,1,2,3,4,5,6,0,1,2,3,4,5,6,0,1,2,3,4,5,6,0,1,2,3,4,5,6,0,1,2,3,4,5,6,0,1,2,3,4,5,6,0,1,2,3,4,5,6,0,1,2,3,4,5,6,0,1,2,3,4,5,6,0,1,2,3,4,5,6,0,1,2,3,4,5,6,0,1,2,3,4,5,6,0,1,2,3,4,5,6,0,1,2,3,4,5,6,0,1,2,3,4,5,6,0,1,2,3,4,5,6,0,1,2,3,4,5,6,0,1,2,3,4,5,6,0,1,2,3,4,5,6,0,1,2,3,4,5,6,0,1,2,3,4,5,6,0,1,2,3,4,5,6,0,1,2,3,4,5,6,0,1,2,3,4,5,6,0,1,2,3,4,5,6,0,1,2,3,4,5,6,0,1,2,3,4,5,6,0,1,2,3,4,5,6,0,1,2,3,4,5,6,0,1,2,3,4,5,6,0,1,2,3,4,5,6,0,1,2,3,4,5,6,0,1,2,3,4,5,6,0,1,2,3,4,5,6,0,1,2,3,4,5,6,0,1,2,3,4,5,6,0,1,2,3,4,5,6,0,1,2,3,4,5,6,0,1,2,3,4,5,6,0,1,2,3,4,5,6,0,1,2,3,4,5,6,0,1,2,3,4,5,6,0,1,2,3,4,5,6,0,1,2,3,4,5,6,0,1,2,3,4,5,6,0,1,2,3,4,5,6,0,1,2,3,4,5,6,0,1,2,3,4,5,6,0,1,2,3,4,5,6,0,1,2,3,4,5,6,0,1,2,3,4,5,6,0,1,2,3,4,5,6,0,1,2,3,4,5,6,0,1,2,3,4,5,6,0,1,2,3,4,5,6,0,1,2,3,4,5,6,0,1,2,3,4,5,6,0,1,2,3,4,5,6,0,1,2,3,4,5,6,0,1,2,3,4,5,6,0,1,2,3,4,5,6,0,1,2,3,4,5,6,0,1,2,3,4,5,6,0,1,2,3,4,5,6,0,1,2,3,4,5,6,0,1,2,3,4,5,6,0,1,2,3,4,5,6,0,1,2,3,4,5,6,0,1,2,3,4,5,6,0,1,2,3,4,5,6,0,1,2,3,4,5,6,0,1,2,3,4,5,6,0,1,2,3,4,5,6,0,1,2,3,4,5,6,0,1,2,3,4,5,6,0,1,2,3,4,5,6,0,1,2,3,4,5,6,0,1,2,3,4,5,6,0,1,2,3,4,5,6,0,1,2,3,4,5,6,0,1,2,3,4,5,6,0,1,2,3,4,5,6,0,1,2,3,4,5,6,0,1,2,3,4,5,6,0,1,2,3,4,5,6,0,1,2,3,4,5,6,0,1,2,3,4,5,6,0,1,2,3,4,5,6,0,1,2,3,4,5,6,0,1,2,3,4,5,6,0,1,2,3,4,5,6,0,1,2,3,4,5,6,0,1,2,3,4,5,6,0,1,2,3,4,5,6,0,1,2,3,4,5,6,0,1,2,3,4,5,6,0,1,2,3,4,5,6,0,1,2,3,4,5,6,0,1,2,3,4,5,6,0,1,2,3,4,5,6,0,1,2,3,4,5,6,0,1,2,3,4,5,6,0,1,2,3,4,5,6,0,1,2,3,4,5,6,0,1,2,3,4,5,6,0,1,2,3,4,5,6,0,1,2,3,4,5,6,0,1,2,3,4,5,6,0,1,2,3,4,5,6,0,1,2,3,4,5,6,0,1,2,3,4,5,6,0,1,2,3,4,5,6,0,1,2,3,4,5,6,0,1,2,3,4,5,6,0,1,2,3,4,5,6,0,1,2,3,4,5,6,0,1,2,3,4,5,6,0,1,2,3,4,5,6,0,1,2,3,4,5,6,0,1,2,3,4,5,6,0,1,2,3,4,5,6,0,1,2,3,4,5,6,0,1,2,3,4,5,6,0,1,2,3,4,5,6,0,1,2,3,4,5,6,0,1,2,3,4,5,6,0,1,2,3,4,5,6,0,1,2,3,4,5,6,0,1,2,3,4,5,6,0,1,2,3,4,5,6,0,1,2,3,4,5,6,0,1,2,3,4,5,6,0,1,2,3,4,5,6,0,1,2,3,4,5,6,0,1,2,3,4,5,6,0,1,2,3,4,5,6,0,1,2,3,4,5,6,0,1,2,3,4,5,6,0,1,2,3,4,5,6,0,1,2,3,4,5,6,0,1,2,3,4,5,6,0,1,2,3,4,5,6,0,1,2,3,4,5,6,0,1,2,3,4,5,6,0,1,2,3,4,5,6,0,1,2,3,4,5,6,0,1,2,3,4,5,6,0,1,2,3,4,5,6,0,1,2,3,4,5,6,0,1,2,3,4,5,6,0,1,2,3,4,5,6,0,1,2,3,4,5,6,0,1,2,3,4,5,6,0,1,2,3,4,5,6,0,1,2,3,4,5,6,0,1,2,3,4,5,6,0,1,2,3,4,5,6,0,1,2,3,4,5,6,0,1,2,3,4,5,6,0,1,2,3,4,5,6,0,1,2,3,4,5,6,0,1,2,3,4,5,6,0,1,2,3,4,5,6,0,1,2,3,4,5,6,0,1,2,3,4,5,6,0,1,2,3,4,5,6,0,1,2,3,4,5,6,0,1,2,3,4,5,6,0,1,2,3,4,5,6,0,1,2,3,4,5,6,0,1,2,3,4,5,6,0,1,2,3,4,5,6,0,1,2,3,4,5,6,0,1,2,3,4,5,6,0,1,2,3,4,5,6,0,1,2,3,4,5,6,0,1,2,3,4,5,6,0,1,2,3,4,5,6,0,1,2,3,4,5,6,0,1,2,3,4,5,6,0,1,2,3,4,5,6,0,1,2,3,4,5,6,0,1,2,3,4,5,6,0,1,2,3,4,5,6,0,1,2,3,4,5,6,0,1,2,3,4,5,6,0,1,2,3,4,5,6,0,1,2,3,4,5,6,0,1,2,3,4,5,6,0,1,2,3,4,5,6,0,1,2,3,4,5,6,0,1,2,3,4,5,6,0,1,2,3,4,5,6,0,1,2,3,4,5,6,0,1,2,3,4,5,6,0,1,2,3,4,5,6,0,1,2,3,4,5,6,0,1,2,3,4,5,6,0,1,2,3,4,5,6,0,1,2,3,4,5,6,0,1,2,3,4,5,6,0,1,2,3,4,5,6,0,1,2,3,4,5,6,0,1,2,3,4,5,6,0,1,2,3,4,5,6,0,1,2,3,4,5,6,0,1,2,3,4,5,6,0,1,2,3,4,5,6,0,1,2,3,4,5,6,0,1,2,3,4,5,6,0,1,2,3,4,5,6,0,1,2,3,4,5,6,0,1,2,3,4,5,6,0,1,2,3,4,5,6,0,1,2,3,4,5,6,0,1,2,3,4,5,6,0,1,2,3,4,5,6,0,1,2,3,4,5,6,0,1,2,3,4,5,6,0,1,2,3,4,5,6,0,1,2,3,4,5,6,0,1,2,3,4,5,6,0,1,2,3,4,5,6,0,1,2,3,4,5,6,0,1,2,3,4,5,6,0,1,2,3,4,5,6,0,1,2,3,4,5,6,0,1,2,3,4,5,6,0,1,2,3,4,5,6,0,1,2,3,4,5,6,0,1,2,3,4,5,6,0,1,2,3,4,5,6,0,1,2,3,4,5,6,0,1,2,3,4,5,6,0,1,2,3,4,5,6,0,1,2,3,4,5,6,0,1,2,3,4,5,6,0,1,2,3,4,5,6,0,1,2,3,4,5,6,0,1,2,3,4,5,6,0,1,2,3,4,5,6,0,1,2,3,4,5,6,0,1,2,3,4,5,6,0,1,2,3,4,5,6,0,1,2,3,4,5,6,0,1,2,3,4,5,6,0,1,2,3,4,5,6,0,1,2,3,4,5,6,0,1,2,3,4,5,6,0,1,2,3,4,5,6,0,1,2,3,4,5,6,0,1,2,3,4,5,6,0,1,2,3,4,5,6,0,1,2,3,4,5,6,0,1,2,3,4,5,6,0,1,2,3,4,5,6,0,1,2,3,4,5,6,0,1,2,3,4,5,6,0,1,2,3,4,5,6,0,1,2,3,4,5,6,0,1,2,3,4,5,6,0,1,2,3,4,5,6,0,1,2,3,4,5,6,0,1,2,3,4,5,6,0,1,2,3,4,5,6,0,1,2,3,4,5,6,0,1,2,3,4,5,6,0,1,2,3,4,5,6,0,1,2,3,4,5,6,0,1,2,3,4,5,6,0,1,2,3,4,5,6,0,1,2,3,4,5,6,0,1,2,3,4,5,6,0,1,2,3,4,5,6,0,1,2,3,4,5,6,0,1,2,3,4,5,6,0,1,2,3,4,5,6,0,1,2,3,4,5,6,0,1,2,3,4,5,6,0,1,2,3,4,5,6,0,1,2,3,4,5,6,0,1,2,3,4,5,6,0,1,2,3,4,5,6,0,1,2,3,4,5,6,0,1,2,3,4,5,6,0,1,2,3,4,5,6,0,1,2,3,4,5,6,0,1,2,3,4,5,6,0,1,2,3,4,5,6,0,1,2,3,4,5,6,0,1,2,3,4,5,6,0,1,2,3,4,5,6,0,1,2,3,4,5,6,0,1,2,3,4,5,6,0,1,2,3,4,5,6,0,1,2,3,4,5,6,0,1,2,3,4,5,6,0,1,2,3,4,5,6,0,1,2,3,4,5,6,0,1,2,3,4,5,6,0,1,2,3,4,5,6,0,1,2,3,4,5,6,0,1,2,3,4,5,6,0,1,2,3,4,5,6,0,1,2,3,4,5,6,0,1,2,3,4,5,6,0,1,2,3,4,5,6,0,1,2,3,4,5,6,0,1,2,3,4,5,6,0,1,2,3,4,5,6,0,1,2,3,4,5,6,0,1,2,3,4,5,6,0,1,2,3,4,5,6,0,1,2,3,4,5,6,0,1,2,3,4,5,6,0,1,2,3,4,5,6,0,1,2,3,4,5,6,0,1,2,3,4,5,6,0,1,2,3,4,5,6,0,1,2,3,4,5,6,0,1,2,3,4,5,6,0,1,2,3,4,5,6,0,1,2,3,4,5,6,0,1,2,3,4,5,6,0,1,2,3,4,5,6,0,1,2,3,4,5,6,0,1,2,3,4,5,6,0,1,2,3,4,5,6,0,1,2,3,4,5,6,0,1,2,3,4,5,6,0,1,2,3,4,5,6,0,1,2,3,4,5,6,0,1,2,3,4,5,6,0,1,2,3,4,5,6,0,1,2,3,4,5,6,0,1,2,3,4,5,6,0,1,2,3,4,5,6,0,1,2,3,4,5,6,0,1,2,3,4,5,6,0,1,2,3,4,5,6,0,1,2,3,4,5,6,0,1,2,3,4,5,6,0,1,2,3,4,5,6,0,1,2,3,4,5,6,0,1,2,3,4,5,6,0,1,2,3,4,5,6,0,1,2,3,4,5,6,0,1,2,3,4,5,6,0,1,2,3,4,5,6,0,1,2,3,4,5,6,0,1,2,3,4,5,6,0,1,2,3,4,5,6,0,1,2,3,4,5,6,0,1,2,3,4,5,6,0,1,2,3,4,5,6,0,1,2,3,4,5,6,0,1,2,3,4,5,6,0,1,2,3,4,5,6,0,1,2,3,4,5,6,0,1,2,3,4,5,6,0,1,2,3,4,5,6,0,1,2,3,4,5,6,0,1,2,3,4,5,6,0,1,2,3,4,5,6,0,1,2,3,4,5,6,0,1,2,3,4,5,6,0,1,2,3,4,5,6,0,1,2,3,4,5,6,0,1,2,3,4,5,6,0,1,2,3,4,5,6,0,1,2,3,4,5,6,0,1,2,3,4,5,6,0,1,2,3,4,5,6,0,1,2,3,4,5,6,0,1,2,3,4,5,6,0,1,2,3,4,5,6,0,1,2,3,4,5,6,0,1,2,3,4,5,6,0,1,2,3,4,5,6,0,1,2,3,4,5,6,0,1,2,3,4,5,6,0,1,2,3,4,5,6,0,1,2,3,4,5,6,0,1,2,3,4,5,6,0,1,2,3,4,5,6,0,1,2,3,4,5,6,0,1,2,3,4,5,6,0,1,2,3,4,5,6,0,1,2,3,4,5,6,0,1,2,3,4,5,6],"trees":[{"base_weights":[1.447804E-2,8.022055E-1,-5.3700036E-1,1.5552053E0,-1.1620077E-1,-9.247105E-2,-1.1621624E-1,2.8667977E0,-3.9032626E-1,6.412928E-1,-9.9296615E-2,3.2378824E0,2.1719193E0,-1.1618966E-1,2.2323272E-1,1.0371172E-2,2.3704334E-1,2.874348E0,3.4212945E0,4.0717527E-2,2.8965988E0,6.4970237E-1,4.7286272E-1,3.1354263E0,7.087241E-1,3.942909E-1,6.857499E-1,7.0847213E-1,5.5382407E-1],"categories":[],"categories_nodes":[],"categories_segments":[],"categories_sizes":[],"default_left":[0,0,0,0,0,0,0,0,0,0,0,0,0,0,0,0,0,0,0,0,0,0,0,0,0,0,0,0,0],"id":0,"left_children":[1,3,5,7,-1,9,-1,11,13,15,-1,17,19,-1,-1,-1,-1,21,23,-1,25,-1,-1,27,-1,-1,-1,-1,-1],"loss_changes":[1.4784586E2,1.4607196E2,3.9969978E0,2.3163715E2,0E0,5.4629316E0,0E0,1.3952667E1,1.0553434E1,2.0954819E0,0E0,2.322937E0,2.6910736E1,0E0,0E0,0E0,0E0,2.2473068E0,8.2144165E-1,0E0,6.8079376E0,0E0,0E0,1.0506287E0,0E0,0E0,0E0,0E0,0E0],"parents":[2147483647,0,0,1,1,2,2,3,3,5,5,7,7,8,8,9,9,11,11,12,12,17,17,18,18,20,20,23,23],"right_children":[2,4,6,8,-1,10,-1,12,14,16,-1,18,20,-1,-1,-1,-1,22,24,-1,26,-1,-1,28,-1,-1,-1,-1,-1],"split_conditions":[-5.917517E-1,2.0943556E-2,-3.9732367E-1,-5.8878E-1,-1.1620077E-1,-5.14406E-1,-1.1621624E-1,8.4446795E-2,1.7315483E0,-6.068662E-1,-9.9296615E-2,-9.819717E-1,-8.924729E-1,-1.1618966E-1,2.2323272E-1,1.0371172E-2,2.3704334E-1,-6.286394E-1,-1.1566709E0,4.0717527E-2,-8.062188E-1,6.4970237E-1,4.7286272E-1,-9.081981E-1,7.087241E-1,3.942909E-1,6.857499E-1,7.0847213E-1,5.5382407E-1],"split_indices":[1,2,1,5,0,4,0,0,0,0,0,2,2,0,0,0,0,0,1,0,2,0,0,2,0,0,0,0,0],"split_type":[0,0,0,0,0,0,0,0,0,0,0,0,0,0,0,0,0,0,0,0,0,0,0,0,0,0,0,0,0],"sum_hessian":[3.403302E2,1.4015019E2,2.0018E2,9.077085E1,4.9379345E1,1.8396227E1,1.8178377E2,5.4220455E1,3.6550396E1,6.5355015E0,1.1860724E1,3.534012E1,1.8880337E1,3.243545E1,4.1149454E0,3.146723E0,3.3887784E0,1.1860724E1,2.3479395E1,5.083168E0,1.379717E1,6.777557E0,5.083168E0,7.261668E0,1.6217726E1,5.083168E0,8.714002E0,3.3887784E0,3.8728898E0],"tree_param":{"num_deleted":"0","num_feature":"6","num_nodes":"29","size_leaf_vector":"1"}},{"base_weights":[1.2826109E-4,-5.6725085E-1,7.111545E-1,-1.16039634E-1,2.5946004E-3],"categories":[],"categories_nodes":[],"categories_segments":[],"categories_sizes":[],"default_left":[0,0,0,0,0],"id":1,"left_children":[1,3,-1,-1,-1],"loss_changes":[6.778579E2,2.3238754E0,0E0,0E0,0E0],"parents":[2147483647,0,0,1,1],"right_children":[2,4,-1,-1,-1],"split_conditions":[1.5436614E0,9.9345857E-1,7.111545E-1,-1.16039634E-1,2.5946004E-3],"split_indices":[4,4,0,0,0],"split_type":[0,0,0,0,0],"sum_hessian":[3.3549234E2,2.8938315E2,4.6109184E1,2.826589E2,6.724256E0],"tree_param":{"num_deleted":"0","num_feature":"6","num_nodes":"5","size_leaf_vector":"1"}},{"base_weights":[1.6921178E-2,8.227159E-1,-5.4496336E-1,-1.3394757E-1,3.2676504E0,-4.603541E-3,-1.126096E-1,-4.683586E-1,2.1019539E-1,6.865518E-1,2.3761003E0,9.883364E-2,-1.1634396E-1,-1.1217686E-1,1.136763E-1,9.571021E-1,-4.0314665E-1,6.921978E-1,2.5647885E-1,1.5277992E-1,-1.16367325E-1,6.310982E-1,3.9808166E-1,-9.994265E-2,4.488738E-2,9.444657E-1,-6.88212E-2,1.7961271E-2,1.383327E0,4.3676826E-1,8.5364774E-2],"categories":[],"categories_nodes":[],"categories_segments":[],"categories_sizes":[],"default_left":[0,0,0,0,0,0,0,0,0,0,0,0,0,0,0,0,0,0,0,0,0,0,0,0,0,0,0,0,0,0,0],"id":2,"left_children":[1,3,5,7,9,11,-1,13,15,-1,17,-1,-1,-1,19,21,23,-1,-1,-1,-1,25,-1,-1,-1,27,-1,-1,29,-1,-1],"loss_changes":[1.5665376E2,3.3249695E2,2.0825233E0,1.1759457E1,6.0386963E0,1.9955109E0,0E0,2.8187752E0,2.3065971E1,0E0,7.6114655E0,0E0,0E0,0E0,3.247374E0,7.656603E0,1.6904998E0,0E0,0E0,0E0,0E0,5.2851324E0,0E0,0E0,0E0,4.897377E0,0E0,0E0,6.6226997E0,0E0,0E0],"parents":[2147483647,0,0,1,1,2,2,3,3,4,4,5,5,7,7,8,8,10,10,14,14,15,15,16,16,21,21,25,25,28,28],"right_children":[2,4,6,8,10,12,-1,14,16,-1,18,-1,-1,-1,20,22,24,-1,-1,-1,-1,26,-1,-1,-1,28,-1,-1,30,-1,-1],"split_conditions":[-7.8593665E-1,-9.420415E-2,-7.480501E-1,-5.175689E-1,-4.587169E-1,-4.2866257E-1,-1.126096E-1,-5.621043E-1,-4.9862418E-1,6.865518E-1,-5.2472764E-1,9.883364E-2,-1.1634396E-1,-1.1217686E-1,-4.2866257E-1,-6.563702E-1,-3.354742E-1,6.921978E-1,2.5647885E-1,1.5277992E-1,-1.16367325E-1,-5.572526E-1,3.9808166E-1,-9.994265E-2,4.488738E-2,2.0242387E-1,-6.88212E-2,1.7961271E-2,-6.416606E-1,4.3676826E-1,8.5364774E-2],"split_indices":[5,1,5,0,3,3,0,1,3,0,4,0,0,0,3,1,4,0,0,0,0,3,0,0,0,0,0,0,4,0,0],"split_type":[0,0,0,0,0,0,0,0,0,0,0,0,0,0,0,0,0,0,0,0,0,0,0,0,0,0,0,0,0,0,0],"sum_hessian":[3.459913E2,1.4214764E2,2.0384366E2,1.0216862E2,3.9979023E1,6.9099545E0,1.969337E2,5.1824657E1,5.0343956E1,3.3562637E1,6.4163866E0,3.7017612E0,3.2081933E0,4.466792E1,7.1567388E0,2.2704136E1,2.7639818E1,3.2081933E0,3.2081933E0,3.7017612E0,3.4549773E0,1.7274887E1,5.42925E0,2.3938057E1,3.7017612E0,1.3079556E1,4.1953297E0,4.442114E0,8.637444E0,4.6888976E0,3.9485455E0],"tree_param":{"num_deleted":"0","num_feature":"6","num_nodes":"31","size_leaf_vector":"1"}},{"base_weights":[-1.5287843E-2,-5.2220947E-1,7.847325E-1,-1.1720921E-1,7.3123075E-2,3.094755E0,-5.4096043E-1,8.3474946E-1,-1.1712217E-1,2.8597336E0,6.658671E-1,8.032565E-2,-1.1720195E-1,3.2757217E-1,5.4604877E-2,3.0660002E0,4.3300095E-1,4.9792692E-1,6.4709157E-1],"categories":[],"categories_nodes":[],"categories_segments":[],"categories_sizes":[],"default_left":[0,0,0,0,0,0,0,0,0,0,0,0,0,0,0,0,0,0,0],"id":3,"left_children":[1,3,5,-1,7,9,11,13,-1,15,-1,-1,-1,-1,-1,17,-1,-1,-1],"loss_changes":[1.4330325E2,8.337006E0,4.1972342E2,0E0,1.0652661E1,2.7813416E0,3.7735138E0,4.441117E0,0E0,3.5722046E0,0E0,0E0,0E0,0E0,0E0,1.9097443E0,0E0,0E0,0E0],"parents":[2147483647,0,0,1,1,2,2,4,4,5,5,6,6,7,7,9,9,15,15],"right_children":[2,4,6,-1,8,10,12,14,-1,16,-1,-1,-1,-1,-1,18,-1,-1,-1],"split_conditions":[7.756207E-1,-2.9818973E-1,-6.242147E-1,-1.1720921E-1,-6.7680645E-1,1.0651021E0,-2.2145367E-1,4.315612E-1,-1.1712217E-1,-3.037888E-1,6.658671E-1,8.032565E-2,-1.1720195E-1,3.2757217E-1,5.4604877E-2,-4.8483688E-1,4.3300095E-1,4.9792692E-1,6.4709157E-1],"split_indices":[2,2,5,0,5,2,5,2,0,4,0,0,0,0,0,3,0,0,0],"split_type":[0,0,0,0,0,0,0,0,0,0,0,0,0,0,0,0,0,0,0],"sum_hessian":[3.533607E2,2.1630722E2,1.3705347E2,1.9510558E2,2.1201641E1,4.9975296E1,8.707817E1,9.843619E0,1.1358022E1,2.524005E1,2.4735249E1,4.038408E0,8.303976E1,4.038408E0,5.805211E0,1.9434837E1,5.805211E0,4.5432086E0,1.4891629E1],"tree_param":{"num_deleted":"0","num_feature":"6","num_nodes":"19","size_leaf_vector":"1"}},{"base_weights":[-1.258468E-2,3.2885295E-1,-1.132256E-1,-3.4775174E-1,1.0795906E0,-5.2345484E-1,1.6413777E0,1.8240926E0,1.8766455E-1,5.9478667E-2,-1.10213555E-1,4.769594E-1,1.8622513E-1,2.4683223E0,-8.3353706E-2,5.1475734E-1,-7.945064E-2,2.7149856E0,1.6934021E-1,1.03024304E-1,8.5130256E-1,1.7216094E0,3.2065387E0,2.3567735E-1,-1.1618067E-1,3.7658757E-1,2.1999492E-1,2.8224409E0,4.001498E-2,5.340887E-1,6.734031E-1,2.1218753E-1,-1.16105884E-1,7.0518243E-1,4.116692E-1],"categories":[],"categories_nodes":[],"categories_segments":[],"categories_sizes":[],"default_left":[0,0,0,0,0,0,0,0,0,0,0,0,0,0,0,0,0,0,0,0,0,0,0,0,0,0,0,0,0,0,0,0,0,0,0],"id":4,"left_children":[1,3,-1,5,7,9,11,13,15,-1,-1,-1,-1,17,-1,19,-1,21,-1,23,25,27,29,-1,-1,-1,31,33,-1,-1,-1,-1,-1,-1,-1],"loss_changes":[6.4445656E1,1.07021935E2,0E0,3.8721962E1,6.631055E1,2.3799057E0,4.7435684E0,7.8614044E1,8.703585E0,0E0,0E0,0E0,0E0,1.688089E1,0E0,4.0357027E0,0E0,1.7891418E1,0E0,9.682551E0,1.0463172E1,2.0331303E1,2.1298828E0,0E0,0E0,0E0,6.72986E0,3.7715263E0,0E0,0E0,0E0,0E0,0E0,0E0,0E0],"parents":[2147483647,0,0,1,1,3,3,4,4,5,5,6,6,7,7,8,8,13,13,15,15,17,17,19,19,20,20,21,21,22,22,26,26,27,27],"right_children":[2,4,-1,6,8,10,12,14,16,-1,-1,-1,-1,18,-1,20,-1,22,-1,24,26,28,30,-1,-1,-1,32,34,-1,-1,-1,-1,-1,-1,-1],"split_conditions":[8.158102E-1,-5.0016475E-1,-1.132256E-1,4.315612E-1,-3.0718747E-1,-1.1283723E0,-4.650868E-1,1.7490509E0,-1.5975982E-1,5.9478667E-2,-1.10213555E-1,4.769594E-1,1.8622513E-1,-8.021472E-1,-8.3353706E-2,-8.693715E-1,-7.945064E-2,-1.0152833E0,1.6934021E-1,-4.2866257E-1,-7.260177E-1,-4.7376072E-1,5.402012E-1,2.3567735E-1,-1.1618067E-1,3.7658757E-1,-6.825092E-2,5.402012E-1,4.001498E-2,5.340887E-1,6.734031E-1,2.1218753E-1,-1.16105884E-1,7.0518243E-1,4.116692E-1],"split_indices":[2,5,0,2,4,2,3,0,3,0,0,0,0,2,0,2,0,2,0,3,0,4,5,0,0,0,4,5,0,0,0,0,0,0,0],"split_type":[0,0,0,0,0,0,0,0,0,0,0,0,0,0,0,0,0,0,0,0,0,0,0,0,0,0,0,0,0,0,0,0,0,0,0],"sum_hessian":[3.4044974E2,2.1068518E2,1.2976457E2,1.10810196E2,9.987498E1,1.01819016E2,8.9911785E0,5.443308E1,4.54419E1,3.4020674E0,9.841695E1,4.374087E0,4.6170917E0,4.2282837E1,1.2150241E1,2.9160578E1,1.6281322E1,3.6693726E1,5.589111E0,1.312226E1,1.6038319E1,1.2150241E1,2.4543486E1,5.1031013E0,8.019159E0,6.0751204E0,9.963198E0,7.0471396E0,5.1031013E0,5.8321157E0,1.871137E1,4.8600965E0,5.1031013E0,3.6450722E0,3.4020674E0],"tree_param":{"num_deleted":"0","num_feature":"6","num_nodes":"35","size_leaf_vector":"1"}},{"base_weights":[2.4864315E-3,-1.1397281E-1,7.022005E-1,-3.1278154E-1,1.3568275E0,-4.2192328E-1,3.295188E-1,3.2924483E0,-3.9571783E-1,-5.0317955E-1,7.191234E-2,2.2890084E0,3.4595459E0,2.5636822E-1,-1.1610857E-1,-1.0761526E-1,-1.8434636E-2,6.480777E-1,2.6580703E-1,5.7943326E-1,7.1209973E-1],"categories":[],"categories_nodes":[],"categories_segments":[],"categories_sizes":[],"default_left":[0,0,0,0,0,0,0,0,0,0,0,0,0,0,0,0,0,0,0,0,0],"id":5,"left_children":[1,-1,3,5,7,9,-1,11,13,15,-1,17,19,-1,-1,-1,-1,-1,-1,-1,-1],"loss_changes":[1.3528813E2,0E0,1.0093044E2,1.2751631E1,3.1326743E2,3.5858517E0,0E0,7.327179E0,1.5110816E1,7.466068E-1,0E0,5.718521E0,2.197174E0,0E0,0E0,0E0,0E0,0E0,0E0,0E0,0E0],"parents":[2147483647,0,0,2,2,3,3,4,4,5,5,7,7,8,8,9,9,11,11,12,12],"right_children":[2,-1,4,6,8,10,-1,12,14,16,-1,18,20,-1,-1,-1,-1,-1,-1,-1,-1],"split_conditions":[-2.9818973E-1,-1.1397281E-1,-6.242147E-1,-1.9865799E-1,1.6673005E0,2.825871E-2,3.295188E-1,-4.1161808E-1,8.8138634E-1,-4.198518E-1,7.191234E-2,7.394021E-1,8.158102E-1,2.5636822E-1,-1.1610857E-1,-1.0761526E-1,-1.8434636E-2,6.480777E-1,2.6580703E-1,5.7943326E-1,7.1209973E-1],"split_indices":[2,0,5,1,3,3,0,1,5,1,0,2,2,0,0,0,0,0,0,0,0],"split_type":[0,0,0,0,0,0,0,0,0,0,0,0,0,0,0,0,0,0,0,0,0],"sum_hessian":[3.3730545E2,1.854095E2,1.5189595E2,5.9552856E1,9.2343094E1,5.6418495E1,3.1343608E0,4.388105E1,4.846204E1,5.1114193E1,5.3043027E0,6.2687216E0,3.761233E1,4.8220935E0,4.3639946E1,4.701541E1,4.0987797E0,3.1343608E0,3.1343608E0,6.027617E0,3.1584713E1],"tree_param":{"num_deleted":"0","num_feature":"6","num_nodes":"21","size_leaf_vector":"1"}},{"base_weights":[1.3609215E-2,-4.9756762E-1,5.8118623E-1,-4.3951675E-1,-1.1683729E-1,1.6924633E0,-1.1683863E-1,-1.09140866E-1,-1.7970832E-1,-5.310176E-1,6.862154E-1,-4.5377386E-1,5.0118273E-1,-1.8247437E-3,-1.1682043E-1,-1.5351222E-1,-1.1678575E-1,-3.633248E-2,2.6082298E-1,-1.16570316E-1,6.815284E-2],"categories":[],"categories_nodes":[],"categories_segments":[],"categories_sizes":[],"default_left":[0,0,0,0,0,0,0,0,0,0,0,0,0,0,0,0,0,0,0,0,0],"id":6,"left_children":[1,3,5,7,-1,9,-1,-1,11,13,-1,15,17,-1,-1,19,-1,-1,-1,-1,-1],"loss_changes":[1.0078733E2,9.2298126E-1,2.1335327E2,3.0519161E0,0E0,3.2685754E2,0E0,0E0,5.9857273E0,1.040371E0,0E0,8.962312E-1,5.0647507E0,0E0,0E0,1.4833939E0,0E0,0E0,0E0,0E0,0E0],"parents":[2147483647,0,0,1,1,2,2,3,3,5,5,8,8,9,9,11,11,12,12,15,15],"right_children":[2,4,6,8,-1,10,-1,-1,12,14,-1,16,18,-1,-1,20,-1,-1,-1,-1,-1],"split_conditions":[-3.338822E-2,-2.9818973E-1,2.0943556E-2,-4.7143808E-1,-1.1683729E-1,-7.480501E-1,-1.1683863E-1,-1.09140866E-1,-6.35996E-1,-1.059901E0,6.862154E-1,-9.4308686E-1,-6.814569E-1,-1.8247437E-3,-1.1682043E-1,-7.131746E-1,-1.1678575E-1,-3.633248E-2,2.6082298E-1,-1.16570316E-1,6.815284E-2],"split_indices":[1,2,2,4,0,5,0,0,1,2,0,2,0,0,0,0,0,0,0,0,0],"split_type":[0,0,0,0,0,0,0,0,0,0,0,0,0,0,0,0,0,0,0,0,0],"sum_hessian":[3.4738254E2,1.8276747E2,1.6461507E2,1.0990915E2,7.285833E1,8.429684E1,8.031822E1,7.783159E1,3.2077557E1,3.7050823E1,4.7246014E1,2.2877018E1,9.20054E0,3.4812853E0,3.356954E1,6.9625707E0,1.5914447E1,4.9732647E0,4.227275E0,3.7299485E0,3.232622E0],"tree_param":{"num_deleted":"0","num_feature":"6","num_nodes":"21","size_leaf_vector":"1"}},{"base_weights":[-5.1596547E-3,5.2335256E-1,-1.1214334E-1,9.74761E-1,-1.1368694E-1,1.2944616E0,3.824695E-1,-4.474437E-2,1.4076102E0,1.6549844E-1,3.3803308E-1,1.4997919E0,-2.803066E-2,-6.763456E-3,2.1148473E-1,1.6329103E0,6.604626E-1,4.569855E-1,-1.0077023E-1,1.6927487E0,1.8124382E-1,-7.299083E-2,3.492461E-1,7.578294E-1,-1.1963378E-1,1.6049367E0,4.3283045E-1,3.5326023E-2,2.7384737E-1,3.535444E-1,1.3715074E0,1.5520917E-1,3.325702E-1],"categories":[],"categories_nodes":[],"categories_segments":[],"categories_sizes":[],"default_left":[0,0,0,0,0,0,0,0,0,0,0,0,0,0,0,0,0,0,0,0,0,0,0,0,0,0,0,0,0,0,0,0,0],"id":7,"left_children":[1,3,-1,5,-1,7,9,-1,11,13,-1,15,-1,17,-1,19,21,23,-1,25,-1,-1,-1,27,-1,29,-1,-1,-1,-1,31,-1,-1],"loss_changes":[9.760088E1,8.395559E1,0E0,2.2799782E1,0E0,1.3446243E1,1.1995905E1,0E0,1.0395493E1,5.5827203E0,0E0,7.6652527E0,0E0,7.012718E0,0E0,2.5601501E0,1.0516807E1,4.9951396E0,0E0,2.263214E0,0E0,0E0,0E0,4.353463E0,0E0,1.769043E0,0E0,0E0,0E0,0E0,3.3384361E0,0E0,0E0],"parents":[2147483647,0,0,1,1,3,3,5,5,6,6,8,8,9,9,11,11,13,13,15,15,16,16,17,17,19,19,23,23,25,25,30,30],"right_children":[2,4,-1,6,-1,8,10,-1,12,14,-1,16,-1,18,-1,20,22,24,-1,26,-1,-1,-1,28,-1,30,-1,-1,-1,-1,32,-1,-1],"split_conditions":[-4.3363628E-1,2.0943556E-2,-1.1214334E-1,-5.2472764E-1,-1.1368694E-1,-1.094849E0,1.7490509E0,-4.474437E-2,1.6685497E0,-6.10904E-1,3.3803308E-1,-5.186942E-1,-2.803066E-2,-5.186942E-1,2.1148473E-1,8.4605277E-1,-8.1729764E-1,1.0069411E0,-1.0077023E-1,-7.1593267E-1,1.8124382E-1,-7.299083E-2,3.492461E-1,-9.392345E-1,-1.1963378E-1,-6.4983934E-1,4.3283045E-1,3.5326023E-2,2.7384737E-1,3.535444E-1,-9.2129964E-1,1.5520917E-1,3.325702E-1],"split_indices":[1,2,0,4,0,2,0,0,0,2,0,3,0,3,0,0,2,0,0,1,0,0,0,1,0,3,0,0,0,0,2,0,0],"split_type":[0,0,0,0,0,0,0,0,0,0,0,0,0,0,0,0,0,0,0,0,0,0,0,0,0,0,0,0,0,0,0,0,0],"sum_hessian":[3.3190115E2,1.7021188E2,1.6168927E2,1.20453316E2,4.9758568E1,7.82224E1,4.2230915E1,5.4211464E0,7.2801254E1,3.623465E1,5.996265E0,6.87128E1,4.088458E0,3.0373194E1,5.861457E0,5.9301285E1,9.411512E0,1.5719683E1,1.4653511E1,5.477513E1,4.526152E0,4.8422546E0,4.569258E0,1.2238269E1,3.4814134E0,4.6233326E1,8.541803E0,6.2902436E0,5.948025E0,2.7043018E1,1.919031E1,6.355246E0,1.2835063E1],"tree_param":{"num_deleted":"0","num_feature":"6","num_nodes":"33","size_leaf_vector":"1"}},{"base_weights":[-8.386066E-3,-5.4858834E-1,3.6565465E-1,-1.1343894E-1,4.056783E-2],"categories":[],"categories_nodes":[],"categories_segments":[],"categories_sizes":[],"default_left":[0,0,0,0,0],"id":8,"left_children":[1,3,-1,-1,-1],"loss_changes":[3.2541608E2,3.7055283E0,0E0,0E0,0E0],"parents":[2147483647,0,0,1,1],"right_children":[2,4,-1,-1,-1],"split_conditions":[1.5436614E0,9.9345857E-1,3.6565465E-1,-1.1343894E-1,4.056783E-2],"split_indices":[4,4,0,0,0],"split_type":[0,0,0,0,0],"sum_hessian":[3.2750018E2,2.5315587E2,7.4344315E1,2.4677415E2,6.3817143E0],"tree_param":{"num_deleted":"0","num_feature":"6","num_nodes":"5","size_leaf_vector":"1"}},{"base_weights":[-8.548414E-3,5.673958E-1,-5.370138E-1,-2.1752167E-1,1.7030072E0,-1.3168331E-2,-1.09338395E-1,-5.0793433E-1,4.7912817E-2,3.6580798E-1,7.4265264E-3,-2.4581634E-2,-1.144638E-1,5.3013223E-1,-4.173763E-1,1.3007432E-1,1.3262767E0,-1.0488255E-1,2.6683813E-2,-8.78812E-2,5.16113E-1,1.4329755E-1,4.123149E-1,2.7096945E-1,-1.5482263E-2],"categories":[],"categories_nodes":[],"categories_segments":[],"categories_sizes":[],"default_left":[0,0,0,0,0,0,0,0,0,0,0,0,0,0,0,0,0,0,0,0,0,0,0,0,0],"id":9,"left_children":[1,3,5,7,9,-1,-1,11,13,-1,-1,-1,-1,15,17,19,21,-1,-1,-1,23,-1,-1,-1,-1],"loss_changes":[1.0336373E2,1.4485138E2,8.729973E-1,7.408944E0,1.4238953E1,0E0,0E0,1.1486921E0,1.1261917E1,0E0,0E0,0E0,0E0,7.844259E0,1.5193324E0,3.6126583E0,3.6892176E0,0E0,0E0,0E0,4.893832E0,0E0,0E0,0E0,0E0],"parents":[2147483647,0,0,1,1,2,2,3,3,4,4,7,7,8,8,13,13,14,14,15,15,16,16,20,20],"right_children":[2,4,6,8,10,-1,-1,12,14,-1,-1,-1,-1,16,18,20,22,-1,-1,-1,24,-1,-1,-1,-1],"split_conditions":[-7.7594453E-1,-3.4119585E-1,-7.480501E-1,-5.175689E-1,-3.8841864E-1,-1.3168331E-2,-1.09338395E-1,-1.1559083E0,-4.9862418E-1,3.6580798E-1,7.4265264E-3,-2.4581634E-2,-1.144638E-1,1.0069411E0,-3.354742E-1,-1.0963157E0,-8.9299405E-1,-1.0488255E-1,2.6683813E-2,-8.78812E-2,5.617598E-1,1.4329755E-1,4.123149E-1,2.7096945E-1,-1.5482263E-2],"split_indices":[5,1,5,0,4,0,0,5,3,0,0,0,0,0,4,5,1,0,0,0,0,0,0,0,0],"split_type":[0,0,0,0,0,0,0,0,0,0,0,0,0,0,0,0,0,0,0,0,0,0,0,0,0],"sum_hessian":[3.3960315E2,1.6249704E2,1.7710611E2,9.608203E1,6.641501E1,3.8732257E0,1.732329E2,4.589157E1,5.0190456E1,6.164582E1,4.7691894E0,6.6643496E0,3.9227222E1,2.4652334E1,2.5538122E1,1.6412016E1,8.240318E0,2.1366333E1,4.171789E0,6.620547E0,9.79147E0,4.5207725E0,3.7195456E0,4.0558653E0,5.735605E0],"tree_param":{"num_deleted":"0","num_feature":"6","num_nodes":"25","size_leaf_vector":"1"}},{"base_weights":[-2.504324E-2,-1.14440076E-1,5.224287E-1,1.5364863E0,-1.14267424E-1,5.752411E-1,1.7302183E0,3.9682874E-1,9.544012E-2,1.5475612E0,3.6953118E-1,-1.21457815E-1,4.767249E-1,3.5437733E-1,1.053934E0,-5.9969995E-2,2.2318695E-1,4.119292E-2,3.8684234E-1],"categories":[],"categories_nodes":[],"categories_segments":[],"categories_sizes":[],"default_left":[0,0,0,0,0,0,0,0,0,0,0,0,0,0,0,0,0,0,0],"id":10,"left_children":[1,-1,3,5,-1,7,9,-1,11,13,-1,-1,15,-1,17,-1,-1,-1,-1],"loss_changes":[1.038554E2,0E0,1.9221417E2,1.6727585E1,0E0,1.0206388E1,1.6248322E0,0E0,3.0202157E0,3.3143158E0,0E0,0E0,3.6433778E0,0E0,7.0009136E0,0E0,0E0,0E0,0E0],"parents":[2147483647,0,0,2,2,3,3,5,5,6,6,8,8,9,9,12,12,14,14],"right_children":[2,-1,4,6,-1,8,10,-1,12,14,-1,-1,16,-1,18,-1,-1,-1,-1],"split_conditions":[-2.9818973E-1,-1.14440076E-1,-4.8309785E-1,8.158102E-1,-1.14267424E-1,-1.0721359E0,-6.3831854E-1,3.9682874E-1,-4.3759957E-1,-3.0718747E-1,3.6953118E-1,-1.21457815E-1,-5.315609E-1,3.5437733E-1,1.2019026E0,-5.9969995E-2,2.2318695E-1,4.119292E-2,3.8684234E-1],"split_indices":[2,0,5,2,0,5,0,0,0,4,0,0,3,0,2,0,0,0,0],"split_type":[0,0,0,0,0,0,0,0,0,0,0,0,0,0,0,0,0,0,0],"sum_hessian":[3.4615436E2,1.7299539E2,1.7315895E2,8.9890015E1,8.326894E1,1.5082407E1,7.480761E1,3.822631E0,1.1259776E1,2.9711132E1,4.5096474E1,3.9522786E0,7.3074975E0,2.0344774E1,9.366358E0,3.299278E0,4.0082197E0,4.7823772E0,4.583981E0],"tree_param":{"num_deleted":"0","num_feature":"6","num_nodes":"19","size_leaf_vector":"1"}},{"base_weights":[8.197971E-3,4.909965E-1,-1.14524044E-1,-2.5017747E-1,1.6944443E0,1.4479126E-1,-1.02666706E-1,1.9689896E0,-1.14949845E-1,3.9781353E-1,-9.8141685E-2,1.2841634E0,2.060463E0,-3.3220835E-2,1.5934174E0,4.4645843E-1,6.70704E-3,4.0019614E-1,5.357978E-1,3.293193E-1,-3.266641E-1,4.3158028E-1,2.218588E-1,-9.1253966E-2,7.809696E-2],"categories":[],"categories_nodes":[],"categories_segments":[],"categories_sizes":[],"default_left":[0,0,0,0,0,0,0,0,0,0,0,0,0,0,0,0,0,0,0,0,0,0,0,0,0],"id":11,"left_children":[1,3,-1,5,7,9,-1,11,-1,13,-1,15,17,19,21,-1,-1,-1,-1,-1,23,-1,-1,-1,-1],"loss_changes":[9.379294E1,1.6279759E2,0E0,1.1775652E1,4.3361786E1,7.2812724E0,0E0,3.8700256E0,0E0,1.6689308E1,0E0,8.697824E0,1.8995514E0,1.1736489E1,2.3330116E0,0E0,0E0,0E0,0E0,0E0,1.89481E0,0E0,0E0,0E0,0E0],"parents":[2147483647,0,0,1,1,3,3,4,4,5,5,7,7,9,9,11,11,12,12,13,13,14,14,20,20],"right_children":[2,4,-1,6,8,10,-1,12,-1,14,-1,16,18,20,22,-1,-1,-1,-1,-1,24,-1,-1,-1,-1],"split_conditions":[-9.420415E-2,-3.032291E-1,-1.14524044E-1,-1.0004175E0,-4.6952122E-1,8.158102E-1,-1.02666706E-1,1.4745064E-1,-1.14949845E-1,4.315612E-1,-9.8141685E-2,-9.040141E-1,-7.471053E-1,-1.5764618E0,-5.12683E-1,4.4645843E-1,6.70704E-3,4.0019614E-1,5.357978E-1,3.293193E-1,-6.853822E-1,4.3158028E-1,2.218588E-1,-9.1253966E-2,7.809696E-2],"split_indices":[1,5,0,1,2,2,0,5,0,2,0,2,2,1,4,0,0,0,0,0,2,0,0,0,0],"split_type":[0,0,0,0,0,0,0,0,0,0,0,0,0,0,0,0,0,0,0,0,0,0,0,0,0],"sum_hessian":[3.3398032E2,1.8250731E2,1.5147299E2,1.1294373E2,6.9563576E1,4.5233074E1,6.771066E1,6.2060207E1,7.5033693E0,3.2368767E1,1.2864307E1,7.319523E0,5.4740685E1,2.3788359E1,8.580407E0,4.154431E0,3.1650918E0,5.0196552E1,4.5441313E0,3.5304384E0,2.025792E1,3.9367383E0,4.6436687E0,1.715162E1,3.1062987E0],"tree_param":{"num_deleted":"0","num_feature":"6","num_nodes":"25","size_leaf_vector":"1"}},{"base_weights":[-1.3516424E-3,-1.1115223E-1,5.438474E-1,8.847292E-1,-1.1358064E-1,-2.9460555E-1,1.7395021E0,-4.1224897E-1,2.8046456E-1,1.0357506E0,1.8209437E0,4.0007282E-2,-4.9902707E-1,2.8447104E-1,1.073003E-1,3.7544185E-1,1.4065907E0,-1.1584056E-1,9.611693E-2,-1.08475894E-1,-1.3689359E-2,1.8682319E-1,4.2427677E-1],"categories":[],"categories_nodes":[],"categories_segments":[],"categories_sizes":[],"default_left":[0,0,0,0,0,0,0,0,0,0,0,0,0,0,0,0,0,0,0,0,0,0,0],"id":12,"left_children":[1,-1,3,5,-1,7,9,11,-1,13,15,17,19,-1,-1,-1,21,-1,-1,-1,-1,-1,-1],"loss_changes":[1.0025179E2,0E0,6.337421E1,1.2894702E2,0E0,1.0737858E1,4.235504E0,1.9752693E0,0E0,1.4815102E0,1.6101074E0,2.211396E0,7.989416E-1,0E0,0E0,0E0,2.793518E0,0E0,0E0,0E0,0E0,0E0,0E0],"parents":[2147483647,0,0,2,2,3,3,5,5,6,6,7,7,9,9,10,10,11,11,12,12,16,16],"right_children":[2,-1,4,6,-1,8,10,12,-1,14,16,18,20,-1,-1,-1,22,-1,-1,-1,-1,-1,-1],"split_conditions":[-2.9818973E-1,-1.1115223E-1,1.8014308E0,-6.242147E-1,-1.1358064E-1,-1.7762092E-1,-2.8384835E-1,7.043739E-1,2.8046456E-1,1.0573971E0,1.2113467E0,-1.0578018E0,-4.198518E-1,2.8447104E-1,1.073003E-1,3.7544185E-1,1.6673005E0,-1.1584056E-1,9.611693E-2,-1.08475894E-1,-1.3689359E-2,1.8682319E-1,4.2427677E-1],"split_indices":[2,0,4,5,0,1,5,2,0,2,3,5,1,0,0,0,3,0,0,0,0,0,0],"split_type":[0,0,0,0,0,0,0,0,0,0,0,0,0,0,0,0,0,0,0,0,0,0,0],"sum_hessian":[3.3116937E2,1.6407745E2,1.6709192E2,1.27908005E2,3.9183907E1,5.3746956E1,7.416105E1,5.0269367E1,3.4775887E0,7.698845E0,6.6462204E1,8.083076E0,4.2186295E1,4.319419E0,3.379426E0,5.8155247E1,8.306959E0,3.3558445E0,4.7272315E0,3.8249462E1,3.9368303E0,5.0204744E0,3.2864847E0],"tree_param":{"num_deleted":"0","num_feature":"6","num_nodes":"23","size_leaf_vector":"1"}},{"base_weights":[-8.39629E-4,-4.770234E-1,4.413769E-1,-1.2650768E-1,-4.9196535E-1,7.573109E-1,-1.1381292E-1,-1.1426499E-1,7.562546E-2,-1.1425324E-1,-4.0124524E-1,-1.0820203E-1,1.1947049E0,1.9400197E-1,-9.9378E-2,1.0663979E0,1.5879263E0,-1.1425964E-1,1.4592029E-1,1.2463453E0,6.7300445E-1,1.3233858E-1,3.434354E-1,1.3786597E0,6.8210644E-1,2.2264582E-1,1.3666406E0,5.298751E-1,1.5719907E0,2.9402524E-1,1.9570816E-2,-1.137813E-1,7.6327586E-1,7.0775546E-2,3.727148E-1,2.3416989E-1,-5.8204386E-2,3.423117E-1,1.6451983E-1,6.06736E-2,2.0925656E-1],"categories":[],"categories_nodes":[],"categories_segments":[],"categories_sizes":[],"default_left":[0,0,0,0,0,0,0,0,0,0,0,0,0,0,0,0,0,0,0,0,0,0,0,0,0,0,0,0,0,0,0,0,0,0,0,0,0,0,0,0,0],"id":13,"left_children":[1,3,5,7,9,11,-1,-1,-1,-1,13,-1,15,17,-1,19,21,-1,-1,23,25,-1,-1,27,29,31,33,35,37,-1,-1,-1,39,-1,-1,-1,-1,-1,-1,-1,-1],"loss_changes":[7.1700554E1,8.5547256E-1,5.640585E1,1.5136062E0,1.1383934E0,7.644214E1,0E0,0E0,0E0,0E0,4.2356853E0,0E0,5.063629E0,4.2267203E0,0E0,5.362236E0,3.0065002E0,0E0,0E0,3.8760147E0,7.435217E0,0E0,0E0,6.9081726E0,4.560148E0,6.1923943E0,4.731186E0,4.1368175E0,3.6384583E0,0E0,0E0,0E0,1.1167259E0,0E0,0E0,0E0,0E0,0E0,0E0,0E0,0E0],"parents":[2147483647,0,0,1,1,2,2,3,3,4,4,5,5,10,10,12,12,13,13,15,15,16,16,19,19,20,20,23,23,24,24,25,25,26,26,27,27,28,28,32,32],"right_children":[2,4,6,8,10,12,-1,-1,-1,-1,14,-1,16,18,-1,20,22,-1,-1,24,26,-1,-1,28,30,32,34,36,38,-1,-1,-1,40,-1,-1,-1,-1,-1,-1,-1,-1],"split_conditions":[-3.338822E-2,-8.03222E-1,2.5936243E-1,-8.359217E-1,-4.7143808E-1,-5.597307E-1,-1.1381292E-1,-1.1426499E-1,7.562546E-2,-1.1425324E-1,-5.117717E-1,-1.0820203E-1,1.2979189E0,-5.794591E-1,-9.9378E-2,-3.3903092E-1,-4.8203173E-1,-1.1425964E-1,1.4592029E-1,1.0654718E0,1.0409683E0,1.3233858E-1,3.434354E-1,3.573391E-1,4.153115E-1,7.733E-1,-6.068662E-1,-5.646382E-1,9.002173E-1,2.9402524E-1,1.9570816E-2,-1.137813E-1,-4.7155086E-2,7.0775546E-2,3.727148E-1,2.3416989E-1,-5.8204386E-2,3.423117E-1,1.6451983E-1,6.06736E-2,2.0925656E-1],"split_indices":[1,3,3,3,4,5,0,0,0,0,3,0,1,0,0,3,3,0,0,1,5,0,0,5,5,1,0,0,5,0,0,0,4,0,0,0,0,0,0,0,0],"split_type":[0,0,0,0,0,0,0,0,0,0,0,0,0,0,0,0,0,0,0,0,0,0,0,0,0,0,0,0,0,0,0,0,0,0,0,0,0,0,0,0,0],"sum_hessian":[3.4049573E2,1.639569E2,1.7653882E2,6.7177963E0,1.572391E2,1.3451955E2,4.2019268E1,3.574662E0,3.1431346E0,8.344637E1,7.3792725E1,3.3879513E1,1.0064004E2,1.0276913E1,6.3515816E1,7.589063E1,2.4749407E1,4.22945E0,6.0474625E0,5.2062595E1,2.3828037E1,3.0917528E0,2.1657654E1,4.2165436E1,9.8971615E0,1.4452217E1,9.37582E0,7.827486E0,3.4337948E1,4.20253E0,5.6946316E0,5.8573446E0,8.594872E0,3.102417E0,6.273403E0,4.3947215E0,3.4327645E0,2.8849512E1,5.4884353E0,3.2944984E0,5.3003745E0],"tree_param":{"num_deleted":"0","num_feature":"6","num_nodes":"41","size_leaf_vector":"1"}},{"base_weights":[6.036063E-3,4.3175998E-1,-1.11288846E-1,7.603571E-1,-1.11611955E-1,1.1956304E0,-3.9596066E-1,1.2822593E0,9.8137087E-1,-1.1497696E-1,3.0141088E-1,1.31039E0,1.6232365E-1,4.3997636E-1,1.4266745E0,1.0886279E0,2.7852413E-1,-5.5855934E-2,1.0310091E0,1.9314858E-1,3.065799E-1,6.55171E-2,2.5618178E-1,1.0441455E-1,3.0461952E-1],"categories":[],"categories_nodes":[],"categories_segments":[],"categories_sizes":[],"default_left":[0,0,0,0,0,0,0,0,0,0,0,0,0,0,0,0,0,0,0,0,0,0,0,0,0],"id":14,"left_children":[1,3,-1,5,-1,7,9,11,13,-1,-1,15,-1,17,19,21,-1,-1,23,-1,-1,-1,-1,-1,-1],"loss_changes":[7.661561E1,5.923617E1,0E0,6.87803E1,0E0,1.8308258E0,1.2795436E1,9.221573E-1,6.8855076E0,0E0,0E0,1.2337875E0,0E0,5.496624E0,7.6919746E-1,2.7072697E0,0E0,0E0,1.771502E0,0E0,0E0,0E0,0E0,0E0,0E0],"parents":[2147483647,0,0,1,1,3,3,5,5,6,6,7,7,8,8,11,11,13,13,14,14,15,15,18,18],"right_children":[2,4,-1,6,-1,8,10,12,14,-1,-1,16,-1,18,20,22,-1,-1,24,-1,-1,-1,-1,-1,-1],"split_conditions":[-3.9732367E-1,2.0943556E-2,-1.11288846E-1,-5.8878E-1,-1.11611955E-1,2.5822228E-1,6.1334893E-2,-5.0503695E-1,-8.021472E-1,-1.1497696E-1,3.0141088E-1,-7.4305105E-1,1.6232365E-1,-7.8600883E-1,-1.0685126E0,-1.0747672E0,2.7852413E-1,-5.5855934E-2,-8.611275E-1,1.9314858E-1,3.065799E-1,6.55171E-2,2.5618178E-1,1.0441455E-1,3.0461952E-1],"split_indices":[1,2,0,5,0,0,3,3,2,0,0,3,0,1,5,5,0,0,2,0,0,0,0,0,0],"split_type":[0,0,0,0,0,0,0,0,0,0,0,0,0,0,0,0,0,0,0,0,0,0,0,0,0],"sum_hessian":[3.1947598E2,1.8196597E2,1.3751003E2,1.3664638E2,4.5319595E1,9.9279175E1,3.7367203E1,7.0678116E1,2.8601057E1,3.4147663E1,3.2195382E0,6.66715E1,4.0066123E0,1.2913195E1,1.5687863E1,1.838566E1,4.8285843E1,5.818916E0,7.094279E0,3.006941E0,1.2680922E1,3.7454088E0,1.4640251E1,3.5037022E0,3.5905764E0],"tree_param":{"num_deleted":"0","num_feature":"6","num_nodes":"25","size_leaf_vector":"1"}},{"base_weights":[-9.534297E-3,-5.3641176E-1,2.6632234E-1,-1.11405425E-1,2.95978E-2],"categories":[],"categories_nodes":[],"categories_segments":[],"categories_sizes":[],"default_left":[0,0,0,0,0],"id":15,"left_children":[1,3,-1,-1,-1],"loss_changes":[2.2168555E2,3.307167E0,0E0,0E0,0E0],"parents":[2147483647,0,0,1,1],"right_children":[2,4,-1,-1,-1],"split_conditions":[1.5436614E0,9.9345857E-1,2.6632234E-1,-1.11405425E-1,2.95978E-2],"split_indices":[4,4,0,0,0],"split_type":[0,0,0,0,0],"sum_hessian":[3.1326373E2,2.2500511E2,8.8258606E1,2.1817546E2,6.829652E0],"tree_param":{"num_deleted":"0","num_feature":"6","num_nodes":"5","size_leaf_vector":"1"}},{"base_weights":[-4.4805396E-4,4.8064697E-1,-5.223814E-1,-1.7519832E-1,1.2670227E0,-3.8123745E-1,-1.1171093E-1,-1.0637946E-1,1.7743379E-2,2.643935E-1,3.586432E-2,-1.0463344E-1,5.5235364E-2,3.6347288E-1,-4.161095E-1,-7.031032E-2,1.258605E-1,2.0725591E-1,2.9061314E-1,-1.0249716E-1,-1.648378E-2,2.3618227E-1,5.9695464E-2,-1.0218594E-1,2.1406625E-1,6.801174E-2,-1.1495028E-1,-7.881557E-2,2.9867217E-1,1.6053161E-1,-2.2156117E-2],"categories":[],"categories_nodes":[],"categories_segments":[],"categories_sizes":[],"default_left":[0,0,0,0,0,0,0,0,0,0,0,0,0,0,0,0,0,0,0,0,0,0,0,0,0,0,0,0,0,0,0],"id":16,"left_children":[1,3,5,7,9,11,-1,-1,13,-1,-1,-1,15,17,19,-1,-1,21,-1,-1,-1,-1,23,25,-1,27,-1,-1,29,-1,-1],"loss_changes":[8.2134926E1,8.778677E1,8.147774E-1,6.403784E0,4.78463E0,2.0348778E0,0E0,0E0,9.038866E0,0E0,0E0,0E0,1.8823521E0,5.7124057E0,8.627162E-1,0E0,0E0,4.2179403E0,0E0,0E0,0E0,0E0,4.1832347E0,1.7735624E0,0E0,1.723938E0,0E0,0E0,2.2365294E0,0E0,0E0],"parents":[2147483647,0,0,1,1,2,2,3,3,4,4,5,5,8,8,12,12,13,13,14,14,17,17,22,22,23,23,25,25,28,28],"right_children":[2,4,6,8,10,12,-1,-1,14,-1,-1,-1,16,18,20,-1,-1,22,-1,-1,-1,-1,24,26,-1,28,-1,-1,30,-1,-1],"split_conditions":[-7.7594453E-1,-2.1752642E-1,7.504135E-2,-6.2112415E-1,-3.8841864E-1,5.617598E-1,-1.1171093E-1,-1.0637946E-1,-4.9862418E-1,2.643935E-1,3.586432E-2,-1.0463344E-1,-2.3938866E-1,1.6049378E0,-3.354742E-1,-7.031032E-2,1.258605E-1,-7.798048E-1,2.9061314E-1,-1.0249716E-1,-1.648378E-2,2.3618227E-1,-8.7982696E-1,-9.62382E-1,2.1406625E-1,-1.1318657E0,-1.1495028E-1,-7.881557E-2,-1.0470693E0,1.6053161E-1,-2.2156117E-2],"split_indices":[5,1,5,0,4,0,0,0,3,0,0,0,3,0,4,0,0,3,0,0,0,0,5,5,0,5,0,0,5,0,0],"split_type":[0,0,0,0,0,0,0,0,0,0,0,0,0,0,0,0,0,0,0,0,0,0,0,0,0,0,0,0,0,0,0],"sum_hessian":[3.271001E2,1.702038E2,1.568963E2,9.280057E1,7.740322E1,3.262698E1,1.24269325E2,3.2538017E1,6.0262554E1,7.3547455E1,3.8557642E0,2.4596382E1,8.030596E0,3.3544003E1,2.6718554E1,4.695461E0,3.3351352E0,2.9349411E1,4.1945906E0,2.0679964E1,6.0385904E0,3.85178E0,2.5497631E1,2.1977774E1,3.5198574E0,1.615801E1,5.819763E0,5.3678675E0,1.0790144E1,4.8371077E0,5.953036E0],"tree_param":{"num_deleted":"0","num_feature":"6","num_nodes":"31","size_leaf_vector":"1"}},{"base_weights":[6.427167E-4,-1.10991724E-1,4.7786543E-1,1.1646899E0,-1.11899525E-1,1.2175031E0,9.933201E-4,7.3019785E-1,2.5996637E-1,4.023038E-1,3.514721E-1,8.630944E-2,2.4213529E-1,6.4248085E-2,-5.9715148E-2],"categories":[],"categories_nodes":[],"categories_segments":[],"categories_sizes":[],"default_left":[0,0,0,0,0,0,0,0,0,0,0,0,0,0,0],"id":17,"left_children":[1,-1,3,5,-1,7,-1,9,-1,11,-1,13,-1,-1,-1],"loss_changes":[8.78745E1,0E0,1.27033554E2,6.560669E0,0E0,4.2013245E0,0E0,5.0978966E0,0E0,2.932447E0,0E0,7.497818E-1,0E0,0E0,0E0],"parents":[2147483647,0,0,2,2,3,3,5,5,7,7,9,9,11,11],"right_children":[2,-1,4,6,-1,8,-1,10,-1,12,-1,14,-1,-1,-1],"split_conditions":[-2.9818973E-1,-1.10991724E-1,-4.8309785E-1,-1.0213306E-1,-1.11899525E-1,8.158102E-1,9.933201E-4,-1.465047E-1,2.5996637E-1,-8.7982696E-1,3.514721E-1,-9.453814E-1,2.4213529E-1,6.4248085E-2,-5.9715148E-2],"split_indices":[2,0,5,4,0,2,0,3,0,5,0,5,0,0,0],"split_type":[0,0,0,0,0,0,0,0,0,0,0,0,0,0,0],"sum_hessian":[3.309229E2,1.5277615E2,1.7814676E2,1.0722031E2,7.092646E1,1.0254588E2,4.674422E0,1.5130834E1,8.7415054E1,1.1480551E1,3.6502829E0,8.263943E0,3.2166073E0,5.138325E0,3.1256177E0],"tree_param":{"num_deleted":"0","num_feature":"6","num_nodes":"15","size_leaf_vector":"1"}},{"base_weights":[-2.1334355E-4,3.8878992E-1,-1.12211175E-1,-2.8139818E-1,1.1660504E0,4.956421E-2,-1.0230227E-1,1.326172E0,-1.1321139E-1,-3.859293E-1,3.0843914E-1,2.852793E-1,8.3767027E-1,-1.1469619E-1,7.079821E-2,3.1360278E-1,7.631818E-2,3.1938666E-1,2.4580584E-1,1.6385825E-1,-1.7212082E-1,-1.1869581E-1,1.8926188E-1,-1.1454441E-1,2.0520078E-1,2.1227606E-1,-7.547497E-2],"categories":[],"categories_nodes":[],"categories_segments":[],"categories_sizes":[],"default_left":[0,0,0,0,0,0,0,0,0,0,0,0,0,0,0,0,0,0,0,0,0,0,0,0,0,0,0],"id":18,"left_children":[1,3,-1,5,7,9,-1,11,-1,13,15,-1,17,-1,-1,-1,19,-1,21,-1,23,-1,-1,-1,25,-1,-1],"loss_changes":[7.016312E1,9.882834E1,0E0,7.7867117E0,2.4379189E1,4.718039E0,0E0,4.009735E0,0E0,2.177035E0,7.682619E0,0E0,6.2753916E0,0E0,0E0,0E0,4.1044683E0,0E0,4.6310167E0,0E0,2.5202181E0,0E0,0E0,0E0,4.2870026E0,0E0,0E0],"parents":[2147483647,0,0,1,1,3,3,4,4,5,5,7,7,9,9,10,10,12,12,16,16,18,18,20,20,24,24],"right_children":[2,4,-1,6,8,10,-1,12,-1,14,16,-1,18,-1,-1,-1,20,-1,22,-1,24,-1,-1,-1,26,-1,-1],"split_conditions":[-9.420415E-2,-5.0016475E-1,-1.12211175E-1,-1.0104887E0,2.825871E-2,-1.0287204E0,-1.0230227E-1,4.5872214E-1,-1.1321139E-1,-1.1679419E0,-1.4958739E0,2.852793E-1,-8.3057576E-1,-1.1469619E-1,7.079821E-2,3.1360278E-1,-7.38676E-1,3.1938666E-1,3.0005953E-1,1.6385825E-1,4.5872214E-1,-1.1869581E-1,1.8926188E-1,-1.1454441E-1,-5.315609E-1,2.1227606E-1,-7.547497E-2],"split_indices":[1,5,0,1,3,5,0,0,0,1,1,0,1,0,0,0,0,0,5,0,0,0,0,0,3,0,0],"split_type":[0,0,0,0,0,0,0,0,0,0,0,0,0,0,0,0,0,0,0,0,0,0,0,0,0,0,0],"sum_hessian":[3.2111047E2,1.8971326E2,1.3139723E2,1.0186988E2,8.7843376E1,4.1852947E1,6.001693E1,8.041614E1,7.4272366E0,1.559611E1,2.625684E1,6.647436E1,1.3941778E1,1.243816E1,3.1579502E0,4.075787E0,2.2181051E1,6.092466E0,7.849313E0,5.5566926E0,1.662436E1,3.5694275E0,4.2798853E0,8.061193E0,8.563166E0,3.4691386E0,5.0940275E0],"tree_param":{"num_deleted":"0","num_feature":"6","num_nodes":"27","size_leaf_vector":"1"}},{"base_weights":[8.559052E-3,-1.0894922E-1,4.8190886E-1,7.470352E-1,-1.1148534E-1,-2.567889E-1,1.2829272E0,-3.8048258E-1,2.1161029E-1,2.639672E-1,4.451532E-2,5.880138E-2,-4.767932E-1,8.6186945E-2,-6.2953636E-2,7.2128735E-3,-1.057198E-1],"categories":[],"categories_nodes":[],"categories_segments":[],"categories_sizes":[],"default_left":[0,0,0,0,0,0,0,0,0,0,0,0,0,0,0,0,0],"id":19,"left_children":[1,-1,3,5,-1,7,9,11,-1,-1,-1,13,15,-1,-1,-1,-1],"loss_changes":[8.3978676E1,0E0,4.7620983E1,7.402942E1,0E0,7.794613E0,3.6911926E0,1.8544297E0,0E0,0E0,0E0,1.0969906E0,9.7165203E-1,0E0,0E0,0E0,0E0],"parents":[2147483647,0,0,2,2,3,3,5,5,6,6,7,7,11,11,12,12],"right_children":[2,-1,4,6,-1,8,10,12,-1,-1,-1,14,16,-1,-1,-1,-1],"split_conditions":[-2.9818973E-1,-1.0894922E-1,1.8014308E0,-6.242147E-1,-1.1148534E-1,-1.9865799E-1,1.2917727E0,7.043739E-1,2.1161029E-1,2.639672E-1,4.451532E-2,-4.3759957E-1,-1.0963157E0,8.6186945E-2,-6.2953636E-2,7.2128735E-3,-1.057198E-1],"split_indices":[2,0,4,5,0,1,2,2,0,0,0,0,5,0,0,0,0],"split_type":[0,0,0,0,0,0,0,0,0,0,0,0,0,0,0,0,0],"sum_hessian":[3.201692E2,1.4749422E2,1.7267497E2,1.3760612E2,3.5068848E1,4.7889874E1,8.9716255E1,4.378024E1,4.109632E0,8.653579E1,3.1804688E0,7.862809E0,3.591743E1,3.945037E0,3.9177723E0,3.3317032E0,3.2585728E1],"tree_param":{"num_deleted":"0","num_feature":"6","num_nodes":"17","size_leaf_vector":"1"}},{"base_weights":[8.324518E-3,3.457357E-1,-1.124697E-1,-4.690397E-1,8.767383E-1,-1.0213294E-1,1.5803598E-2,-2.7095035E-1,2.805074E-1,2.158144E-1,-4.036686E-1,-1.057352E-1,6.47761E-2,2.0567326E-1,-1.1438775E-1],"categories":[],"categories_nodes":[],"categories_segments":[],"categories_sizes":[],"default_left":[0,0,0,0,0,0,0,0,0,0,0,0,0,0,0],"id":20,"left_children":[1,3,-1,5,7,-1,-1,9,-1,-1,11,-1,13,-1,-1],"loss_changes":[6.429794E1,9.071324E1,0E0,1.9247475E0,7.691725E1,0E0,0E0,7.170404E0,0E0,0E0,2.148685E0,0E0,4.741393E0,0E0,0E0],"parents":[2147483647,0,0,1,1,3,3,4,4,7,7,10,10,12,12],"right_children":[2,4,-1,6,8,-1,-1,10,-1,-1,12,-1,14,-1,-1],"split_conditions":[2.0943556E-2,-5.7473856E-1,-1.124697E-1,-3.8841864E-1,-9.420415E-2,-1.0213294E-1,1.5803598E-2,-3.032291E-1,2.805074E-1,2.158144E-1,-7.794769E-1,-1.057352E-1,-7.471053E-1,2.0567326E-1,-1.1438775E-1],"split_indices":[2,5,0,4,1,0,0,5,0,0,2,0,2,0,0],"split_type":[0,0,0,0,0,0,0,0,0,0,0,0,0,0,0],"sum_hessian":[3.334365E2,2.096649E2,1.237716E2,8.272344E1,1.2694147E2,7.67939E1,5.929544E0,3.9990913E1,8.695055E1,3.572061E0,3.6418854E1,2.8717657E1,7.701197E0,3.0668616E0,4.6343355E0],"tree_param":{"num_deleted":"0","num_feature":"6","num_nodes":"15","size_leaf_vector":"1"}},{"base_weights":[-4.9437163E-3,3.6102578E-1,-1.0951859E-1,6.293845E-1,-5.120821E-1,7.687447E-1,1.7409264E-1,-1.1069345E-1,-5.748333E-3,-7.8385666E-2,8.2604986E-1,-2.9495892E-1,6.280589E-1,8.643886E-1,1.8816505E-2,2.1883287E-2,-1.1218316E-1,-7.714504E-2,1.0322745E0,9.3112147E-1,4.6569058E-1,7.5782144E-1,2.942771E-1,9.680402E-1,7.189397E-2,-1.1892254E-1,8.758563E-1,2.1936738E-1,8.149294E-2,1.888717E-1,2.9686847E-1,2.7612704E-1,1.13988906E-1],"categories":[],"categories_nodes":[],"categories_segments":[],"categories_sizes":[],"default_left":[0,0,0,0,0,0,0,0,0,0,0,0,0,0,0,0,0,0,0,0,0,0,0,0,0,0,0,0,0,0,0,0,0],"id":21,"left_children":[1,3,-1,5,7,9,11,-1,-1,-1,13,15,17,19,-1,-1,-1,-1,21,23,25,27,-1,29,-1,-1,31,-1,-1,-1,-1,-1,-1],"loss_changes":[5.8877026E1,4.1447067E1,0E0,8.580292E0,8.454218E-1,6.895748E0,6.7558002E0,0E0,0E0,0E0,2.7648392E0,1.6855386E0,6.614761E0,2.4883575E0,0E0,0E0,0E0,0E0,1.3852749E0,1.6869965E0,5.86034E0,8.402643E-1,0E0,8.58078E-1,0E0,0E0,1.4913535E0,0E0,0E0,0E0,0E0,0E0,0E0],"parents":[2147483647,0,0,1,1,3,3,4,4,5,5,6,6,10,10,11,11,12,12,13,13,18,18,19,19,20,20,21,21,23,23,26,26],"right_children":[2,4,-1,6,8,10,12,-1,-1,-1,14,16,18,20,-1,-1,-1,-1,22,24,26,28,-1,30,-1,-1,32,-1,-1,-1,-1,-1,-1],"split_conditions":[-3.9732367E-1,-3.83112E-1,-1.0951859E-1,-4.8400724E-1,1.7609088E0,-1.1151305E0,8.995724E-1,-1.1069345E-1,-5.748333E-3,-7.8385666E-2,-4.2110592E-1,-5.7946616E-1,-8.062188E-1,7.8620446E-1,1.8816505E-2,2.1883287E-2,-1.1218316E-1,-7.714504E-2,1.7201416E0,-5.0503695E-1,-8.950624E-1,-4.5556372E-1,2.942771E-1,6.471938E-1,7.189397E-2,-1.1892254E-1,1.4490268E0,2.1936738E-1,8.149294E-2,1.888717E-1,2.9686847E-1,2.7612704E-1,1.13988906E-1],"split_indices":[1,2,0,4,0,2,0,0,0,0,3,3,2,0,0,0,0,0,0,3,2,3,0,0,0,0,0,0,0,0,0,0,0],"split_type":[0,0,0,0,0,0,0,0,0,0,0,0,0,0,0,0,0,0,0,0,0,0,0,0,0,0,0,0,0,0,0,0,0],"sum_hessian":[2.9601535E2,1.7689006E2,1.1912528E2,1.3530782E2,4.1582256E1,1.0358881E2,3.1718992E1,3.823162E1,3.3506336E0,4.8671284E0,9.872169E1,1.5594644E1,1.6124348E1,9.380054E1,4.9211516E0,6.189791E0,9.404852E0,4.590846E0,1.1533503E1,8.0340256E1,1.3460284E1,7.118587E0,4.4149156E0,7.545345E1,4.886798E0,3.7487028E0,9.711581E0,3.598446E0,3.5201411E0,7.235776E1,3.0957003E0,3.6423385E0,6.069243E0],"tree_param":{"num_deleted":"0","num_feature":"6","num_nodes":"33","size_leaf_vector":"1"}},{"base_weights":[-6.669453E-3,-5.3019035E-1,2.1214135E-1,-1.0970237E-1,2.4924122E-2],"categories":[],"categories_nodes":[],"categories_segments":[],"categories_sizes":[],"default_left":[0,0,0,0,0],"id":22,"left_children":[1,3,-1,-1,-1],"loss_changes":[1.6568237E2,2.4948196E0,0E0,0E0,0E0],"parents":[2147483647,0,0,1,1],"right_children":[2,4,-1,-1,-1],"split_conditions":[1.5436614E0,1.1052215E0,2.1214135E-1,-1.0970237E-1,2.4924122E-2],"split_indices":[4,4,0,0,0],"split_type":[0,0,0,0,0],"sum_hessian":[2.960614E2,1.9873679E2,9.732462E1,1.9309966E2,5.6371336E0],"tree_param":{"num_deleted":"0","num_feature":"6","num_nodes":"5","size_leaf_vector":"1"}},{"base_weights":[-9.164599E-3,4.1000876E-1,-1.0713499E-1,-1.9365041E-1,9.861486E-1,7.494696E-2,-1.1178617E-1,1.0923755E0,-1.1466102E-1,-3.3134496E-1,7.2130114E-1,2.1313405E-1,3.1694704E-1,-8.7758034E-2,3.488617E-2,1.3377296E0,1.7101778E-1,2.0011038E-1,3.6539802E-1,-5.536955E-2,1.8321154E-1],"categories":[],"categories_nodes":[],"categories_segments":[],"categories_sizes":[],"default_left":[0,0,0,0,0,0,0,0,0,0,0,0,0,0,0,0,0,0,0,0,0],"id":23,"left_children":[1,3,-1,5,7,9,-1,11,-1,13,15,-1,-1,-1,-1,17,19,-1,-1,-1,-1],"loss_changes":[6.764478E1,5.930016E1,0E0,8.189664E0,1.44624405E1,1.2611092E1,0E0,1.0003357E0,0E0,1.6139829E0,6.280137E0,0E0,0E0,0E0,0E0,1.428338E0,3.2820609E0,0E0,0E0,0E0,0E0],"parents":[2147483647,0,0,1,1,3,3,4,4,5,5,7,7,9,9,10,10,15,15,16,16],"right_children":[2,4,-1,6,8,10,-1,12,-1,14,16,-1,-1,-1,-1,18,20,-1,-1,-1,-1],"split_conditions":[-7.480501E-1,-4.198518E-1,-1.0713499E-1,-5.6742287E-1,-2.9818973E-1,4.1155827E-1,-1.1178617E-1,-4.4939682E-1,-1.1466102E-1,-6.746159E-1,-8.611275E-1,2.1313405E-1,3.1694704E-1,-8.7758034E-2,3.488617E-2,-9.6531904E-1,1.6049378E0,2.0011038E-1,3.6539802E-1,-5.536955E-2,1.8321154E-1],"split_indices":[5,1,0,2,2,0,0,4,0,1,2,0,0,0,0,5,0,0,0,0,0],"split_type":[0,0,0,0,0,0,0,0,0,0,0,0,0,0,0,0,0,0,0,0,0],"sum_hessian":[3.0602985E2,1.7049265E2,1.3553719E2,8.32535E1,8.723914E1,4.801455E1,3.523895E1,8.1681595E1,5.557542E0,2.9477327E1,1.8537222E1,7.774815E1,3.9334464E0,2.4297012E1,5.180316E0,8.7386265E0,9.798595E0,5.2010603E0,3.5375664E0,6.117562E0,3.681034E0],"tree_param":{"num_deleted":"0","num_feature":"6","num_nodes":"21","size_leaf_vector":"1"}},{"base_weights":[2.0686409E-2,-1.08936705E-1,4.3768153E-1,9.4318396E-1,-1.09972246E-1,3.3144665E-1,1.0317067E0,2.5780362E-1,-1.2919718E-1,2.1393158E-1,7.0339374E-2,-1.1933943E-1,4.6932478E-2],"categories":[],"categories_nodes":[],"categories_segments":[],"categories_sizes":[],"default_left":[0,0,0,0,0,0,0,0,0,0,0,0,0],"id":24,"left_children":[1,-1,3,5,-1,7,9,-1,11,-1,-1,-1,-1],"loss_changes":[7.349393E1,0E0,8.956836E1,6.415901E0,0E0,6.6366467E0,2.777832E0,0E0,1.7303848E0,0E0,0E0,0E0,0E0],"parents":[2147483647,0,0,2,2,3,3,5,5,6,6,8,8],"right_children":[2,-1,4,6,-1,8,10,-1,12,-1,-1,-1,-1],"split_conditions":[-2.9818973E-1,-1.08936705E-1,-4.8309785E-1,7.831507E-1,-1.09972246E-1,-1.0721359E0,-1.7762092E-1,2.5780362E-1,-1.137919E0,2.1393158E-1,7.0339374E-2,-1.1933943E-1,4.6932478E-2],"split_indices":[2,0,5,2,0,5,1,0,1,0,0,0,0],"split_type":[0,0,0,0,0,0,0,0,0,0,0,0,0],"sum_hessian":[3.1128677E2,1.3201958E2,1.792672E2,1.1860962E2,6.0657574E1,1.5001417E1,1.0360821E2,4.869523E0,1.0131894E1,9.790009E1,5.708112E0,4.4382997E0,5.6935945E0],"tree_param":{"num_deleted":"0","num_feature":"6","num_nodes":"13","size_leaf_vector":"1"}},{"base_weights":[1.1632751E-3,3.504926E-1,-1.10278755E-1,-2.7620944E-1,9.732942E-1,3.4970574E-2,-1.0299964E-1,1.075336E0,-1.1247086E-1,-3.440389E-1,3.3006576E-1,2.229651E-1,5.470958E-1,5.2877977E-2,-1.1232331E-1,2.01137E-1,-9.178317E-2,2.513903E-1,-4.7941227E-2],"categories":[],"categories_nodes":[],"categories_segments":[],"categories_sizes":[],"default_left":[0,0,0,0,0,0,0,0,0,0,0,0,0,0,0,0,0,0,0],"id":25,"left_children":[1,3,-1,5,7,9,-1,11,-1,13,15,-1,17,-1,-1,-1,-1,-1,-1],"loss_changes":[5.861869E1,7.256099E1,0E0,6.9096584E0,1.4621902E1,4.506508E0,0E0,1.8928757E0,0E0,2.3461921E0,1.212084E1,0E0,3.5525846E0,0E0,0E0,0E0,0E0,0E0,0E0],"parents":[2147483647,0,0,1,1,3,3,4,4,5,5,7,7,9,9,10,10,12,12],"right_children":[2,4,-1,6,8,10,-1,12,-1,14,16,-1,18,-1,-1,-1,-1,-1,-1],"split_conditions":[-1.3752085E-1,-5.0016475E-1,-1.10278755E-1,-1.0221515E0,3.426159E-1,3.6590645E-1,-1.0299964E-1,-1.8286909E-1,-1.1247086E-1,-1.0474136E0,8.158102E-1,2.229651E-1,-7.414238E-1,5.2877977E-2,-1.1232331E-1,2.01137E-1,-9.178317E-2,2.513903E-1,-4.7941227E-2],"split_indices":[1,5,0,1,2,2,0,3,0,2,2,0,0,0,0,0,0,0,0],"split_type":[0,0,0,0,0,0,0,0,0,0,0,0,0,0,0,0,0,0,0],"sum_hessian":[3.032346E2,1.8589613E2,1.17338455E2,9.265375E1,9.324238E1,4.0293396E1,5.236035E1,8.743881E1,5.8035717E0,1.763103E1,2.2662367E1,8.1107475E1,6.3313303E0,4.6489077E0,1.29821205E1,1.22041025E1,1.0458265E1,3.3284054E0,3.0029252E0],"tree_param":{"num_deleted":"0","num_feature":"6","num_nodes":"19","size_leaf_vector":"1"}},{"base_weights":[3.6625421E-4,-1.0682194E-1,4.0152857E-1,5.950342E-1,-1.04176134E-1,-2.2849035E-1,9.7117037E-1,-3.588197E-1,1.5714072E-1,1.0393925E0,4.4555196E-1,-9.814435E-2,2.6732877E-1,2.1441412E-1,3.439373E-2,2.397383E-1,-1.2189745E-1,2.0722212E-1,-6.642203E-2],"categories":[],"categories_nodes":[],"categories_segments":[],"categories_sizes":[],"default_left":[0,0,0,0,0,0,0,0,0,0,0,0,0,0,0,0,0,0,0],"id":26,"left_children":[1,-1,3,5,-1,7,9,11,-1,13,15,-1,17,-1,-1,-1,-1,-1,-1],"loss_changes":[6.422224E1,0E0,3.0541834E1,4.378588E1,0E0,5.8617015E0,3.471634E0,3.263154E0,0E0,2.5473022E0,8.896677E0,0E0,3.173562E0,0E0,0E0,0E0,0E0,0E0,0E0],"parents":[2147483647,0,0,2,2,3,3,5,5,6,6,7,7,9,9,10,10,12,12],"right_children":[2,-1,4,6,-1,8,10,12,-1,14,16,-1,18,-1,-1,-1,-1,-1,-1],"split_conditions":[-2.9818973E-1,-1.0682194E-1,1.9793495E0,-6.242147E-1,-1.04176134E-1,2.825871E-2,1.4533082E0,-4.198518E-1,1.5714072E-1,1.2917727E0,8.6654496E-1,-9.814435E-2,-6.466507E-1,2.1441412E-1,3.439373E-2,2.397383E-1,-1.2189745E-1,2.0722212E-1,-6.642203E-2],"split_indices":[2,0,3,5,0,3,3,1,0,2,2,0,0,0,0,0,0,0,0],"split_type":[0,0,0,0,0,0,0,0,0,0,0,0,0,0,0,0,0,0,0],"sum_hessian":[2.9908038E2,1.2811723E2,1.7096315E2,1.4134277E2,2.9620386E1,4.4311623E1,9.703114E1,3.927557E1,5.036053E0,8.587509E1,1.1156054E1,3.241682E1,6.8587465E0,8.2602325E1,3.2727702E0,6.5080967E0,4.6479564E0,3.0067046E0,3.852042E0],"tree_param":{"num_deleted":"0","num_feature":"6","num_nodes":"19","size_leaf_vector":"1"}},{"base_weights":[-1.8286167E-2,-4.462889E-1,3.089552E-1,-1.4607158E-2,-4.641472E-1,5.101824E-1,-1.0969517E-1,-1.0430192E-1,-3.21073E-1,-1.0235491E-1,7.3887247E-1,1.1702308E-1,-8.7403856E-2,6.9703895E-1,2.1975718E-1,1.9417118E-1,6.591411E-1,6.068549E-1,8.6910504E-1,6.6762024E-1,-7.276446E-2,9.565856E-2,2.185942E-1,7.554161E-1,2.0143789E-1,8.7817466E-1,5.4282E-1,1.9021027E-1,-8.063845E-2,6.5354295E-2,9.5841944E-1,9.006629E-1,-1.1377643E-1,1.3222192E-1,2.1379377E-1,2.1144395E-1,9.8724276E-2,-1.1133154E-1,8.831218E-2],"categories":[],"categories_nodes":[],"categories_segments":[],"categories_sizes":[],"default_left":[0,0,0,0,0,0,0,0,0,0,0,0,0,0,0,0,0,0,0,0,0,0,0,0,0,0,0,0,0,0,0,0,0,0,0,0,0,0,0],"id":27,"left_children":[1,3,5,-1,7,9,-1,-1,11,-1,13,-1,-1,15,-1,-1,17,19,21,23,-1,-1,-1,25,27,29,31,-1,-1,-1,33,35,37,-1,-1,-1,-1,-1,-1],"loss_changes":[4.2784096E1,8.7921333E-1,2.989537E1,0E0,1.0463772E0,3.279927E1,0E0,0E0,3.8624306E0,0E0,1.7240982E0,0E0,0E0,1.0632362E0,0E0,0E0,9.8381424E-1,4.270462E0,1.5741415E0,2.7813911E0,0E0,0E0,0E0,1.4874458E0,4.9116325E0,1.5978603E0,4.9343605E0,0E0,0E0,0E0,1.0435772E0,8.6488724E-1,1.8254793E0,0E0,0E0,0E0,0E0,0E0,0E0],"parents":[2147483647,0,0,1,1,2,2,4,4,5,5,8,8,10,10,13,13,16,16,17,17,18,18,19,19,23,23,24,24,25,25,26,26,30,30,31,31,32,32],"right_children":[2,4,6,-1,8,10,-1,-1,12,-1,14,-1,-1,16,-1,-1,18,20,22,24,-1,-1,-1,26,28,30,32,-1,-1,-1,34,36,38,-1,-1,-1,-1,-1,-1],"split_conditions":[-6.816709E-2,-8.03222E-1,2.5936243E-1,-1.4607158E-2,-6.35996E-1,-7.809534E-1,-1.0969517E-1,-1.0430192E-1,-6.3832444E-1,-1.0235491E-1,1.5643231E0,1.1702308E-1,-8.7403856E-2,2.3551051E-1,2.1975718E-1,1.9417118E-1,1.0409683E0,9.1949636E-1,-6.068662E-1,-5.673456E-1,-7.276446E-2,9.565856E-2,2.185942E-1,5.6661665E-1,-4.9603376E-1,7.733E-1,1.0654718E0,1.9021027E-1,-8.063845E-2,6.5354295E-2,-7.5476843E-1,-7.0627064E-1,-1.09688915E-1,1.3222192E-1,2.1379377E-1,2.1144395E-1,9.8724276E-2,-1.1133154E-1,8.831218E-2],"split_indices":[1,3,3,0,1,5,0,0,3,0,1,0,0,1,0,0,5,5,0,0,0,0,0,5,3,1,1,0,0,0,0,0,4,0,0,0,0,0,0],"split_type":[0,0,0,0,0,0,0,0,0,0,0,0,0,0,0,0,0,0,0,0,0,0,0,0,0,0,0,0,0,0,0,0,0,0,0,0,0,0,0],"sum_hessian":[3.054641E2,1.3236212E2,1.7310199E2,6.058794E0,1.2630333E2,1.4022981E2,3.2872177E1,8.97786E1,3.652473E1,2.5622065E1,1.1460774E2,4.1553407E0,3.236939E1,1.0273584E2,1.1871908E1,1.2415255E1,9.032058E1,7.233296E1,1.7987617E1,6.807896E1,4.254005E0,6.597927E0,1.138969E1,5.728017E1,1.0798789E1,3.6296745E1,2.0983423E1,4.822766E0,5.976023E0,4.623063E0,3.1673683E1,1.3586673E1,7.396752E0,8.710012E0,2.296367E1,9.770554E0,3.8161192E0,4.1189814E0,3.2777703E0],"tree_param":{"num_deleted":"0","num_feature":"6","num_nodes":"39","size_leaf_vector":"1"}},{"base_weights":[4.847363E-3,3.2516995E-1,-1.0801253E-1,5.047867E-1,-5.0703335E-1,6.883524E-1,-3.9845565E-3,-4.254601E-3,-1.1189408E-1,-1.3500406E-1,7.282577E-1,-4.7157404E-1,5.4486185E-1,8.466475E-1,3.4071082E-1,-3.5739774E-3,-1.1053618E-1,5.994855E-2,2.37543E-1,1.7900628E-1,2.684159E-1,-6.1976794E-2,4.492193E-1,-5.487039E-2,1.5937251E-1,6.10481E-1,-1.874764E-2,6.2613E-2,1.7504756E-1],"categories":[],"categories_nodes":[],"categories_segments":[],"categories_sizes":[],"default_left":[0,0,0,0,0,0,0,0,0,0,0,0,0,0,0,0,0,0,0,0,0,0,0,0,0,0,0,0,0],"id":28,"left_children":[1,3,-1,5,7,9,11,-1,-1,-1,13,15,17,19,21,-1,-1,-1,-1,-1,23,-1,25,-1,-1,27,-1,-1,-1],"loss_changes":[4.916488E1,2.6492746E1,0E0,1.3618233E1,8.1107426E-1,5.8333664E0,9.917033E0,0E0,0E0,0E0,4.7697525E0,7.729106E-1,2.795291E0,2.286583E0,1.7222581E0,0E0,0E0,0E0,0E0,0E0,1.821675E0,0E0,1.8326359E0,0E0,0E0,1.2672391E0,0E0,0E0,0E0],"parents":[2147483647,0,0,1,1,3,3,4,4,5,5,6,6,10,10,11,11,12,12,13,13,14,14,20,20,22,22,25,25],"right_children":[2,4,-1,6,8,10,12,-1,-1,-1,14,16,18,20,22,-1,-1,-1,-1,-1,24,-1,26,-1,-1,28,-1,-1,-1],"split_conditions":[-3.9732367E-1,-2.8384835E-1,-1.0801253E-1,-4.650868E-1,-1.5507485E-1,-1.5764618E0,1.2387637E0,-4.254601E-3,-1.1189408E-1,-1.3500406E-1,4.1155827E-1,-4.3986514E-1,-3.0718747E-1,-5.270855E-1,-1.137919E0,-3.5739774E-3,-1.1053618E-1,5.994855E-2,2.37543E-1,1.7900628E-1,-7.8600883E-1,-6.1976794E-2,-8.7982696E-1,-5.487039E-2,1.5937251E-1,-1.0287204E0,-1.874764E-2,6.2613E-2,1.7504756E-1],"split_indices":[1,5,0,3,5,1,0,0,0,0,0,3,4,3,1,0,0,0,0,0,1,0,5,0,0,5,0,0,0],"split_type":[0,0,0,0,0,0,0,0,0,0,0,0,0,0,0,0,0,0,0,0,0,0,0,0,0,0,0,0,0],"sum_hessian":[2.8125745E2,1.7723549E2,1.0402195E2,1.457781E2,3.1457384E1,1.07134125E2,3.864398E1,3.1192336E0,2.833815E1,3.0406432E0,1.0409348E2,2.0871794E1,1.7772186E1,7.972511E1,2.436837E1,3.2027867E0,1.7669006E1,1.2888632E1,4.883554E0,7.340274E1,6.322372E0,3.4742513E0,2.0894117E1,3.116449E0,3.205923E0,1.6117874E1,4.7762446E0,7.6264377E0,8.491436E0],"tree_param":{"num_deleted":"0","num_feature":"6","num_nodes":"29","size_leaf_vector":"1"}},{"base_weights":[-7.7220346E-3,-5.2043664E-1,1.806058E-1,-1.0824548E-1,3.1360555E-2,-5.7731103E-2,8.0366656E-2],"categories":[],"categories_nodes":[],"categories_segments":[],"categories_sizes":[],"default_left":[0,0,0,0,0,0,0],"id":29,"left_children":[1,3,-1,-1,5,-1,-1],"loss_changes":[1.2625377E2,2.0632553E0,0E0,0E0,7.73943E-1,0E0,0E0],"parents":[2147483647,0,0,1,1,4,4],"right_children":[2,4,-1,-1,6,-1,-1],"split_conditions":[1.5436614E0,9.9345857E-1,1.806058E-1,-1.0824548E-1,-4.3759957E-1,-5.7731103E-2,8.0366656E-2],"split_indices":[4,4,0,0,0,0,0],"split_type":[0,0,0,0,0,0,0],"sum_hessian":[2.6997714E2,1.7283133E2,9.714581E1,1.6632791E2,6.5034227E0,3.4822195E0,3.0212033E0],"tree_param":{"num_deleted":"0","num_feature":"6","num_nodes":"7","size_leaf_vector":"1"}},{"base_weights":[-7.500092E-3,2.9017606E-1,-1.0548419E-1,-1.377252E-1,5.486809E-1,-4.5447633E-1,3.7014607E-1,7.545538E-1,-4.155419E-1,-2.3756565E-1,-1.09418385E-1,7.3567075E-1,-7.111142E-2,1.4857602E-2,7.87907E-1,-1.0859684E-1,3.6607623E-2,-8.790555E-2,6.989023E-2,2.2223122E-1,4.261648E-1,6.63053E-1,1.7213963E-1,9.514614E-3,1.4413573E-1,-1.5481726E-2,7.408964E-1,1.686443E-1,4.5990306E-1,3.4990062E-3,1.8180169E-1],"categories":[],"categories_nodes":[],"categories_segments":[],"categories_sizes":[],"default_left":[0,0,0,0,0,0,0,0,0,0,0,0,0,0,0,0,0,0,0,0,0,0,0,0,0,0,0,0,0,0,0],"id":30,"left_children":[1,3,-1,5,7,9,11,13,15,17,-1,19,-1,-1,21,-1,-1,-1,-1,-1,23,25,-1,-1,-1,-1,27,-1,29,-1,-1],"loss_changes":[4.3776222E1,1.987761E1,0E0,1.088513E1,2.2238659E1,8.4063053E-1,6.8995943E0,2.089695E0,1.5154281E0,1.4963987E0,0E0,2.0101538E0,0E0,0E0,8.059616E-1,0E0,0E0,0E0,0E0,0E0,1.0593827E0,1.8941345E0,0E0,0E0,0E0,0E0,8.5723495E-1,0E0,1.5912778E0,0E0,0E0],"parents":[2147483647,0,0,1,1,3,3,4,4,5,5,6,6,7,7,8,8,9,9,11,11,14,14,20,20,21,21,26,26,28,28],"right_children":[2,4,-1,6,8,10,12,14,16,18,-1,20,-1,-1,22,-1,-1,-1,-1,-1,24,26,-1,-1,-1,-1,28,-1,30,-1,-1],"split_conditions":[-5.6742287E-1,-5.368435E-1,-1.0548419E-1,2.0242387E-1,-4.4106355E-1,-6.7363757E-1,-8.021472E-1,-1.1224929E0,1.5609369E0,-5.794591E-1,-1.09418385E-1,-8.4813887E-1,-7.111142E-2,1.4857602E-2,3.4854037E-1,-1.0859684E-1,3.6607623E-2,-8.790555E-2,6.989023E-2,2.2223122E-1,-7.0113736E-1,-7.3126894E-1,1.7213963E-1,9.514614E-3,1.4413573E-1,-1.5481726E-2,1.7855622E0,1.686443E-1,-8.1729764E-1,3.4990062E-3,1.8180169E-1],"split_indices":[2,1,0,0,4,4,2,2,0,0,0,1,0,0,1,0,0,0,0,0,1,0,0,0,0,0,0,0,2,0,0],"split_type":[0,0,0,0,0,0,0,0,0,0,0,0,0,0,0,0,0,0,0,0,0,0,0,0,0,0,0,0,0,0,0],"sum_hessian":[2.824105E2,1.7968213E2,1.0272836E2,6.7661804E1,1.12020325E2,4.1678123E1,2.5983677E1,9.2315346E1,1.970498E1,1.2565329E1,2.9112795E1,1.7289078E1,8.6946E0,4.322657E0,8.799268E1,1.623628E1,3.4686997E0,9.349795E0,3.2155335E0,7.7851562E0,9.503921E0,3.2796013E1,5.5196674E1,4.1752267E0,5.3286943E0,3.1129763E0,2.9683035E1,2.1673702E1,8.009335E0,4.046851E0,3.9624832E0],"tree_param":{"num_deleted":"0","num_feature":"6","num_nodes":"31","size_leaf_vector":"1"}},{"base_weights":[-1.0481981E-2,-4.735115E-1,4.149847E-1,-1.07268564E-1,-7.821247E-2,8.579555E-1,-1.082782E-1,1.5777378E-1,-7.45479E-2,7.2683823E-1,1.879942E-1,4.1795877E-1,1.7929827E-1,1.577105E-1,2.2300673E-1,1.733624E-1,-9.272476E-2],"categories":[],"categories_nodes":[],"categories_segments":[],"categories_sizes":[],"default_left":[0,0,0,0,0,0,0,0,0,0,0,0,0,0,0,0,0],"id":31,"left_children":[1,3,5,-1,7,9,-1,-1,-1,11,-1,13,-1,15,-1,-1,-1],"loss_changes":[5.6702763E1,3.4642448E0,6.3598854E1,0E0,4.89787E0,1.112999E0,0E0,0E0,0E0,2.1006298E0,0E0,2.580921E0,0E0,4.5860753E0,0E0,0E0,0E0],"parents":[2147483647,0,0,1,1,2,2,4,4,5,5,9,9,11,11,13,13],"right_children":[2,4,6,-1,8,10,-1,-1,-1,12,-1,14,-1,16,-1,-1,-1],"split_conditions":[7.831507E-1,-2.9818973E-1,-4.8309785E-1,-1.07268564E-1,-1.0747672E0,-6.3831854E-1,-1.082782E-1,1.5777378E-1,-7.45479E-2,1.0266292E0,1.879942E-1,1.2113467E0,1.7929827E-1,-4.2866257E-1,2.2300673E-1,1.733624E-1,-9.272476E-2],"split_indices":[2,2,5,0,5,0,0,0,0,2,0,3,0,3,0,0,0],"split_type":[0,0,0,0,0,0,0,0,0,0,0,0,0,0,0,0,0],"sum_hessian":[2.878243E2,1.378339E2,1.4999043E2,1.18709404E2,1.9124487E1,1.0254156E2,4.744888E1,4.8464584E0,1.4278028E1,3.990016E1,6.264139E1,1.4229204E1,2.567096E1,1.037327E1,3.8559341E0,4.846541E0,5.526729E0],"tree_param":{"num_deleted":"0","num_feature":"6","num_nodes":"17","size_leaf_vector":"1"}},{"base_weights":[1.0985764E-2,3.1808192E-1,-1.0868585E-1,-2.4513602E-1,8.2488614E-1,5.0416194E-2,-1.0032693E-1,8.905514E-1,-1.0962928E-1,-3.447412E-1,2.4244052E-1,1.954662E-1,5.757696E-1,-1.125768E-1,1.5251164E-2,7.235519E-1,6.4900726E-2,-1.1120772E-2,8.1581295E-1,-1.0142601E-2,3.0626824E-1,4.8967102E-1,-7.6313116E-2,2.2746256E-1,1.24890566E-1,3.898984E-2,2.2236091E-1],"categories":[],"categories_nodes":[],"categories_segments":[],"categories_sizes":[],"default_left":[0,0,0,0,0,0,0,0,0,0,0,0,0,0,0,0,0,0,0,0,0,0,0,0,0,0,0],"id":32,"left_children":[1,3,-1,5,7,9,-1,11,-1,13,15,-1,17,-1,-1,19,21,-1,23,-1,-1,25,-1,-1,-1,-1,-1],"loss_changes":[4.7441685E1,5.114228E1,0E0,6.4538245E0,8.509697E0,2.9949956E0,0E0,2.4923325E0,0E0,1.1923007E0,2.2659078E0,0E0,2.9934416E0,0E0,0E0,4.496435E0,3.688319E0,0E0,8.706131E-1,0E0,0E0,1.8232613E0,0E0,0E0,0E0,0E0,0E0],"parents":[2147483647,0,0,1,1,3,3,4,4,5,5,7,7,9,9,10,10,12,12,15,15,16,16,18,18,21,21],"right_children":[2,4,-1,6,8,10,-1,12,-1,14,16,-1,18,-1,-1,20,22,-1,24,-1,-1,26,-1,-1,-1,-1,-1],"split_conditions":[-9.420415E-2,-5.0016475E-1,-1.0868585E-1,-1.0104887E0,1.1108041E0,-1.0287204E0,-1.0032693E-1,1.1067914E-1,-1.0962928E-1,-4.9375045E-1,-7.38676E-1,1.954662E-1,1.4490268E0,-1.125768E-1,1.5251164E-2,-7.5476843E-1,-5.315609E-1,-1.1120772E-2,-6.3832444E-1,-1.0142601E-2,3.0626824E-1,-9.249242E-1,-7.6313116E-2,2.2746256E-1,1.24890566E-1,3.898984E-2,2.2236091E-1],"split_indices":[1,5,0,1,3,5,0,0,0,3,0,0,0,0,0,0,3,0,3,0,0,5,0,0,0,0,0],"split_type":[0,0,0,0,0,0,0,0,0,0,0,0,0,0,0,0,0,0,0,0,0,0,0,0,0,0,0],"sum_hessian":[2.7824036E2,1.7915851E2,9.9081856E1,8.4851585E1,9.430692E1,3.9477184E1,4.5374397E1,9.000867E1,4.2982507E0,1.2901196E1,2.657599E1,7.0286316E1,1.9722355E1,8.495607E0,4.4055877E0,7.1555963E0,1.9420393E1,5.4262767E0,1.4296079E1,3.655265E0,3.5003314E0,9.964245E0,9.456149E0,5.289704E0,9.006375E0,6.775E0,3.189245E0],"tree_param":{"num_deleted":"0","num_feature":"6","num_nodes":"27","size_leaf_vector":"1"}},{"base_weights":[-6.3712033E-3,-4.043138E-1,2.2345439E-1,-9.975592E-2,1.8364084E-1,3.6036333E-1,-1.0809878E-1,1.659693E-1,-2.2437328E-1,-2.0772308E-1,5.2236974E-1,-1.1243843E-1,4.280907E-2,-1.0044614E-1,9.5983356E-2,5.5404824E-1,-1.0752899E-1,1.0168713E-1,-1.4695641E-1,2.398941E-1,6.2722063E-1,9.125968E-2,-8.786837E-2,-1.1591184E-1,9.371722E-2,5.638349E-1,1.9312035E-1,2.5433102E-1,6.190897E-1,-6.4434625E-2,5.2042735E-1,6.7128146E-1,2.9532334E-1,-1.843977E-2,1.8934107E-1,4.869415E-2,7.1137464E-1,1.5693893E-1,-1.0755674E-1,1.278851E-1,1.8538125E-1],"categories":[],"categories_nodes":[],"categories_segments":[],"categories_sizes":[],"default_left":[0,0,0,0,0,0,0,0,0,0,0,0,0,0,0,0,0,0,0,0,0,0,0,0,0,0,0,0,0,0,0,0,0,0,0,0,0,0,0,0,0],"id":33,"left_children":[1,3,5,-1,7,9,-1,-1,11,13,15,-1,-1,-1,17,19,-1,-1,21,23,25,-1,-1,-1,-1,27,-1,29,31,-1,33,35,37,-1,-1,-1,39,-1,-1,-1,-1],"loss_changes":[2.486952E1,5.5751724E0,1.8045483E1,0E0,3.6667347E0,1.3456362E1,0E0,0E0,1.2651416E0,2.9105163E0,3.823061E0,0E0,0E0,0E0,1.6060102E0,2.534809E0,0E0,0E0,1.77951E0,3.9291492E0,1.9216881E0,0E0,0E0,0E0,0E0,1.28685E0,0E0,1.7595763E0,1.0774403E0,0E0,2.060476E0,9.402065E-1,3.6450799E0,0E0,0E0,0E0,7.680702E-1,0E0,0E0,0E0,0E0],"parents":[2147483647,0,0,1,1,2,2,4,4,5,5,8,8,9,9,10,10,14,14,15,15,18,18,19,19,20,20,25,25,27,27,28,28,30,30,31,31,32,32,36,36],"right_children":[2,4,6,-1,8,10,-1,-1,12,14,16,-1,-1,-1,18,20,-1,-1,22,24,26,-1,-1,-1,-1,28,-1,30,32,-1,34,36,38,-1,-1,-1,40,-1,-1,-1,-1],"split_conditions":[-6.7680645E-1,-3.0718747E-1,1.8014308E0,-9.975592E-2,-9.139326E-1,-5.296297E-1,-1.0809878E-1,1.659693E-1,-2.1061154E-1,-3.6394912E-1,1.5643231E0,-1.1243843E-1,4.280907E-2,-1.0044614E-1,-5.82445E-1,-7.3991674E-1,-1.0752899E-1,1.0168713E-1,7.8620446E-1,7.975997E-1,7.382803E-1,9.125968E-2,-8.786837E-2,-1.1591184E-1,9.371722E-2,2.3551051E-1,1.9312035E-1,-4.995237E-1,1.0409683E0,-6.4434625E-2,1.5609369E0,-7.2340675E-2,-6.068662E-1,-1.843977E-2,1.8934107E-1,4.869415E-2,-2.523152E-1,1.5693893E-1,-1.0755674E-1,1.278851E-1,1.8538125E-1],"split_indices":[5,4,4,0,5,1,0,0,3,0,1,0,0,0,4,0,0,0,0,1,3,0,0,0,0,1,0,3,5,0,0,5,0,0,0,0,3,0,0,0,0],"split_type":[0,0,0,0,0,0,0,0,0,0,0,0,0,0,0,0,0,0,0,0,0,0,0,0,0,0,0,0,0,0,0,0,0,0,0,0,0,0,0,0,0],"sum_hessian":[2.719142E2,9.955596E1,1.7235826E2,8.568792E1,1.3868044E1,1.4619337E2,2.616488E1,5.365911E0,8.502132E0,3.2432907E1,1.1376047E2,4.805016E0,3.6971166E0,1.6453709E1,1.59791975E1,1.1046665E2,3.2938228E0,5.92417E0,1.0055027E1,2.0882507E1,8.9584145E1,3.2791529E0,6.7758746E0,4.558497E0,1.632401E1,7.551477E1,1.406937E1,1.1453596E1,6.406117E1,3.6088018E0,7.8447943E0,5.5154045E1,8.907129E0,3.2197456E0,4.6250486E0,4.7408924E0,5.041315E1,5.612079E0,3.2950501E0,3.8002106E1,1.2411049E1],"tree_param":{"num_deleted":"0","num_feature":"6","num_nodes":"41","size_leaf_vector":"1"}},{"base_weights":[-1.0566987E-2,2.591346E-1,-1.0930955E-1,-3.7211406E-1,6.777338E-1,-9.7397484E-2,-1.5261322E-1,-9.961286E-2,1.9289993E-1,-4.3938655E-1,3.490337E-1,1.1300422E-2,-1.1074294E-1,1.6940835E-1,-3.1404026E-2],"categories":[],"categories_nodes":[],"categories_segments":[],"categories_sizes":[],"default_left":[0,0,0,0,0,0,0,0,0,0,0,0,0,0,0],"id":34,"left_children":[1,3,-1,5,7,-1,9,-1,-1,11,13,-1,-1,-1,-1],"loss_changes":[4.0900414E1,4.9684216E1,0E0,1.8989162E0,3.834076E1,0E0,3.723107E0,0E0,0E0,9.434092E-1,2.3812103E0,0E0,0E0,0E0,0E0],"parents":[2147483647,0,0,1,1,3,3,4,4,6,6,9,9,10,10],"right_children":[2,4,-1,6,8,-1,10,-1,-1,12,14,-1,-1,-1,-1],"split_conditions":[2.0943556E-2,-6.816709E-2,-1.0930955E-1,-4.7143808E-1,-7.809534E-1,-9.7397484E-2,-6.333476E-1,-9.961286E-2,1.9289993E-1,-9.9346375E-1,-7.471053E-1,1.1300422E-2,-1.1074294E-1,1.6940835E-1,-3.1404026E-2],"split_indices":[2,1,0,4,5,0,1,0,0,2,2,0,0,0,0],"split_type":[0,0,0,0,0,0,0,0,0,0,0,0,0,0,0],"sum_hessian":[2.8249564E2,1.8802057E2,9.447506E1,7.496328E1,1.130573E2,4.9086403E1,2.5876877E1,2.2242504E1,9.081479E1,1.6471273E1,9.405603E0,3.0953083E0,1.3375964E1,4.7407446E0,4.664859E0],"tree_param":{"num_deleted":"0","num_feature":"6","num_nodes":"15","size_leaf_vector":"1"}},{"base_weights":[-4.6087313E-3,3.0408046E-1,-4.8011756E-1,5.0770384E-1,-1.0765539E-1,-1.06218174E-1,-6.619205E-2,5.530899E-1,-1.0767097E-1,1.7466749E-1,-1.08616315E-1,5.3880644E-1,2.0818901E-1,4.35009E-1,6.159485E-1,5.463416E-1,-1.1940327E-1,6.7651534E-1,3.967407E-1,5.957893E-1,2.1148617E-3,-7.220867E-2,5.9133634E-2,7.259754E-1,-2.4216719E-2,-2.7213722E-2,1.4613886E-1,1.3348572E-1,3.0833077E-1,7.7231514E-1,3.7276942E-2,-3.7417065E-2,1.5259677E-1,1.3343325E-1,2.0367634E-1],"categories":[],"categories_nodes":[],"categories_segments":[],"categories_sizes":[],"default_left":[0,0,0,0,0,0,0,0,0,0,0,0,0,0,0,0,0,0,0,0,0,0,0,0,0,0,0,0,0,0,0,0,0,0,0],"id":35,"left_children":[1,3,5,7,-1,-1,9,11,-1,-1,-1,13,-1,15,17,19,21,23,25,27,-1,-1,-1,29,-1,-1,-1,-1,31,33,-1,-1,-1,-1,-1],"loss_changes":[3.7910553E1,2.6885845E1,2.1757202E0,5.993454E0,0E0,0E0,5.083562E0,8.3691025E-1,0E0,0E0,0E0,9.352226E-1,0E0,3.0957441E0,8.888035E-1,1.1027212E0,8.4298563E-1,2.085186E0,2.611034E0,7.9277706E-1,0E0,0E0,0E0,1.2368279E0,0E0,0E0,0E0,0E0,1.7478744E0,1.1708584E0,0E0,0E0,0E0,0E0,0E0],"parents":[2147483647,0,0,1,1,2,2,3,3,6,6,7,7,11,11,13,13,14,14,15,15,16,16,17,17,18,18,19,19,23,23,28,28,29,29],"right_children":[2,4,6,8,-1,-1,10,12,-1,-1,-1,14,-1,16,18,20,22,24,26,28,-1,-1,-1,30,-1,-1,-1,-1,32,34,-1,-1,-1,-1,-1],"split_conditions":[-6.5571874E-1,2.0943556E-2,1.7833997E0,1.7833997E0,-1.0765539E-1,-1.06218174E-1,-1.5507485E-1,-7.480501E-1,-1.0767097E-1,1.7466749E-1,-1.08616315E-1,-8.950624E-1,2.0818901E-1,-5.175689E-1,1.4490268E0,-8.576902E-1,-9.5429623E-1,-4.2248476E-1,-5.0380516E-1,-6.3164407E-1,2.1148617E-3,-7.220867E-2,5.9133634E-2,-8.378341E-1,-2.4216719E-2,-2.7213722E-2,1.4613886E-1,1.3348572E-1,-6.4293325E-1,1.059184E-2,3.7276942E-2,-3.7417065E-2,1.5259677E-1,1.3343325E-1,2.0367634E-1],"split_indices":[5,2,0,0,0,0,5,5,0,0,0,2,0,0,0,5,2,3,3,3,0,0,0,5,0,0,0,0,0,0,0,0,0,0,0],"split_type":[0,0,0,0,0,0,0,0,0,0,0,0,0,0,0,0,0,0,0,0,0,0,0,0,0,0,0,0,0,0,0,0,0,0,0],"sum_hessian":[2.5826727E2,1.5659712E2,1.0167016E2,1.2614066E2,3.0456465E1,9.035579E1,1.131437E1,1.20904E2,5.2366643E0,3.8064961E0,7.5078745E0,1.17486046E2,3.4179537E0,5.011824E1,6.7367805E1,4.1744812E1,8.373429E0,5.2764977E1,1.4602831E1,3.8208557E1,3.5362554E0,5.298045E0,3.0753841E0,4.9690845E1,3.0741286E0,5.6303515E0,8.972479E0,3.0485996E1,7.7225585E0,4.5750095E1,3.940753E0,3.6939042E0,4.0286546E0,3.22196E1,1.3530493E1],"tree_param":{"num_deleted":"0","num_feature":"6","num_nodes":"35","size_leaf_vector":"1"}},{"base_weights":[-2.1178696E-2,-1.0702162E-1,7.586238E-1,-3.2904256E-2,8.0121636E-1,-0E0,1.6560125E-1],"categories":[],"categories_nodes":[],"categories_segments":[],"categories_sizes":[],"default_left":[0,0,0,0,0,0,0],"id":36,"left_children":[1,-1,3,-1,5,-1,-1],"loss_changes":[9.593406E1,0E0,3.7408333E0,0E0,2.041275E0,0E0,0E0],"parents":[2147483647,0,0,2,2,4,4],"right_children":[2,-1,4,-1,6,-1,-1],"split_conditions":[9.9345857E-1,-1.0702162E-1,1.4533082E0,-3.2904256E-2,8.6654496E-1,-0E0,1.6560125E-1],"split_indices":[4,0,3,0,2,0,0],"split_type":[0,0,0,0,0,0,0],"sum_hessian":[2.390059E2,1.439761E2,9.502979E1,4.184672E0,9.084512E1,3.0708964E0,8.777422E1],"tree_param":{"num_deleted":"0","num_feature":"6","num_nodes":"7","size_leaf_vector":"1"}},{"base_weights":[2.2567E-3,3.3902046E-1,-9.980253E-2,-1.8720792E-1,7.200896E-1,-1.0040957E-1,3.506132E-2,1.5609702E-1,5.499414E-2,4.1186908E-1,-9.8199904E-2,-1.1179435E-1,1.3979368E-1,3.0634582E-1,2.0241594E-1,5.01899E-1,-7.23408E-2,7.5645316E-3,9.145992E-1,2.8231466E-1,7.240646E-2],"categories":[],"categories_nodes":[],"categories_segments":[],"categories_sizes":[],"default_left":[0,0,0,0,0,0,0,0,0,0,0,0,0,0,0,0,0,0,0,0,0],"id":37,"left_children":[1,3,-1,5,7,-1,9,-1,11,13,-1,-1,-1,15,-1,17,-1,-1,19,-1,-1],"loss_changes":[4.3147438E1,3.063533E1,0E0,4.5026493E0,3.6241188E0,0E0,7.4698176E0,0E0,2.980943E0,1.3865731E0,0E0,0E0,0E0,2.4429178E0,0E0,2.7637293E0,0E0,0E0,2.0973225E0,0E0,0E0],"parents":[2147483647,0,0,1,1,3,3,4,4,6,6,8,8,9,9,13,13,15,15,18,18],"right_children":[2,4,-1,6,8,-1,10,-1,12,14,-1,-1,-1,16,-1,18,-1,-1,20,-1,-1],"split_conditions":[-7.480501E-1,-5.368435E-1,-9.980253E-2,-5.175689E-1,-3.8841864E-1,-1.0040957E-1,-5.3426045E-1,1.5609702E-1,-2.695145E-1,-8.7982696E-1,-9.8199904E-2,-1.1179435E-1,1.3979368E-1,-1.0194291E0,2.0241594E-1,-1.088942E0,-7.23408E-2,7.5645316E-3,-6.7146766E-1,2.8231466E-1,7.240646E-2],"split_indices":[5,1,0,0,4,0,3,0,3,5,0,0,0,5,0,5,0,0,4,0,0],"split_type":[0,0,0,0,0,0,0,0,0,0,0,0,0,0,0,0,0,0,0,0,0],"sum_hessian":[2.5522049E2,1.5275832E2,1.0246217E2,6.415344E1,8.8604866E1,2.6520638E1,3.7632805E1,8.108998E1,7.5148897E0,2.1945597E1,1.568721E1,3.8434289E0,3.6714606E0,1.8678762E1,3.2668326E0,1.4457893E1,4.2208695E0,6.811784E0,7.6461096E0,4.010514E0,3.635596E0],"tree_param":{"num_deleted":"0","num_feature":"6","num_nodes":"21","size_leaf_vector":"1"}},{"base_weights":[-6.8846266E-3,-1.0760179E-1,3.361868E-1,6.87932E-1,-1.0708501E-1,2.4749509E-1,7.482952E-1,1.5495133E-1,-2.14905E-1,1.5625261E-1,3.3160493E-2,5.1335994E-2,-1.2458576E-1],"categories":[],"categories_nodes":[],"categories_segments":[],"categories_sizes":[],"default_left":[0,0,0,0,0,0,0,0,0,0,0,0,0],"id":38,"left_children":[1,-1,3,5,-1,7,9,-1,11,-1,-1,-1,-1],"loss_changes":[4.7612732E1,0E0,4.8670044E1,2.9998932E0,0E0,3.3345222E0,1.9711685E0,0E0,1.4044833E0,0E0,0E0,0E0,0E0],"parents":[2147483647,0,0,2,2,3,3,5,5,6,6,8,8],"right_children":[2,-1,4,6,-1,8,10,-1,12,-1,-1,-1,-1],"split_conditions":[-2.9818973E-1,-1.0760179E-1,-4.8309785E-1,7.043739E-1,-1.0708501E-1,-1.0721359E0,-1.7762092E-1,1.5495133E-1,-4.3507078E-1,1.5625261E-1,3.3160493E-2,5.1335994E-2,-1.2458576E-1],"split_indices":[2,0,5,2,0,5,1,0,3,0,0,0,0],"split_type":[0,0,0,0,0,0,0,0,0,0,0,0,0],"sum_hessian":[2.6089746E2,1.02298256E2,1.585992E2,1.1303237E2,4.5566822E1,1.36346445E1,9.939773E1,6.36827E0,7.266374E0,9.3882965E1,5.5147634E0,3.3673992E0,3.8989751E0],"tree_param":{"num_deleted":"0","num_feature":"6","num_nodes":"13","size_leaf_vector":"1"}},{"base_weights":[-7.411514E-3,1.5894645E-1,-1.00699715E-1,-2.59829E-1,4.304551E-1,-9.90403E-2,5.899935E-1,5.0834507E-1,-7.378971E-2,7.87987E-1,-1.284758E-2,5.567049E-1,-1.0913987E-1,2.5803423E-1,1.14689566E-1,7.1317357E-1,2.4177013E-1,1.5429991E-1,8.803267E-2,1.546261E-1,1.6898367E-1,-3.778935E-2,3.2077324E-1,-8.81218E-2,2.826849E-1,6.0935855E-1,7.537893E-3,-2.7746199E-2,1.2803759E-1,5.1608704E-2,1.9070274E-1,-1.1659572E-1,9.8372884E-2],"categories":[],"categories_nodes":[],"categories_segments":[],"categories_sizes":[],"default_left":[0,0,0,0,0,0,0,0,0,0,0,0,0,0,0,0,0,0,0,0,0,0,0,0,0,0,0,0,0,0,0,0,0],"id":39,"left_children":[1,3,-1,5,7,-1,9,11,-1,13,-1,15,-1,-1,-1,17,19,-1,-1,-1,21,23,25,-1,27,29,31,-1,-1,-1,-1,-1,-1],"loss_changes":[2.083913E1,2.1474154E1,0E0,1.4903564E1,7.14019E0,0E0,2.0954266E0,5.3269196E0,0E0,1.3260117E0,0E0,4.9152813E0,0E0,0E0,0E0,1.0742226E0,1.2800955E0,0E0,0E0,0E0,9.171709E-1,1.5959736E0,1.5189464E0,0E0,1.0406702E0,1.0555162E0,2.3184037E0,0E0,0E0,0E0,0E0,0E0,0E0],"parents":[2147483647,0,0,1,1,3,3,4,4,6,6,7,7,9,9,11,11,15,15,16,16,20,20,21,21,22,22,24,24,25,25,26,26],"right_children":[2,4,-1,6,8,-1,10,12,-1,14,-1,16,-1,-1,-1,18,20,-1,-1,-1,22,24,26,-1,28,30,32,-1,-1,-1,-1,-1,-1],"split_conditions":[8.158102E-1,-5.0016475E-1,-1.00699715E-1,3.426159E-1,-5.391351E-1,-9.90403E-2,-3.0548418E-1,1.7865536E0,-7.378971E-2,-7.38676E-1,-1.284758E-2,-3.4061933E-1,-1.0913987E-1,2.5803423E-1,1.14689566E-1,4.5872214E-1,-5.3773177E-1,1.5429991E-1,8.803267E-2,1.546261E-1,-8.3444226E-1,5.6661665E-1,-7.260177E-1,-8.81218E-2,-7.085934E-1,-7.505046E-1,1.5501654E0,-2.7746199E-2,1.2803759E-1,5.1608704E-2,1.9070274E-1,-1.1659572E-1,9.8372884E-2],"split_indices":[2,5,0,2,2,0,3,0,0,0,0,4,0,0,0,0,3,0,0,0,2,5,0,0,0,0,0,0,0,0,0,0,0],"split_type":[0,0,0,0,0,0,0,0,0,0,0,0,0,0,0,0,0,0,0,0,0,0,0,0,0,0,0,0,0,0,0,0,0],"sum_hessian":[2.5210202E2,1.8885695E2,6.324507E1,7.4275314E1,1.14581635E2,5.8130276E1,1.6145042E1,1.0442099E2,1.0160644E1,1.2400689E1,3.7443542E0,9.9848465E1,4.5725217E0,3.6840596E0,8.716629E0,6.669554E1,3.315293E1,5.4723022E1,1.1972516E1,3.9778187E0,2.9175112E1,1.23360815E1,1.6839031E1,5.4680185E0,6.8680634E0,8.755662E0,8.083368E0,3.149325E0,3.7187386E0,4.351856E0,4.403806E0,3.6376083E0,4.44576E0],"tree_param":{"num_deleted":"0","num_feature":"6","num_nodes":"33","size_leaf_vector":"1"}},{"base_weights":[7.4912584E-3,-1.0562495E-1,3.4118825E-1,4.9178615E-1,-1.0074539E-1,-1.979158E-1,7.795877E-1,-8.588476E-2,2.3954125E-1,3.8136262E-1,1.6611132E-1,8.7138724E-1,-1.1158979E-1,1.3296841E-1,-1.1424465E-3,2.4806637E-1,1.1078637E-1],"categories":[],"categories_nodes":[],"categories_segments":[],"categories_sizes":[],"default_left":[0,0,0,0,0,0,0,0,0,0,0,0,0,0,0,0,0],"id":40,"left_children":[1,-1,3,5,-1,7,9,-1,11,13,-1,15,-1,-1,-1,-1,-1],"loss_changes":[4.6195244E1,0E0,2.0263659E1,2.6812843E1,0E0,4.0390344E0,1.975544E0,0E0,6.9512687E0,1.2213953E0,0E0,8.9393663E-1,0E0,0E0,0E0,0E0,0E0],"parents":[2147483647,0,0,2,2,3,3,5,5,6,6,8,8,9,9,11,11],"right_children":[2,-1,4,6,-1,8,10,-1,12,14,-1,16,-1,-1,-1,-1,-1],"split_conditions":[-4.5143208E-1,-1.0562495E-1,1.5436614E0,-6.242147E-1,-1.0074539E-1,-3.0718747E-1,-2.8384835E-1,-8.588476E-2,1.0055536E0,9.939418E-2,1.6611132E-1,-9.396355E-1,-1.1158979E-1,1.3296841E-1,-1.1424465E-3,2.4806637E-1,1.1078637E-1],"split_indices":[2,0,4,5,0,4,5,0,2,4,0,5,0,0,0,0,0],"split_type":[0,0,0,0,0,0,0,0,0,0,0,0,0,0,0,0,0],"sum_hessian":[2.5808063E2,9.89709E1,1.5910973E2,1.3506374E2,2.404598E1,3.9760807E1,9.530293E1,2.5983498E1,1.377731E1,1.1060299E1,8.424264E1,7.6942077E0,6.0831027E0,6.3828073E0,4.6774917E0,3.536146E0,4.1580615E0],"tree_param":{"num_deleted":"0","num_feature":"6","num_nodes":"17","size_leaf_vector":"1"}},{"base_weights":[1.5520698E-3,-9.1432266E-2,2.5130633E-1,4.238683E-1,-1.0199405E-1,-1.7103168E-1,5.9457564E-1,2.1678159E-1,-3.3262324E-1,5.4699934E-1,1.5250485E-1,-1.0721303E-1,-1.0595691E-1,1.2330843E-1,3.6225778E-1,-8.3649784E-2,7.843496E-2,8.731002E-2,1.3386792E-1,-6.4295694E-2,1.1217061E-1],"categories":[],"categories_nodes":[],"categories_segments":[],"categories_sizes":[],"default_left":[0,0,0,0,0,0,0,0,0,0,0,0,0,0,0,0,0,0,0,0,0],"id":41,"left_children":[1,-1,3,5,-1,7,9,-1,11,13,-1,-1,15,-1,17,-1,-1,19,-1,-1,-1],"loss_changes":[2.9551172E1,0E0,2.1941769E1,1.3819429E1,0E0,6.154651E0,8.437195E-1,0E0,1.2409906E0,1.0694332E0,0E0,0E0,1.9902457E0,0E0,1.9283817E0,0E0,0E0,2.3433838E0,0E0,0E0,0E0],"parents":[2147483647,0,0,2,2,3,3,5,5,6,6,8,8,9,9,12,12,14,14,17,17],"right_children":[2,-1,4,6,-1,8,10,-1,12,14,-1,-1,16,-1,18,-1,-1,20,-1,-1,-1],"split_conditions":[-5.7473856E-1,-9.1432266E-2,1.1561562E-1,-7.506887E-2,-1.0199405E-1,-3.032291E-1,1.3481455E0,2.1678159E-1,-4.3555748E-1,-3.1259614E-1,1.5250485E-1,-1.0721303E-1,-6.333476E-1,1.2330843E-1,1.0409683E0,-8.3649784E-2,7.843496E-2,2.0056643E-2,1.3386792E-1,-6.4295694E-2,1.1217061E-1],"split_indices":[5,0,3,1,0,5,1,0,4,3,0,0,1,0,5,0,0,4,0,0,0],"split_type":[0,0,0,0,0,0,0,0,0,0,0,0,0,0,0,0,0,0,0,0,0],"sum_hessian":[2.5756335E2,9.070251E1,1.6686084E2,1.3605797E2,3.0802872E1,3.0330002E1,1.05727974E2,3.4522069E0,2.6877794E1,8.253703E1,2.3190937E1,1.4125826E1,1.2751968E1,5.9725494E1,2.281154E1,7.8420067E0,4.9099617E0,1.2063134E1,1.0748406E1,6.470116E0,5.593018E0],"tree_param":{"num_deleted":"0","num_feature":"6","num_nodes":"21","size_leaf_vector":"1"}},{"base_weights":[-1.9780958E-2,2.4424456E-1,-1.05929896E-1,4.1333807E-1,-1.06553264E-1,6.156699E-1,-3.7729985E-1,-7.716188E-2,6.4719033E-1,-1.1000169E-1,1.3548923E-1,1.4921854E-1,5.2805674E-1,5.9239194E-2,6.3551605E-1,9.478659E-2,-6.386901E-2,1.458139E-1,2.911211E-1,-3.9212193E-2,1.1984059E-1],"categories":[],"categories_nodes":[],"categories_segments":[],"categories_sizes":[],"default_left":[0,0,0,0,0,0,0,0,0,0,0,0,0,0,0,0,0,0,0,0,0],"id":42,"left_children":[1,3,-1,5,-1,7,9,-1,11,-1,-1,-1,13,15,17,-1,-1,-1,19,-1,-1],"loss_changes":[3.130288E1,2.0126053E1,0E0,2.0110626E1,0E0,3.1629753E0,4.6913557E0,0E0,1.1498146E0,0E0,0E0,0E0,2.2290726E0,1.30358E0,1.1696472E0,0E0,0E0,0E0,1.1743913E0,0E0,0E0],"parents":[2147483647,0,0,1,1,3,3,5,5,6,6,8,8,12,12,13,13,14,14,18,18],"right_children":[2,4,-1,6,-1,8,10,-1,12,-1,-1,-1,14,16,18,-1,-1,-1,20,-1,-1],"split_conditions":[-3.9732367E-1,2.0943556E-2,-1.05929896E-1,-5.8878E-1,-1.06553264E-1,-1.5764618E0,6.1334893E-2,-7.716188E-2,-5.175689E-1,-1.1000169E-1,1.3548923E-1,1.4921854E-1,-8.950624E-1,-6.4983934E-1,-6.1910045E-1,9.478659E-2,-6.386901E-2,1.458139E-1,-7.1667016E-1,-3.9212193E-2,1.1984059E-1],"split_indices":[1,2,0,5,0,1,3,0,0,0,0,0,2,3,1,0,0,0,2,0,0],"split_type":[0,0,0,0,0,0,0,0,0,0,0,0,0,0,0,0,0,0,0,0,0],"sum_hessian":[2.3215585E2,1.5302733E2,7.912853E1,1.2570609E2,2.7321234E1,1.0009694E2,2.560915E1,3.047513E0,9.704943E1,2.1998245E1,3.6109052E0,5.2731102E1,4.4318325E1,8.273195E0,3.6045128E1,3.9539444E0,4.3192506E0,2.8262354E1,7.7827744E0,3.0127475E0,4.7700267E0],"tree_param":{"num_deleted":"0","num_feature":"6","num_nodes":"21","size_leaf_vector":"1"}},{"base_weights":[-2.0426424E-2,-1.0598158E-1,6.9623774E-1,2.7149948E-1,1.4758357E-1,1.3774578E-1,-8.398311E-2],"categories":[],"categories_nodes":[],"categories_segments":[],"categories_sizes":[],"default_left":[0,0,0,0,0,0,0],"id":43,"left_children":[1,-1,3,5,-1,-1,-1],"loss_changes":[7.795019E1,0E0,1.6059113E0,2.3532825E0,0E0,0E0,0E0],"parents":[2147483647,0,0,2,2,3,3],"right_children":[2,-1,4,6,-1,-1,-1],"split_conditions":[9.9345857E-1,-1.0598158E-1,1.8014308E0,5.594527E-1,1.4758357E-1,1.3774578E-1,-8.398311E-2],"split_indices":[4,0,4,1,0,0,0],"split_type":[0,0,0,0,0,0,0],"sum_hessian":[2.1315585E2,1.2450962E2,8.864623E1,8.124906E0,8.0521324E1,5.0688744E0,3.0560312E0],"tree_param":{"num_deleted":"0","num_feature":"6","num_nodes":"7","size_leaf_vector":"1"}},{"base_weights":[4.1852617E-3,3.1405532E-1,-4.8140052E-1,-1.1756342E-1,6.8736476E-1,-3.062539E-1,-1.06094666E-1,1.9060643E-1,-4.351027E-1,1.4938615E-1,-1.1274549E-1,-2.0851608E-2,-1.06989644E-1,-5.6377035E-2,3.055313E-1,-2.1524757E-1,-1.0755969E-1,-1.11187324E-1,1.6661882E-1,7.9486096E-1,1.5913421E-1,-1.17129624E-1,1.7665416E-2,3.9380796E-2,2.8234565E-1,-2.9840086E-2,4.25082E-1,1.490639E-1,2.6725443E-2],"categories":[],"categories_nodes":[],"categories_segments":[],"categories_sizes":[],"default_left":[0,0,0,0,0,0,0,0,0,0,0,0,0,0,0,0,0,0,0,0,0,0,0,0,0,0,0,0,0],"id":44,"left_children":[1,3,5,7,9,11,-1,13,15,-1,-1,17,-1,-1,19,21,-1,-1,-1,23,25,-1,-1,-1,-1,-1,27,-1,-1],"loss_changes":[3.5735336E1,2.3364532E1,8.037033E-1,6.580742E0,5.908821E0,1.3416291E0,0E0,1.8541709E0,7.498174E-1,0E0,0E0,4.1966014E0,0E0,0E0,1.9616308E0,1.1999962E0,0E0,0E0,0E0,2.327308E0,1.7361417E0,0E0,0E0,0E0,0E0,0E0,1.0589111E0,0E0,0E0],"parents":[2147483647,0,0,1,1,2,2,3,3,4,4,5,5,7,7,8,8,11,11,14,14,15,15,19,19,20,20,26,26],"right_children":[2,4,6,8,10,12,-1,14,16,-1,-1,18,-1,-1,20,22,-1,-1,-1,24,26,-1,-1,-1,-1,-1,28,-1,-1],"split_conditions":[-7.7594453E-1,-3.9732367E-1,7.504135E-2,-8.021472E-1,-2.9818973E-1,-6.5359336E-1,-1.06094666E-1,-1.2601281E0,-2.9818973E-1,1.4938615E-1,-1.1274549E-1,-4.746152E-1,-1.06989644E-1,-5.6377035E-2,-1.0031555E0,-7.2016966E-1,-1.0755969E-1,-1.11187324E-1,1.6661882E-1,-7.6384795E-1,-6.2639016E-1,-1.17129624E-1,1.7665416E-2,3.9380796E-2,2.8234565E-1,-2.9840086E-2,-8.7219584E-1,1.490639E-1,2.6725443E-2],"split_indices":[5,1,5,2,2,2,0,1,2,0,0,3,0,0,2,2,0,0,0,1,3,0,0,0,0,0,2,0,0],"split_type":[0,0,0,0,0,0,0,0,0,0,0,0,0,0,0,0,0,0,0,0,0,0,0,0,0,0,0,0,0],"sum_hessian":[2.3749953E2,1.449881E2,9.251143E1,6.723608E1,7.775203E1,2.0527245E1,7.198419E1,3.4113094E1,3.312298E1,7.416102E1,3.5910106E0,9.159505E0,1.136774E1,6.6603136E0,2.745278E1,1.0618719E1,2.250426E1,5.6346235E0,3.524881E0,6.3136373E0,2.1139143E1,4.785543E0,5.833176E0,3.2165062E0,3.097131E0,9.776529E0,1.1362614E1,5.3935227E0,5.9690905E0],"tree_param":{"num_deleted":"0","num_feature":"6","num_nodes":"29","size_leaf_vector":"1"}},{"base_weights":[1.0096944E-2,-1.0428093E-1,3.1621692E-1,6.141579E-1,-1.0588894E-1,1.9243799E-1,6.6829354E-1,1.2918742E-1,-1.930226E-1,1.4000387E-1,3.656035E-2,-1.1487376E-1,2.072244E-2],"categories":[],"categories_nodes":[],"categories_segments":[],"categories_sizes":[],"default_left":[0,0,0,0,0,0,0,0,0,0,0,0,0],"id":45,"left_children":[1,-1,3,5,-1,7,9,-1,11,-1,-1,-1,-1],"loss_changes":[3.8972996E1,0E0,3.829909E1,2.5599823E0,0E0,2.2429767E0,1.57864E0,0E0,7.8681004E-1,0E0,0E0,0E0,0E0],"parents":[2147483647,0,0,2,2,3,3,5,5,6,6,8,8],"right_children":[2,-1,4,6,-1,8,10,-1,12,-1,-1,-1,-1],"split_conditions":[-2.9818973E-1,-1.0428093E-1,-4.8309785E-1,7.043739E-1,-1.0588894E-1,-1.0721359E0,-1.7762092E-1,1.2918742E-1,-1.0598947E0,1.4000387E-1,3.656035E-2,-1.1487376E-1,2.072244E-2],"split_indices":[2,0,5,2,0,5,1,0,1,0,0,0,0],"split_type":[0,0,0,0,0,0,0,0,0,0,0,0,0],"sum_hessian":[2.3918698E2,8.7325874E1,1.5186111E2,1.1232915E2,3.9531963E1,1.279011E1,9.953903E1,5.875818E0,6.9142923E0,9.3229645E1,6.3093877E0,3.0299003E0,3.8843918E0],"tree_param":{"num_deleted":"0","num_feature":"6","num_nodes":"13","size_leaf_vector":"1"}},{"base_weights":[-1.6614297E-2,2.3387589E-1,-1.06494546E-1,-2.557993E-1,6.3284844E-1,4.5856398E-1,-3.31058E-1,7.133736E-1,-1.0938004E-1,3.804321E-3,1.6629384E-1,-1.0768414E-1,-1.2589385E-1,1.4872493E-1,5.5971313E-2,3.9502156E-1,-9.572033E-2,6.0526127E-1,-5.454854E-2,2.0129994E-1,6.8860404E-2],"categories":[],"categories_nodes":[],"categories_segments":[],"categories_sizes":[],"default_left":[0,0,0,0,0,0,0,0,0,0,0,0,0,0,0,0,0,0,0,0,0],"id":46,"left_children":[1,3,-1,5,7,9,11,13,-1,-1,-1,-1,15,-1,-1,17,-1,19,-1,-1,-1],"loss_changes":[3.0471992E1,3.097897E1,0E0,3.8261943E0,8.307434E0,1.1101226E0,2.7471957E0,1.1060791E0,0E0,0E0,0E0,0E0,5.974542E0,0E0,0E0,1.8434925E0,0E0,1.0396197E0,0E0,0E0,0E0],"parents":[2147483647,0,0,1,1,3,3,4,4,5,5,6,6,7,7,12,12,15,15,17,17],"right_children":[2,4,-1,6,8,10,12,14,-1,-1,-1,-1,16,-1,-1,18,-1,20,-1,-1,-1],"split_conditions":[-9.420415E-2,-5.0016475E-1,-1.06494546E-1,-1.4958739E0,-4.6952122E-1,-6.790485E-1,3.426159E-1,-1.8286909E-1,-1.0938004E-1,3.804321E-3,1.6629384E-1,-1.0768414E-1,8.158102E-1,1.4872493E-1,5.5971313E-2,-3.1259614E-1,-9.572033E-2,-7.38676E-1,-5.454854E-2,2.0129994E-1,6.8860404E-2],"split_indices":[1,5,0,1,2,0,2,3,0,0,0,0,2,0,0,3,0,0,0,0,0],"split_type":[0,0,0,0,0,0,0,0,0,0,0,0,0,0,0,0,0,0,0,0,0],"sum_hessian":[2.3544086E2,1.5855794E2,7.688292E1,7.118124E1,8.73767E1,6.7776265E0,6.440361E1,8.180158E1,5.5751195E0,3.1230679E0,3.654559E0,3.19546E1,3.2449013E1,7.6265076E1,5.536507E0,1.3110623E1,1.933839E1,9.9786825E0,3.131941E0,3.9107385E0,6.0679436E0],"tree_param":{"num_deleted":"0","num_feature":"6","num_nodes":"21","size_leaf_vector":"1"}},{"base_weights":[9.4696265E-3,-1.0426959E-1,3.2570624E-1,4.555964E-1,-1.0556107E-1,2.334618E-2,1.4225249E-1,-2.2737102E-1,8.1134975E-1,1.268125E-1,-3.1566614E-1,1.9863342E-1,7.339108E-2,5.4050736E-2,-3.9010438E-1,-9.475476E-2,1.6771033E-2],"categories":[],"categories_nodes":[],"categories_segments":[],"categories_sizes":[],"default_left":[0,0,0,0,0,0,0,0,0,0,0,0,0,0,0,0,0],"id":47,"left_children":[1,-1,3,5,-1,7,-1,9,11,-1,13,-1,-1,-1,15,-1,-1],"loss_changes":[3.9357384E1,0E0,1.6289597E1,1.4137989E1,0E0,9.38604E0,0E0,2.7414157E0,9.2596436E-1,0E0,1.4271379E0,0E0,0E0,0E0,1.1625957E0,0E0,0E0],"parents":[2147483647,0,0,2,2,3,3,5,5,7,7,8,8,10,10,14,14],"right_children":[2,-1,4,6,-1,8,-1,10,12,-1,14,-1,-1,-1,16,-1,-1],"split_conditions":[-4.5143208E-1,-1.0426959E-1,1.8014308E0,-1.18626684E-1,-1.0556107E-1,-1.0213306E-1,1.4225249E-1,-7.3636943E-1,8.752839E-1,1.268125E-1,-5.7057804E-1,1.9863342E-1,7.339108E-2,5.4050736E-2,-4.198518E-1,-9.475476E-2,1.6771033E-2],"split_indices":[2,0,4,1,0,4,0,4,2,0,3,0,0,0,1,0,0],"split_type":[0,0,0,0,0,0,0,0,0,0,0,0,0,0,0,0,0],"sum_hessian":[2.341194E2,8.7318214E1,1.4680118E2,1.2743232E2,1.936886E1,4.7492813E1,7.993951E1,3.6024418E1,1.1468398E1,3.3402524E0,3.2684162E1,8.107863E0,3.360535E0,3.6740952E0,2.9010069E1,2.4636063E1,4.3740063E0],"tree_param":{"num_deleted":"0","num_feature":"6","num_nodes":"17","size_leaf_vector":"1"}},{"base_weights":[1.1167376E-2,2.551129E-1,-1.0728818E-1,-4.087043E-1,5.5388016E-1,-9.463737E-2,4.493311E-2,-1.5932302E-1,1.5854096E-1,1.2811488E-1,-3.1054989E-1,-9.602644E-2,1.3429675E-1,1.589218E-1,-1.0990875E-1],"categories":[],"categories_nodes":[],"categories_segments":[],"categories_sizes":[],"default_left":[0,0,0,0,0,0,0,0,0,0,0,0,0,0,0],"id":48,"left_children":[1,3,-1,5,7,-1,-1,9,-1,-1,11,-1,13,-1,-1],"loss_changes":[3.196301E1,3.2798958E1,0E0,2.1217499E0,1.952687E1,0E0,0E0,3.4756923E0,0E0,0E0,1.831975E0,0E0,3.02657E0,0E0,0E0],"parents":[2147483647,0,0,1,1,3,3,4,4,7,7,10,10,12,12],"right_children":[2,4,-1,6,8,-1,-1,10,-1,-1,12,-1,14,-1,-1],"split_conditions":[2.0943556E-2,-5.7473856E-1,-1.0728818E-1,-3.8159505E-1,-9.420415E-2,-9.463737E-2,4.493311E-2,-3.032291E-1,1.5854096E-1,1.2811488E-1,-7.794769E-1,-9.602644E-2,-7.471053E-1,1.589218E-1,-1.0990875E-1],"split_indices":[2,5,0,3,1,0,0,5,0,0,2,0,2,0,0],"split_type":[0,0,0,0,0,0,0,0,0,0,0,0,0,0,0],"sum_hessian":[2.3892622E2,1.6537436E2,7.3551865E1,5.132351E1,1.1405085E2,4.654339E1,4.7801223E0,2.8712309E1,8.533854E1,4.555054E0,2.4157255E1,1.7477768E1,6.6794863E0,3.401076E0,3.2784102E0],"tree_param":{"num_deleted":"0","num_feature":"6","num_nodes":"15","size_leaf_vector":"1"}},{"base_weights":[3.598489E-3,2.4548115E-1,-1.0497872E-1,3.5696188E-1,-1.0766878E-1,4.6332926E-1,-5.0209817E-3,-1.3428652E-1,5.021615E-1,-9.350328E-2,5.824689E-1,6.016574E-1,2.1956429E-1,3.6963522E-1,1.9373013E-1,1.2895438E-1,3.4060564E-2,-7.652872E-2,3.467336E-1,1.9007351E-2,1.5012208E-1,1.8608703E-1,1.1981337E-1,9.918338E-2,-7.597876E-2],"categories":[],"categories_nodes":[],"categories_segments":[],"categories_sizes":[],"default_left":[0,0,0,0,0,0,0,0,0,0,0,0,0,0,0,0,0,0,0,0,0,0,0,0,0],"id":49,"left_children":[1,3,-1,5,-1,7,9,-1,11,-1,13,15,17,19,-1,-1,-1,-1,21,-1,-1,23,-1,-1,-1],"loss_changes":[2.7612083E1,1.2948702E1,0E0,4.9936447E0,0E0,4.41852E0,8.008001E0,0E0,2.7201061E0,0E0,1.0629859E0,1.3574715E0,1.93497E0,8.745153E-1,0E0,0E0,0E0,0E0,8.442559E-1,0E0,0E0,2.2480097E0,0E0,0E0,0E0],"parents":[2147483647,0,0,1,1,3,3,5,5,6,6,8,8,10,10,11,11,12,12,13,13,18,18,21,21],"right_children":[2,4,-1,6,-1,8,10,-1,12,-1,14,16,18,20,-1,-1,-1,-1,22,-1,-1,24,-1,-1,-1],"split_conditions":[-3.9732367E-1,-1.5507485E-1,-1.0497872E-1,-4.5556372E-1,-1.0766878E-1,-1.5764618E0,1.5501654E0,-1.3428652E-1,4.1155827E-1,-9.350328E-2,-2.1491084E-1,-5.270855E-1,-6.434841E-1,-7.8600883E-1,1.9373013E-1,1.2895438E-1,3.4060564E-2,-7.652872E-2,-5.315609E-1,1.9007351E-2,1.5012208E-1,-1.002992E0,1.1981337E-1,9.918338E-2,-7.597876E-2],"split_indices":[1,5,0,3,0,1,0,0,0,0,4,3,3,1,0,0,0,0,3,0,0,5,0,0,0],"split_type":[0,0,0,0,0,0,0,0,0,0,0,0,0,0,0,0,0,0,0,0,0,0,0,0,0],"sum_hessian":[2.1568951E2,1.4804349E2,6.764602E1,1.2963211E2,1.8411371E1,1.0020242E2,2.9429697E1,3.308193E0,9.6894226E1,1.6460497E1,1.29692E1,7.1649536E1,2.5244692E1,8.38114E0,4.58806E0,6.4991035E1,6.658503E0,4.390839E0,2.0853853E1,4.885663E0,3.495477E0,1.2772217E1,8.081635E0,8.25575E0,4.516467E0],"tree_param":{"num_deleted":"0","num_feature":"6","num_nodes":"25","size_leaf_vector":"1"}},{"base_weights":[-2.319741E-2,-1.0507869E-1,6.3579273E-1,2.4310824E-1,1.3687873E-1,1.0300814E-1,-4.065375E-2],"categories":[],"categories_nodes":[],"categories_segments":[],"categories_sizes":[],"default_left":[0,0,0,0,0,0,0],"id":50,"left_children":[1,-1,3,5,-1,-1,-1],"loss_changes":[6.3329475E1,0E0,1.6069756E0,1.1335131E0,0E0,0E0,0E0],"parents":[2147483647,0,0,2,2,3,3],"right_children":[2,-1,4,6,-1,-1,-1],"split_conditions":[9.9345857E-1,-1.0507869E-1,1.8014308E0,5.594527E-1,1.3687873E-1,1.0300814E-1,-4.065375E-2],"split_indices":[4,0,4,1,0,0,0],"split_type":[0,0,0,0,0,0,0],"sum_hessian":[1.910614E2,1.0836073E2,8.270067E1,9.291745E0,7.340893E1,5.7766685E0,3.5150766E0],"tree_param":{"num_deleted":"0","num_feature":"6","num_nodes":"7","size_leaf_vector":"1"}},{"base_weights":[1.3142429E-2,2.9502958E-1,-9.554223E-2,4.777998E-1,-4.692314E-1,3.767138E-1,1.3989976E-1,-1.0768458E-1,-4.4096964E-3,3.0148914E-1,5.8965445E-1,4.6614257E-1,5.029745E-2,1.24933915E-2,1.4466812E-1,6.392286E-1,9.692153E-2,2.4556738E-1,-1.1661501E-1,9.049847E-2,1.6462415E-1,-5.8188602E-2,6.963371E-2,-2.0381441E-2,5.1452076E-1,1.501639E-1,1.2722386E-2],"categories":[],"categories_nodes":[],"categories_segments":[],"categories_sizes":[],"default_left":[0,0,0,0,0,0,0,0,0,0,0,0,0,0,0,0,0,0,0,0,0,0,0,0,0,0,0],"id":51,"left_children":[1,3,-1,5,7,9,-1,-1,-1,11,13,15,17,-1,-1,19,21,23,-1,-1,-1,-1,-1,-1,25,-1,-1],"loss_changes":[2.9880413E1,1.914506E1,0E0,2.4850655E0,8.2487535E-1,1.2143621E0,0E0,0E0,0E0,2.3239365E0,1.4058814E0,2.1669216E0,2.7584019E0,0E0,0E0,7.895546E-1,1.061142E0,1.5959269E0,0E0,0E0,0E0,0E0,0E0,0E0,1.0253477E0,0E0,0E0],"parents":[2147483647,0,0,1,1,3,3,4,4,5,5,9,9,10,10,11,11,12,12,15,15,16,16,17,17,24,24],"right_children":[2,4,-1,6,8,10,-1,-1,-1,12,14,16,18,-1,-1,20,22,24,-1,-1,-1,-1,-1,-1,26,-1,-1],"split_conditions":[-7.480501E-1,-5.6742287E-1,-9.554223E-2,1.4490268E0,-1.2420361E-1,-8.924648E-1,1.3989976E-1,-1.0768458E-1,-4.4096964E-3,-9.1151386E-1,-6.007287E-1,-1.0150917E0,1.059184E-2,1.24933915E-2,1.4466812E-1,-6.252198E-1,-6.386871E-1,-1.041271E0,-1.1661501E-1,9.049847E-2,1.6462415E-1,-5.8188602E-2,6.963371E-2,-2.0381441E-2,-9.579397E-1,1.501639E-1,1.2722386E-2],"split_indices":[5,2,0,0,3,5,0,0,0,2,4,5,0,0,0,0,4,5,0,0,0,0,0,0,5,0,0],"split_type":[0,0,0,0,0,0,0,0,0,0,0,0,0,0,0,0,0,0,0,0,0,0,0,0,0,0,0],"sum_hessian":[2.156435E2,1.3705919E2,7.858431E1,1.1061327E2,2.6445908E1,7.610175E1,3.4511528E1,2.2856E1,3.5899062E0,5.6253845E1,1.9847906E1,3.3967606E1,2.2286242E1,4.0495415E0,1.5798364E1,2.3116632E1,1.085097E1,1.704637E1,5.239873E0,1.1543802E1,1.157283E1,4.2600336E0,6.5909367E0,7.427178E0,9.619191E0,6.293142E0,3.326049E0],"tree_param":{"num_deleted":"0","num_feature":"6","num_nodes":"27","size_leaf_vector":"1"}},{"base_weights":[-7.645138E-3,-1.0287826E-1,2.7850968E-1,5.44767E-1,-1.0490213E-1,2.2611654E-1,6.152943E-1,7.725509E-2,1.636396E-1,1.3076127E-1,4.715456E-2,-1.765625E-2,8.5206434E-2],"categories":[],"categories_nodes":[],"categories_segments":[],"categories_sizes":[],"default_left":[0,0,0,0,0,0,0,0,0,0,0,0,0],"id":52,"left_children":[1,-1,3,5,-1,7,9,11,-1,-1,-1,-1,-1],"loss_changes":[3.0731144E1,0E0,2.8956959E1,2.2797756E0,0E0,1.6233082E0,1.2414474E0,8.551898E-1,0E0,0E0,0E0,0E0,0E0],"parents":[2147483647,0,0,2,2,3,3,5,5,6,6,7,7],"right_children":[2,-1,4,6,-1,8,10,12,-1,-1,-1,-1,-1],"split_conditions":[-2.9818973E-1,-1.0287826E-1,-4.8309785E-1,8.158102E-1,-1.0490213E-1,1.1108041E0,-1.3756663E-1,-8.7982696E-1,1.636396E-1,1.3076127E-1,4.715456E-2,-1.765625E-2,8.5206434E-2],"split_indices":[2,0,5,2,0,3,4,5,0,0,0,0,0],"split_type":[0,0,0,0,0,0,0,0,0,0,0,0,0],"sum_hessian":[2.11595E2,7.629575E1,1.3529926E2,1.0163862E2,3.3660633E1,1.8432533E1,8.3206085E1,1.474253E1,3.6900034E0,7.5343704E1,7.8623815E0,9.990728E0,4.751801E0],"tree_param":{"num_deleted":"0","num_feature":"6","num_nodes":"13","size_leaf_vector":"1"}},{"base_weights":[-1.4799465E-2,2.1270299E-1,-1.05437435E-1,-2.1214701E-1,5.63293E-1,-9.987126E-3,-9.8847866E-2,1.4466874E-1,2.098514E-1,5.37268E-1,-1.8940444E-1,4.7322848E-1,-9.554184E-2,-1.5729463E-2,2.4042381E-1,-9.885475E-2,4.3409325E-2,-1.653282E-2,1.2996355E-1,2.858757E-1,-7.793586E-2,1.2635696E-1,-1.6657796E-2],"categories":[],"categories_nodes":[],"categories_segments":[],"categories_sizes":[],"default_left":[0,0,0,0,0,0,0,0,0,0,0,0,0,0,0,0,0,0,0,0,0,0,0],"id":53,"left_children":[1,3,-1,5,7,9,-1,-1,11,13,15,17,-1,-1,-1,-1,19,-1,-1,21,-1,-1,-1],"loss_changes":[2.4602003E1,2.1745668E1,0E0,3.7708225E0,4.550745E0,3.7781014E0,0E0,0E0,4.5425076E0,3.906531E0,2.0656962E0,1.7928572E0,0E0,0E0,0E0,0E0,1.7292577E0,0E0,0E0,1.3554093E0,0E0,0E0,0E0],"parents":[2147483647,0,0,1,1,3,3,4,4,5,5,8,8,9,9,10,10,11,11,16,16,19,